#include <math.h> 
#include <string.h> 
#include "./include/k2c_include.h" 
#include "./include/k2c_tensor_include.h" 




void resnet20(k2c_tensor* input_1_input, k2c_tensor* dense_2_output) {

	size_t conv2d_stride[2] = { 1,1 };
	size_t conv2d_dilation[2] = { 1,1 };
	int8_t conv2d_output_array[5408] = { 0 };
	k2c_tensor conv2d_output = { &conv2d_output_array[0],3,5408,{26,26, 8, 1, 1} };
	int8_t conv2d_kernel_array[72] = {
	-1.00000000e+01f,+3.70000000e+01f,-6.00000000e+00f,+5.70000000e+01f,-1.27000000e+02f,
	-9.40000000e+01f,+3.20000000e+01f,+3.10000000e+01f,+6.20000000e+01f,+1.00000000e+01f,
	+8.50000000e+01f,-5.60000000e+01f,-1.11000000e+02f,-4.80000000e+01f,+6.10000000e+01f,
	-4.00000000e+01f,+3.40000000e+01f,-7.50000000e+01f,+9.70000000e+01f,-6.50000000e+01f,
	-1.27000000e+02f,+3.70000000e+01f,-1.27000000e+02f,-8.00000000e+00f,+2.60000000e+01f,
	+4.70000000e+01f,+1.80000000e+01f,+8.20000000e+01f,+3.20000000e+01f,-1.30000000e+01f,
	+6.60000000e+01f,-3.20000000e+01f,+2.10000000e+01f,+8.70000000e+01f,+2.20000000e+01f,
	+1.40000000e+01f,+5.90000000e+01f,+8.60000000e+01f,+4.20000000e+01f,+2.80000000e+01f,
	-5.20000000e+01f,+2.90000000e+01f,+4.20000000e+01f,-9.90000000e+01f,-8.80000000e+01f,
	+5.90000000e+01f,-1.07000000e+02f,+5.60000000e+01f,+2.50000000e+01f,-6.90000000e+01f,
	-1.27000000e+02f,+2.00000000e+01f,+8.60000000e+01f,+5.80000000e+01f,+9.40000000e+01f,
	+2.90000000e+01f,+4.90000000e+01f,-8.00000000e+00f,-1.12000000e+02f,+9.80000000e+01f,
	+7.10000000e+01f,-6.00000000e+00f,-4.60000000e+01f,+3.00000000e+01f,+3.00000000e+00f,
	+5.80000000e+01f,-1.27000000e+02f,+2.50000000e+01f,+1.10000000e+01f,-3.70000000e+01f,
	-1.27000000e+02f,+1.40000000e+01f, };
	k2c_tensor conv2d_kernel = { &conv2d_kernel_array[0],4,72,{3,3,1,8,1} };
	int8_t conv2d_bias_array[8] = {
	-5.50000000e+01f,-6.70000000e+01f,-1.00000000e+00f,-6.80000000e+01f,+1.10000000e+01f,
	-3.30000000e+01f,-4.50000000e+01f,-5.00000000e+00f, };
	k2c_tensor conv2d_bias = { &conv2d_bias_array[0],1,8,{8,1,1,1,1} };


	size_t max_pooling2d_stride[2] = { 2,2 };
	size_t max_pooling2d_pool_size[2] = { 2,2 };
	int8_t max_pooling2d_output_array[1352] = { 0 };
	k2c_tensor max_pooling2d_output = { &max_pooling2d_output_array[0],3,1352,{13,13, 8, 1, 1} };


	int8_t flatten_output_array[1352] = { 0 };
	k2c_tensor flatten_output = { &flatten_output_array[0],1,1352,{1352,   1,   1,   1,   1} };
	int8_t dense_kernel_array[13520] = {
	-4.00000000e+00f,+9.00000000e+00f,-7.00000000e+00f,-8.00000000e+00f,+8.00000000e+00f,
	+5.00000000e+00f,+9.00000000e+00f,+4.00000000e+00f,+0.00000000e+00f,-7.00000000e+00f,
	+2.00000000e+00f,+5.00000000e+00f,+1.00000000e+00f,-5.00000000e+00f,+1.00000000e+00f,
	-5.00000000e+00f,+4.00000000e+00f,+8.00000000e+00f,-1.10000000e+01f,+7.00000000e+00f,
	-9.00000000e+00f,+2.50000000e+01f,-7.00000000e+00f,-1.40000000e+01f,+6.00000000e+00f,
	-1.20000000e+01f,+9.00000000e+00f,+4.00000000e+00f,-1.20000000e+01f,+9.00000000e+00f,
	+0.00000000e+00f,-1.00000000e+00f,-4.00000000e+00f,+2.00000000e+00f,-1.00000000e+00f,
	+9.00000000e+00f,-5.00000000e+00f,+4.00000000e+00f,-6.00000000e+00f,-4.00000000e+00f,
	-5.00000000e+00f,+4.10000000e+01f,+0.00000000e+00f,-1.50000000e+01f,+1.00000000e+01f,
	-5.00000000e+00f,+8.00000000e+00f,+2.10000000e+01f,-3.20000000e+01f,-3.00000000e+00f,
	+1.30000000e+01f,+5.00000000e+00f,-3.00000000e+00f,-1.00000000e+01f,-1.10000000e+01f,
	-5.00000000e+00f,-3.00000000e+00f,-1.00000000e+00f,-9.00000000e+00f,+4.00000000e+00f,
	-5.00000000e+00f,+6.00000000e+00f,-3.00000000e+00f,+1.00000000e+00f,+1.10000000e+01f,
	-4.00000000e+00f,+4.00000000e+00f,+0.00000000e+00f,-1.00000000e+01f,+3.00000000e+00f,
	+1.40000000e+01f,+1.00000000e+00f,-1.00000000e+01f,-2.00000000e+00f,+1.00000000e+00f,
	+2.00000000e+00f,-3.00000000e+00f,-1.00000000e+00f,+2.00000000e+00f,+0.00000000e+00f,
	-1.00000000e+00f,+6.00000000e+00f,-6.00000000e+00f,+1.10000000e+01f,-5.00000000e+00f,
	-1.40000000e+01f,+1.20000000e+01f,-3.00000000e+00f,-7.00000000e+00f,+0.00000000e+00f,
	-7.00000000e+00f,+6.00000000e+00f,-1.00000000e+01f,-6.00000000e+00f,-1.00000000e+01f,
	-7.00000000e+00f,+0.00000000e+00f,-6.00000000e+00f,-1.20000000e+01f,-4.00000000e+00f,
	-7.00000000e+00f,+2.40000000e+01f,-1.00000000e+00f,-9.00000000e+00f,+4.00000000e+00f,
	-9.00000000e+00f,+1.10000000e+01f,-2.00000000e+00f,+4.00000000e+00f,+2.00000000e+00f,
	-9.00000000e+00f,+4.00000000e+00f,-6.00000000e+00f,-4.00000000e+00f,-9.00000000e+00f,
	-4.00000000e+00f,+1.60000000e+01f,-1.20000000e+01f,-1.10000000e+01f,-6.00000000e+00f,
	-3.00000000e+00f,+5.00000000e+01f,+1.00000000e+00f,-8.00000000e+00f,+4.00000000e+00f,
	+6.00000000e+00f,-5.00000000e+00f,+2.50000000e+01f,-4.70000000e+01f,+0.00000000e+00f,
	-1.10000000e+01f,+5.00000000e+00f,-1.80000000e+01f,+9.00000000e+00f,-1.30000000e+01f,
	-2.00000000e+01f,+6.00000000e+00f,-7.00000000e+00f,-6.00000000e+00f,+6.00000000e+00f,
	-8.00000000e+00f,+8.00000000e+00f,+0.00000000e+00f,-7.00000000e+00f,-4.00000000e+00f,
	-1.00000000e+00f,+4.00000000e+00f,+2.00000000e+00f,-2.00000000e+00f,-4.00000000e+00f,
	-8.00000000e+00f,+3.00000000e+00f,-2.20000000e+01f,+1.40000000e+01f,-2.00000000e+01f,
	-9.00000000e+00f,+2.30000000e+01f,-7.00000000e+00f,-1.00000000e+00f,-1.20000000e+01f,
	-1.20000000e+01f,-1.70000000e+01f,+0.00000000e+00f,+1.20000000e+01f,-2.20000000e+01f,
	-2.60000000e+01f,+1.40000000e+01f,-1.70000000e+01f,-1.70000000e+01f,-1.00000000e+00f,
	-2.60000000e+01f,-1.40000000e+01f,+2.00000000e+00f,-4.00000000e+00f,-1.20000000e+01f,
	-2.10000000e+01f,+3.20000000e+01f,-6.00000000e+00f,-1.00000000e+01f,-7.00000000e+00f,
	-9.00000000e+00f,+1.60000000e+01f,-1.40000000e+01f,-4.00000000e+00f,-1.50000000e+01f,
	+3.00000000e+00f,+8.00000000e+00f,-1.00000000e+00f,-1.60000000e+01f,-1.00000000e+01f,
	-2.90000000e+01f,-2.20000000e+01f,-1.00000000e+00f,+1.50000000e+01f,-2.30000000e+01f,
	-2.80000000e+01f,+2.30000000e+01f,-1.60000000e+01f,-1.10000000e+01f,-1.10000000e+01f,
	+4.00000000e+00f,+5.10000000e+01f,-2.00000000e+00f,-5.00000000e+00f,+1.00000000e+01f,
	+1.10000000e+01f,+3.00000000e+00f,+2.20000000e+01f,-4.60000000e+01f,-3.00000000e+00f,
	-1.00000000e+00f,-2.20000000e+01f,-3.00000000e+00f,+5.00000000e+00f,-2.10000000e+01f,
	-2.00000000e+01f,+2.10000000e+01f,-1.80000000e+01f,-4.00000000e+00f,-1.20000000e+01f,
	-1.10000000e+01f,+1.50000000e+01f,+1.00000000e+00f,+2.00000000e+00f,+5.00000000e+00f,
	+1.00000000e+01f,-7.00000000e+00f,+3.00000000e+00f,-1.00000000e+00f,-4.00000000e+00f,
	-2.50000000e+01f,-2.30000000e+01f,-7.00000000e+00f,+9.00000000e+00f,-1.80000000e+01f,
	-2.50000000e+01f,+3.40000000e+01f,-2.00000000e+01f,-2.80000000e+01f,-2.30000000e+01f,
	-1.70000000e+01f,-4.50000000e+01f,+1.30000000e+01f,+0.00000000e+00f,-3.30000000e+01f,
	-1.90000000e+01f,+2.30000000e+01f,-2.90000000e+01f,-1.60000000e+01f,-5.00000000e+00f,
	-3.00000000e+01f,-2.70000000e+01f,+2.60000000e+01f,-1.70000000e+01f,-6.90000000e+01f,
	-4.00000000e+00f,+3.20000000e+01f,-3.40000000e+01f,-1.10000000e+01f,-1.70000000e+01f,
	-1.00000000e+00f,+1.10000000e+01f,-1.50000000e+01f,-1.20000000e+01f,-2.00000000e+00f,
	-1.90000000e+01f,+1.30000000e+01f,-2.00000000e+00f,+3.00000000e+00f,-5.00000000e+00f,
	-6.00000000e+00f,-4.50000000e+01f,+1.40000000e+01f,+1.60000000e+01f,-2.30000000e+01f,
	-2.90000000e+01f,+2.80000000e+01f,-4.00000000e+01f,-1.60000000e+01f,-2.80000000e+01f,
	-7.00000000e+00f,+5.10000000e+01f,-3.00000000e+00f,-6.00000000e+00f,-8.00000000e+00f,
	+4.00000000e+00f,+1.70000000e+01f,+1.20000000e+01f,-3.30000000e+01f,-3.00000000e+00f,
	-3.00000000e+01f,-1.90000000e+01f,+1.80000000e+01f,+3.00000000e+00f,-5.40000000e+01f,
	-1.80000000e+01f,+2.10000000e+01f,-2.80000000e+01f,-2.60000000e+01f,-1.90000000e+01f,
	-8.00000000e+00f,-3.00000000e+00f,-1.00000000e+01f,-8.00000000e+00f,-2.70000000e+01f,
	-1.00000000e+01f,+2.80000000e+01f,-1.00000000e+00f,-5.00000000e+00f,-4.00000000e+00f,
	-3.60000000e+01f,-2.40000000e+01f,+2.20000000e+01f,+6.00000000e+00f,-5.10000000e+01f,
	-2.40000000e+01f,+2.50000000e+01f,-4.10000000e+01f,-1.90000000e+01f,-2.20000000e+01f,
	-1.30000000e+01f,-2.40000000e+01f,+3.80000000e+01f,-1.40000000e+01f,-5.70000000e+01f,
	-1.00000000e+00f,+1.80000000e+01f,-2.40000000e+01f,-1.10000000e+01f,-2.90000000e+01f,
	-3.20000000e+01f,-4.10000000e+01f,+2.40000000e+01f,+1.00000000e+00f,-7.60000000e+01f,
	-1.40000000e+01f,+2.40000000e+01f,-4.60000000e+01f,-3.80000000e+01f,-4.00000000e+01f,
	+9.00000000e+00f,+1.80000000e+01f,-1.10000000e+01f,-2.90000000e+01f,-1.20000000e+01f,
	-7.00000000e+00f,+0.00000000e+00f,-1.80000000e+01f,-7.00000000e+00f,-8.00000000e+00f,
	-2.10000000e+01f,-3.40000000e+01f,+3.80000000e+01f,+2.00000000e+00f,-5.20000000e+01f,
	-1.60000000e+01f,+1.20000000e+01f,-4.90000000e+01f,-2.10000000e+01f,-4.30000000e+01f,
	-6.00000000e+00f,+2.10000000e+01f,+1.40000000e+01f,-6.00000000e+00f,-1.00000000e+01f,
	+5.00000000e+00f,+6.00000000e+00f,+1.70000000e+01f,-3.20000000e+01f,-1.10000000e+01f,
	-1.30000000e+01f,-3.00000000e+01f,+2.90000000e+01f,-1.10000000e+01f,-6.80000000e+01f,
	-3.70000000e+01f,+2.20000000e+01f,-5.00000000e+01f,-1.90000000e+01f,-4.20000000e+01f,
	-2.80000000e+01f,+3.00000000e+00f,-4.00000000e+00f,+3.00000000e+00f,-3.00000000e+01f,
	-4.00000000e+00f,+4.40000000e+01f,-2.00000000e+01f,-3.00000000e+01f,-1.00000000e+00f,
	-2.80000000e+01f,-4.60000000e+01f,+3.40000000e+01f,-1.00000000e+01f,-7.50000000e+01f,
	-1.90000000e+01f,+2.30000000e+01f,-5.90000000e+01f,-3.10000000e+01f,-3.00000000e+01f,
	-9.00000000e+00f,-3.60000000e+01f,+2.00000000e+01f,+1.30000000e+01f,-6.30000000e+01f,
	-2.20000000e+01f,+2.30000000e+01f,-4.10000000e+01f,-2.80000000e+01f,-4.60000000e+01f,
	-2.00000000e+01f,+0.00000000e+00f,+2.80000000e+01f,+1.00000000e+00f,-6.00000000e+01f,
	-2.50000000e+01f,+1.50000000e+01f,-4.80000000e+01f,-3.20000000e+01f,-4.90000000e+01f,
	-5.00000000e+00f,+1.90000000e+01f,+2.00000000e+00f,-2.40000000e+01f,-2.10000000e+01f,
	-1.80000000e+01f,+2.00000000e+00f,-1.30000000e+01f,-2.50000000e+01f,-1.40000000e+01f,
	-1.30000000e+01f,-4.90000000e+01f,+3.80000000e+01f,+2.00000000e+01f,-7.50000000e+01f,
	-1.90000000e+01f,+1.60000000e+01f,-4.60000000e+01f,-2.20000000e+01f,-6.30000000e+01f,
	-7.00000000e+00f,+9.00000000e+00f,+1.70000000e+01f,+2.00000000e+00f,-2.50000000e+01f,
	+0.00000000e+00f,+1.70000000e+01f,+1.90000000e+01f,-3.50000000e+01f,-3.00000000e+00f,
	-3.80000000e+01f,-1.40000000e+01f,+3.50000000e+01f,+3.00000000e+00f,-5.10000000e+01f,
	-4.20000000e+01f,+2.30000000e+01f,-5.70000000e+01f,-3.80000000e+01f,-4.80000000e+01f,
	-3.80000000e+01f,-1.60000000e+01f,+2.90000000e+01f,-1.90000000e+01f,-5.30000000e+01f,
	-7.00000000e+00f,+4.10000000e+01f,-3.80000000e+01f,-3.80000000e+01f,-1.30000000e+01f,
	-1.90000000e+01f,-2.70000000e+01f,+3.20000000e+01f,+1.80000000e+01f,-5.80000000e+01f,
	-2.90000000e+01f,+2.40000000e+01f,-5.20000000e+01f,-1.10000000e+01f,-5.60000000e+01f,
	-2.70000000e+01f,-2.10000000e+01f,+2.00000000e+01f,+1.70000000e+01f,-5.40000000e+01f,
	-1.40000000e+01f,+2.10000000e+01f,-3.90000000e+01f,-2.40000000e+01f,-5.00000000e+01f,
	-2.00000000e+01f,+3.50000000e+01f,+1.00000000e+00f,-6.00000000e+00f,-4.20000000e+01f,
	-2.90000000e+01f,+1.40000000e+01f,-2.90000000e+01f,-2.90000000e+01f,-6.60000000e+01f,
	+2.00000000e+01f,+1.00000000e+01f,+1.00000000e+01f,-2.60000000e+01f,-5.10000000e+01f,
	-1.60000000e+01f,-1.10000000e+01f,-1.90000000e+01f,-2.10000000e+01f,-2.50000000e+01f,
	-2.50000000e+01f,-1.80000000e+01f,+2.60000000e+01f,+9.00000000e+00f,-5.30000000e+01f,
	-8.00000000e+00f,+2.60000000e+01f,-5.10000000e+01f,-1.10000000e+01f,-6.70000000e+01f,
	+2.00000000e+00f,+1.70000000e+01f,+1.00000000e+01f,-4.00000000e+00f,-1.30000000e+01f,
	+1.00000000e+00f,+1.50000000e+01f,+9.00000000e+00f,-2.30000000e+01f,-2.50000000e+01f,
	-3.80000000e+01f,+2.40000000e+01f,+2.00000000e+01f,+1.00000000e+00f,-4.50000000e+01f,
	-3.40000000e+01f,+1.30000000e+01f,-3.60000000e+01f,-2.50000000e+01f,-5.90000000e+01f,
	-1.80000000e+01f,+3.00000000e+01f,-6.00000000e+00f,-1.70000000e+01f,-5.60000000e+01f,
	-2.20000000e+01f,+4.00000000e+01f,-3.30000000e+01f,-1.60000000e+01f,-4.50000000e+01f,
	-3.80000000e+01f,+1.30000000e+01f,+1.20000000e+01f,+4.00000000e+00f,-5.50000000e+01f,
	-1.40000000e+01f,+2.00000000e+01f,-4.60000000e+01f,-3.40000000e+01f,-6.10000000e+01f,
	-2.20000000e+01f,-2.00000000e+00f,+1.10000000e+01f,+1.50000000e+01f,-4.00000000e+01f,
	-3.00000000e+00f,+1.20000000e+01f,-1.70000000e+01f,-2.20000000e+01f,-5.00000000e+01f,
	-2.30000000e+01f,+1.70000000e+01f,+1.30000000e+01f,-9.00000000e+00f,-5.70000000e+01f,
	-1.50000000e+01f,-2.00000000e+00f,-2.60000000e+01f,-2.10000000e+01f,-4.70000000e+01f,
	-6.00000000e+00f,-2.00000000e+00f,+6.00000000e+00f,-1.80000000e+01f,-3.10000000e+01f,
	-1.50000000e+01f,+2.10000000e+01f,-1.10000000e+01f,-7.00000000e+00f,-2.50000000e+01f,
	-2.40000000e+01f,-1.70000000e+01f,+9.00000000e+00f,+2.40000000e+01f,-2.50000000e+01f,
	-1.00000000e+01f,+8.00000000e+00f,-3.10000000e+01f,-1.80000000e+01f,-7.00000000e+01f,
	-9.00000000e+00f,+1.10000000e+01f,+5.00000000e+00f,+0.00000000e+00f,-1.10000000e+01f,
	+0.00000000e+00f,+8.00000000e+00f,+1.10000000e+01f,-3.40000000e+01f,-2.20000000e+01f,
	-1.50000000e+01f,+9.00000000e+00f,+3.00000000e+00f,+4.00000000e+00f,-4.70000000e+01f,
	-9.00000000e+00f,+2.70000000e+01f,-3.80000000e+01f,-3.50000000e+01f,-6.80000000e+01f,
	-2.80000000e+01f,+3.00000000e+01f,-2.00000000e+01f,-1.20000000e+01f,-2.90000000e+01f,
	-1.20000000e+01f,+4.00000000e+01f,-3.00000000e+01f,-1.80000000e+01f,-4.50000000e+01f,
	-3.00000000e+01f,+8.00000000e+00f,-2.00000000e+00f,-3.00000000e+00f,-2.50000000e+01f,
	-1.00000000e+00f,+2.40000000e+01f,-4.30000000e+01f,-1.90000000e+01f,-5.40000000e+01f,
	-2.10000000e+01f,-2.90000000e+01f,+6.00000000e+00f,+2.00000000e+01f,-3.00000000e+01f,
	-7.00000000e+00f,+1.10000000e+01f,-1.10000000e+01f,+7.00000000e+00f,-3.70000000e+01f,
	-1.80000000e+01f,-1.20000000e+01f,-8.00000000e+00f,-1.70000000e+01f,-4.50000000e+01f,
	+9.00000000e+00f,+2.60000000e+01f,-2.30000000e+01f,-1.60000000e+01f,-4.20000000e+01f,
	+1.50000000e+01f,-4.00000000e+00f,-3.30000000e+01f,-4.00000000e+00f,-3.40000000e+01f,
	-1.30000000e+01f,+5.30000000e+01f,-1.60000000e+01f,-1.40000000e+01f,-3.00000000e+01f,
	-2.10000000e+01f,-2.70000000e+01f,+7.00000000e+00f,+1.90000000e+01f,-2.90000000e+01f,
	+7.00000000e+00f,+1.70000000e+01f,-3.50000000e+01f,-1.70000000e+01f,-4.90000000e+01f,
	-1.00000000e+01f,+1.00000000e+01f,-2.00000000e+00f,-1.00000000e+00f,-3.00000000e+00f,
	-2.00000000e+00f,+8.00000000e+00f,+1.00000000e+01f,-2.20000000e+01f,-2.20000000e+01f,
	-1.60000000e+01f,+4.00000000e+00f,-1.20000000e+01f,-1.10000000e+01f,-3.70000000e+01f,
	+1.00000000e+00f,+3.20000000e+01f,-2.50000000e+01f,-1.50000000e+01f,-6.00000000e+01f,
	-9.00000000e+00f,+1.40000000e+01f,-5.00000000e+00f,-9.00000000e+00f,-1.90000000e+01f,
	-1.20000000e+01f,+2.30000000e+01f,-1.70000000e+01f,-2.10000000e+01f,-5.10000000e+01f,
	-1.50000000e+01f,-1.40000000e+01f,-1.10000000e+01f,+1.30000000e+01f,-3.10000000e+01f,
	-4.00000000e+00f,+2.30000000e+01f,-3.50000000e+01f,-2.00000000e+01f,-4.70000000e+01f,
	-2.90000000e+01f,-3.70000000e+01f,-1.30000000e+01f,+1.30000000e+01f,-1.30000000e+01f,
	+6.00000000e+00f,+3.40000000e+01f,-1.60000000e+01f,-1.90000000e+01f,-2.50000000e+01f,
	-3.80000000e+01f,-1.90000000e+01f,-2.80000000e+01f,-3.20000000e+01f,-2.90000000e+01f,
	-5.00000000e+00f,+4.90000000e+01f,-2.30000000e+01f,-1.60000000e+01f,-2.90000000e+01f,
	-1.30000000e+01f,-6.00000000e+00f,-3.10000000e+01f,-1.70000000e+01f,-2.50000000e+01f,
	-2.00000000e+00f,+4.50000000e+01f,-1.20000000e+01f,-9.00000000e+00f,-1.10000000e+01f,
	-2.70000000e+01f,-3.70000000e+01f,-2.60000000e+01f,+8.00000000e+00f,+0.00000000e+00f,
	-3.00000000e+00f,+3.10000000e+01f,-2.10000000e+01f,-2.10000000e+01f,-5.00000000e+01f,
	-1.80000000e+01f,+5.00000000e+00f,-1.90000000e+01f,+5.00000000e+00f,+7.00000000e+00f,
	+2.00000000e+00f,+1.50000000e+01f,+1.70000000e+01f,-3.60000000e+01f,-7.00000000e+00f,
	-3.60000000e+01f,-1.50000000e+01f,-2.40000000e+01f,-8.00000000e+00f,-2.50000000e+01f,
	+8.00000000e+00f,+4.10000000e+01f,-2.50000000e+01f,-1.40000000e+01f,-1.30000000e+01f,
	-3.60000000e+01f,+1.00000000e+00f,-2.60000000e+01f,-9.00000000e+00f,-2.10000000e+01f,
	+3.10000000e+01f,+3.00000000e+01f,-2.20000000e+01f,-6.00000000e+00f,-2.00000000e+01f,
	-5.00000000e+01f,-4.90000000e+01f,-6.00000000e+00f,+7.00000000e+00f,-1.30000000e+01f,
	+5.00000000e+00f,+2.50000000e+01f,-3.10000000e+01f,-2.50000000e+01f,-4.30000000e+01f,
	-3.40000000e+01f,-4.90000000e+01f,-1.70000000e+01f,-7.00000000e+00f,-3.00000000e+00f,
	+8.00000000e+00f,+2.40000000e+01f,-1.40000000e+01f,-2.00000000e+00f,-1.90000000e+01f,
	-3.00000000e+01f,-4.00000000e+01f,-2.50000000e+01f,-4.00000000e+01f,-2.00000000e+01f,
	-3.40000000e+01f,+4.20000000e+01f,-1.10000000e+01f,-1.00000000e+00f,-2.80000000e+01f,
	-1.40000000e+01f,-1.00000000e+01f,-2.70000000e+01f,-7.00000000e+00f,-1.70000000e+01f,
	+3.00000000e+00f,+3.00000000e+01f,+0.00000000e+00f,-1.60000000e+01f,-1.70000000e+01f,
	-4.50000000e+01f,-5.40000000e+01f,-1.30000000e+01f,-2.60000000e+01f,-6.00000000e+00f,
	+1.00000000e+00f,+3.70000000e+01f,-2.00000000e+01f,+1.40000000e+01f,-4.50000000e+01f,
	-4.00000000e+00f,+2.50000000e+01f,-1.40000000e+01f,-9.00000000e+00f,+8.00000000e+00f,
	+1.00000000e+00f,+1.00000000e+01f,+2.10000000e+01f,-2.80000000e+01f,-7.00000000e+00f,
	-1.30000000e+01f,-4.70000000e+01f,-2.90000000e+01f,-5.00000000e+00f,-2.10000000e+01f,
	-8.00000000e+00f,+3.40000000e+01f,-2.20000000e+01f,-1.20000000e+01f,-5.30000000e+01f,
	-9.00000000e+00f,-3.30000000e+01f,-2.80000000e+01f,-2.10000000e+01f,-1.00000000e+00f,
	+7.00000000e+00f,+4.40000000e+01f,-7.00000000e+00f,-2.50000000e+01f,-2.40000000e+01f,
	-4.30000000e+01f,-4.70000000e+01f,-1.90000000e+01f,-4.00000000e+00f,+2.00000000e+00f,
	-1.00000000e+00f,+3.90000000e+01f,-1.40000000e+01f,-1.50000000e+01f,-2.90000000e+01f,
	-6.00000000e+00f,-2.60000000e+01f,-1.30000000e+01f,-3.20000000e+01f,-1.40000000e+01f,
	-1.40000000e+01f,+3.90000000e+01f,+0.00000000e+00f,+3.00000000e+00f,-2.20000000e+01f,
	-5.00000000e+00f,-1.80000000e+01f,+2.00000000e+00f,-2.50000000e+01f,-2.80000000e+01f,
	-2.10000000e+01f,+1.50000000e+01f,-2.00000000e+00f,-3.60000000e+01f,-1.40000000e+01f,
	-1.90000000e+01f,+1.00000000e+01f,-4.00000000e+00f,-1.60000000e+01f,-1.20000000e+01f,
	+0.00000000e+00f,+2.60000000e+01f,+6.00000000e+00f,+2.00000000e+00f,+1.00000000e+00f,
	-1.30000000e+01f,-2.50000000e+01f,-2.40000000e+01f,-4.40000000e+01f,-1.80000000e+01f,
	+2.00000000e+00f,+3.70000000e+01f,-4.00000000e+00f,-2.00000000e+00f,-3.00000000e+01f,
	-8.00000000e+00f,+2.80000000e+01f,-6.00000000e+00f,-1.40000000e+01f,+9.00000000e+00f,
	+2.00000000e+00f,+1.40000000e+01f,+1.60000000e+01f,-3.20000000e+01f,-1.20000000e+01f,
	-5.30000000e+01f,-5.30000000e+01f,+1.60000000e+01f,-6.40000000e+01f,-8.00000000e+00f,
	+1.50000000e+01f,+2.30000000e+01f,-1.90000000e+01f,-6.00000000e+00f,-2.70000000e+01f,
	-4.80000000e+01f,-3.10000000e+01f,-1.00000000e+01f,-4.10000000e+01f,+1.00000000e+00f,
	+1.70000000e+01f,+2.90000000e+01f,+3.00000000e+00f,-1.90000000e+01f,-5.00000000e+00f,
	-2.20000000e+01f,-4.20000000e+01f,+6.00000000e+00f,-4.80000000e+01f,-3.00000000e+00f,
	+2.00000000e+00f,+1.50000000e+01f,-8.00000000e+00f,+4.00000000e+00f,-2.70000000e+01f,
	-1.30000000e+01f,-1.20000000e+01f,+4.00000000e+00f,-4.00000000e+00f,-1.00000000e+01f,
	-1.60000000e+01f,-5.00000000e+00f,-7.00000000e+00f,-2.40000000e+01f,+0.00000000e+00f,
	+0.00000000e+00f,-2.00000000e+01f,+2.00000000e+00f,-5.00000000e+00f,-6.00000000e+00f,
	-1.00000000e+00f,+6.00000000e+00f,-2.00000000e+00f,-2.60000000e+01f,+8.00000000e+00f,
	-6.00000000e+00f,+2.70000000e+01f,-4.00000000e+00f,-9.00000000e+00f,-1.00000000e+00f,
	-4.00000000e+00f,+0.00000000e+00f,+1.10000000e+01f,-1.70000000e+01f,-1.00000000e+01f,
	-5.00000000e+00f,-8.00000000e+00f,+4.00000000e+00f,-1.90000000e+01f,-3.30000000e+01f,
	-1.00000000e+00f,-1.10000000e+01f,-9.00000000e+00f,-3.40000000e+01f,+5.00000000e+00f,
	+0.00000000e+00f,+5.00000000e+01f,+4.00000000e+00f,-1.00000000e+01f,-1.00000000e+00f,
	-7.00000000e+00f,-1.00000000e+01f,+1.90000000e+01f,-3.60000000e+01f,-2.00000000e+00f,
	+8.00000000e+00f,-2.50000000e+01f,-3.00000000e+00f,-2.30000000e+01f,-2.90000000e+01f,
	-1.90000000e+01f,+2.60000000e+01f,+3.00000000e+00f,-3.70000000e+01f,+2.00000000e+00f,
	+1.00000000e+00f,-2.00000000e+00f,+8.00000000e+00f,-4.00000000e+00f,-2.90000000e+01f,
	-1.40000000e+01f,+1.40000000e+01f,+1.30000000e+01f,-2.60000000e+01f,-6.00000000e+00f,
	+2.00000000e+00f,-2.10000000e+01f,+7.00000000e+00f,-2.80000000e+01f,-3.10000000e+01f,
	-9.00000000e+00f,+1.90000000e+01f,+5.00000000e+00f,-3.60000000e+01f,-6.00000000e+00f,
	-4.00000000e+00f,-2.00000000e+00f,-7.00000000e+00f,+1.00000000e+00f,-1.00000000e+00f,
	-5.00000000e+00f,-2.00000000e+00f,+1.00000000e+00f,-1.10000000e+01f,-3.00000000e+00f,
	+0.00000000e+00f,+8.00000000e+00f,-8.00000000e+00f,+5.00000000e+00f,+4.00000000e+00f,
	-1.10000000e+01f,-2.00000000e+00f,-8.00000000e+00f,-1.50000000e+01f,-3.00000000e+00f,
	+1.70000000e+01f,+1.30000000e+01f,-1.50000000e+01f,+1.00000000e+00f,-2.00000000e+01f,
	-3.00000000e+00f,+6.00000000e+00f,+3.00000000e+00f,-1.40000000e+01f,-8.00000000e+00f,
	-9.00000000e+00f,+1.10000000e+01f,-6.00000000e+00f,+8.00000000e+00f,+2.00000000e+00f,
	-8.00000000e+00f,-1.10000000e+01f,-4.00000000e+00f,-8.00000000e+00f,-7.00000000e+00f,
	+1.00000000e+00f,+3.70000000e+01f,+3.00000000e+00f,-1.30000000e+01f,+8.00000000e+00f,
	+5.00000000e+00f,+5.00000000e+00f,+2.40000000e+01f,-3.50000000e+01f,-2.00000000e+00f,
	+8.00000000e+00f,-2.00000000e+00f,-1.30000000e+01f,+1.00000000e+01f,-9.00000000e+00f,
	-1.90000000e+01f,+2.00000000e+00f,-1.10000000e+01f,-3.00000000e+00f,-1.00000000e+01f,
	+1.00000000e+00f,+1.30000000e+01f,+0.00000000e+00f,-1.00000000e+01f,+9.00000000e+00f,
	+9.00000000e+00f,-7.00000000e+00f,-3.00000000e+00f,-1.00000000e+01f,+5.00000000e+00f,
	+1.30000000e+01f,+2.00000000e+00f,-3.00000000e+01f,+2.80000000e+01f,-6.00000000e+00f,
	-1.90000000e+01f,+6.00000000e+00f,-1.00000000e+00f,-1.50000000e+01f,-1.50000000e+01f,
	-6.00000000e+00f,+4.00000000e+00f,-1.30000000e+01f,+1.10000000e+01f,+1.70000000e+01f,
	-2.00000000e+01f,-1.50000000e+01f,-7.00000000e+00f,-1.40000000e+01f,-1.90000000e+01f,
	-3.00000000e+01f,+2.20000000e+01f,-2.10000000e+01f,+2.90000000e+01f,+3.00000000e+00f,
	-2.70000000e+01f,+4.00000000e+00f,-3.00000000e+00f,-3.40000000e+01f,-1.60000000e+01f,
	+9.00000000e+00f,+1.20000000e+01f,-2.10000000e+01f,+2.20000000e+01f,-1.80000000e+01f,
	-1.50000000e+01f,+1.20000000e+01f,-4.00000000e+00f,-6.00000000e+00f,-2.00000000e+00f,
	-2.10000000e+01f,+1.20000000e+01f,-1.50000000e+01f,+3.10000000e+01f,+0.00000000e+00f,
	-3.50000000e+01f,+7.00000000e+00f,-9.00000000e+00f,-3.40000000e+01f,-1.90000000e+01f,
	-1.60000000e+01f,+5.00000000e+01f,-5.00000000e+00f,-1.30000000e+01f,-1.00000000e+00f,
	+5.00000000e+00f,+1.00000000e+00f,+1.60000000e+01f,-4.50000000e+01f,+0.00000000e+00f,
	-3.10000000e+01f,+4.00000000e+00f,-1.60000000e+01f,+2.20000000e+01f,-7.00000000e+00f,
	-4.10000000e+01f,+1.70000000e+01f,-3.00000000e+00f,-3.60000000e+01f,-2.70000000e+01f,
	-2.00000000e+00f,+1.60000000e+01f,-3.00000000e+00f,-4.00000000e+00f,-1.00000000e+01f,
	+7.00000000e+00f,-7.00000000e+00f,-3.00000000e+00f,+0.00000000e+00f,+0.00000000e+00f,
	-3.00000000e+01f,+3.30000000e+01f,+1.00000000e+00f,+1.40000000e+01f,-1.40000000e+01f,
	-4.10000000e+01f,+1.60000000e+01f,-3.00000000e+00f,-3.40000000e+01f,-2.80000000e+01f,
	-2.00000000e+01f,+2.10000000e+01f,+2.00000000e+00f,+9.00000000e+00f,-1.30000000e+01f,
	-2.90000000e+01f,+8.00000000e+00f,-1.00000000e+00f,-4.00000000e+00f,-3.70000000e+01f,
	-7.00000000e+00f,+9.00000000e+00f,-3.00000000e+00f,+2.10000000e+01f,-1.00000000e+01f,
	-2.20000000e+01f,-4.00000000e+00f,-8.00000000e+00f,-6.00000000e+00f,-3.80000000e+01f,
	+1.00000000e+01f,+7.00000000e+00f,+7.00000000e+00f,+3.00000000e+00f,-2.30000000e+01f,
	-3.50000000e+01f,+5.00000000e+00f,-9.00000000e+00f,-3.20000000e+01f,-2.90000000e+01f,
	-2.20000000e+01f,+2.40000000e+01f,-1.40000000e+01f,+6.00000000e+00f,+0.00000000e+00f,
	-2.50000000e+01f,-8.00000000e+00f,+6.00000000e+00f,-1.50000000e+01f,-5.20000000e+01f,
	-1.20000000e+01f,+4.90000000e+01f,-1.00000000e+01f,-1.00000000e+01f,-1.00000000e+00f,
	-2.00000000e+00f,+3.00000000e+00f,+2.20000000e+01f,-2.00000000e+01f,-5.00000000e+00f,
	-1.70000000e+01f,-2.00000000e+00f,+8.00000000e+00f,+2.20000000e+01f,-4.00000000e+00f,
	-9.00000000e+00f,+6.00000000e+00f,-2.60000000e+01f,-1.20000000e+01f,-4.90000000e+01f,
	-3.20000000e+01f,+1.20000000e+01f,-2.00000000e+01f,+2.20000000e+01f,+1.40000000e+01f,
	-1.30000000e+01f,+1.30000000e+01f,-1.20000000e+01f,-2.00000000e+01f,+0.00000000e+00f,
	-1.30000000e+01f,-8.00000000e+00f,+7.00000000e+00f,+1.50000000e+01f,-6.00000000e+00f,
	-1.80000000e+01f,+4.00000000e+00f,-1.60000000e+01f,-1.00000000e+01f,-6.70000000e+01f,
	-1.60000000e+01f,-1.70000000e+01f,+6.00000000e+00f,+6.00000000e+00f,-1.20000000e+01f,
	-2.50000000e+01f,+2.20000000e+01f,-7.00000000e+00f,+6.00000000e+00f,-2.30000000e+01f,
	-1.00000000e+01f,+1.30000000e+01f,+1.30000000e+01f,+1.70000000e+01f,-2.20000000e+01f,
	-2.20000000e+01f,+1.50000000e+01f,-2.70000000e+01f,-5.00000000e+00f,-5.40000000e+01f,
	-1.30000000e+01f,-3.90000000e+01f,+5.20000000e+01f,+2.00000000e+00f,-2.20000000e+01f,
	-3.90000000e+01f,-2.70000000e+01f,-2.20000000e+01f,-3.80000000e+01f,-2.00000000e+01f,
	-4.00000000e+00f,-1.00000000e+01f,+9.00000000e+00f,+1.20000000e+01f,-7.00000000e+00f,
	-7.00000000e+00f,-2.00000000e+00f,+1.30000000e+01f,-1.70000000e+01f,-3.00000000e+01f,
	-5.00000000e+00f,+2.50000000e+01f,+0.00000000e+00f,+3.00000000e+00f,+6.00000000e+00f,
	-6.00000000e+00f,-1.70000000e+01f,+1.80000000e+01f,-1.50000000e+01f,-7.00000000e+00f,
	-7.00000000e+00f,-6.00000000e+00f,+4.00000000e+00f,+4.00000000e+00f,-2.40000000e+01f,
	-1.00000000e+01f,+1.40000000e+01f,-3.80000000e+01f,+8.00000000e+00f,-4.00000000e+01f,
	-3.00000000e+01f,+2.50000000e+01f,-3.90000000e+01f,+1.80000000e+01f,-3.00000000e+00f,
	-2.10000000e+01f,+4.80000000e+01f,-1.30000000e+01f,-1.00000000e+00f,-2.80000000e+01f,
	+1.00000000e+00f,-9.00000000e+00f,+1.60000000e+01f,+7.00000000e+00f,-1.30000000e+01f,
	-1.80000000e+01f,+7.00000000e+00f,-7.00000000e+00f,+9.00000000e+00f,-5.50000000e+01f,
	-1.10000000e+01f,+3.00000000e+00f,+1.30000000e+01f,+3.00000000e+00f,-2.60000000e+01f,
	-4.00000000e+00f,+1.80000000e+01f,-7.00000000e+00f,-1.00000000e+01f,-1.60000000e+01f,
	-1.10000000e+01f,+3.00000000e+00f,+2.00000000e+01f,+1.60000000e+01f,-2.40000000e+01f,
	-1.60000000e+01f,-9.00000000e+00f,-5.30000000e+01f,-9.00000000e+00f,-2.50000000e+01f,
	-9.00000000e+00f,-1.80000000e+01f,+2.80000000e+01f,+8.00000000e+00f,-2.30000000e+01f,
	-6.20000000e+01f,-2.30000000e+01f,-4.50000000e+01f,+3.00000000e+00f,-5.20000000e+01f,
	-3.00000000e+00f,+9.00000000e+00f,+2.00000000e+00f,-4.00000000e+00f,-6.00000000e+00f,
	+1.00000000e+00f,-6.00000000e+00f,-1.00000000e+00f,-1.80000000e+01f,-1.30000000e+01f,
	-5.00000000e+00f,+1.80000000e+01f,+6.00000000e+00f,+2.00000000e+00f,+5.00000000e+00f,
	+3.00000000e+00f,-7.00000000e+00f,+1.40000000e+01f,-1.00000000e+01f,-7.00000000e+00f,
	-6.00000000e+00f,-5.00000000e+00f,+1.70000000e+01f,+8.00000000e+00f,-4.00000000e+01f,
	-2.00000000e+00f,-1.00000000e+00f,-3.60000000e+01f,+6.00000000e+00f,-3.30000000e+01f,
	-3.30000000e+01f,+4.50000000e+01f,-3.60000000e+01f,-1.60000000e+01f,+5.00000000e+00f,
	-1.70000000e+01f,+4.60000000e+01f,-1.90000000e+01f,-5.60000000e+01f,-9.00000000e+01f,
	-3.00000000e+00f,-1.70000000e+01f,+1.30000000e+01f,+1.70000000e+01f,-3.30000000e+01f,
	-2.00000000e+00f,+2.00000000e+00f,-1.20000000e+01f,+3.00000000e+00f,-1.40000000e+01f,
	-1.00000000e+00f,-2.00000000e+00f,+1.40000000e+01f,+1.00000000e+01f,-3.40000000e+01f,
	+1.00000000e+00f,+0.00000000e+00f,-1.90000000e+01f,-2.00000000e+00f,+1.60000000e+01f,
	-1.00000000e+00f,-4.00000000e+00f,+2.30000000e+01f,+2.40000000e+01f,-2.60000000e+01f,
	-9.00000000e+00f,-2.00000000e+01f,-4.90000000e+01f,-4.00000000e+00f,-1.60000000e+01f,
	-1.40000000e+01f,-4.50000000e+01f,+4.10000000e+01f,+2.50000000e+01f,-5.70000000e+01f,
	-6.00000000e+01f,-2.20000000e+01f,-6.40000000e+01f,+2.00000000e+00f,-4.60000000e+01f,
	-1.00000000e+00f,+1.10000000e+01f,+1.40000000e+01f,+9.00000000e+00f,-2.20000000e+01f,
	-5.00000000e+00f,-2.60000000e+01f,-1.20000000e+01f,+7.00000000e+00f,+1.60000000e+01f,
	-3.00000000e+00f,+9.00000000e+00f,+5.00000000e+00f,+3.00000000e+00f,+4.00000000e+00f,
	-3.00000000e+00f,-2.10000000e+01f,+2.00000000e+00f,-5.00000000e+00f,+1.00000000e+00f,
	-1.10000000e+01f,-4.00000000e+00f,+1.40000000e+01f,+9.00000000e+00f,-2.10000000e+01f,
	-2.00000000e+00f,-1.10000000e+01f,-2.90000000e+01f,+1.00000000e+00f,-1.30000000e+01f,
	-1.40000000e+01f,+8.00000000e+01f,-2.80000000e+01f,-3.00000000e+00f,+2.30000000e+01f,
	-3.20000000e+01f,+4.20000000e+01f,-3.00000000e+01f,-4.40000000e+01f,-9.00000000e+01f,
	-6.00000000e+00f,-2.00000000e+00f,+1.30000000e+01f,+8.00000000e+00f,-1.20000000e+01f,
	-8.00000000e+00f,-1.30000000e+01f,-1.80000000e+01f,+7.00000000e+00f,+1.00000000e+00f,
	-6.00000000e+00f,+1.00000000e+00f,+9.00000000e+00f,-1.00000000e+00f,-1.00000000e+01f,
	-5.00000000e+00f,+8.00000000e+00f,-7.00000000e+00f,+0.00000000e+00f,+0.00000000e+00f,
	-6.00000000e+00f,-2.00000000e+00f,+2.30000000e+01f,+1.70000000e+01f,-7.00000000e+00f,
	-4.00000000e+00f,-1.10000000e+01f,-4.80000000e+01f,+3.00000000e+00f,-2.00000000e+01f,
	-9.00000000e+00f,-5.30000000e+01f,+3.30000000e+01f,+2.90000000e+01f,-6.30000000e+01f,
	-8.00000000e+00f,-2.50000000e+01f,-4.60000000e+01f,+6.00000000e+00f,-6.40000000e+01f,
	+8.00000000e+00f,+3.00000000e+00f,+1.90000000e+01f,+1.20000000e+01f,-7.00000000e+00f,
	-1.40000000e+01f,-2.00000000e+01f,-9.00000000e+00f,+5.00000000e+00f,-1.00000000e+01f,
	+1.00000000e+00f,+8.00000000e+00f,+1.00000000e+01f,+4.00000000e+00f,-3.00000000e+00f,
	-1.00000000e+00f,-1.30000000e+01f,-7.00000000e+00f,+1.00000000e+00f,-5.00000000e+00f,
	-5.00000000e+00f,-6.00000000e+00f,+1.00000000e+01f,+7.00000000e+00f,-1.00000000e+01f,
	+2.00000000e+00f,-1.10000000e+01f,-3.10000000e+01f,+2.00000000e+00f,-1.00000000e+01f,
	+9.00000000e+00f,+7.50000000e+01f,-1.70000000e+01f,-6.00000000e+00f,+3.10000000e+01f,
	-5.70000000e+01f,+2.30000000e+01f,-6.10000000e+01f,-1.80000000e+01f,-7.10000000e+01f,
	-4.00000000e+00f,+7.00000000e+00f,+1.20000000e+01f,+1.30000000e+01f,-9.00000000e+00f,
	-4.00000000e+00f,-6.00000000e+00f,-2.10000000e+01f,+2.00000000e+00f,-1.30000000e+01f,
	-9.00000000e+00f,+4.00000000e+00f,+9.00000000e+00f,+1.00000000e+01f,-4.00000000e+00f,
	+3.00000000e+00f,+1.10000000e+01f,-5.00000000e+00f,+2.00000000e+00f,-1.80000000e+01f,
	+1.10000000e+01f,-8.00000000e+00f,+1.40000000e+01f,+1.80000000e+01f,-2.10000000e+01f,
	-7.00000000e+00f,-8.00000000e+00f,-5.00000000e+01f,+0.00000000e+00f,-3.00000000e+01f,
	+2.40000000e+01f,-2.60000000e+01f,+1.80000000e+01f,+5.00000000e+00f,-3.70000000e+01f,
	+6.00000000e+00f,-5.00000000e+00f,-4.00000000e+01f,-8.00000000e+00f,-5.10000000e+01f,
	-5.00000000e+00f,+1.00000000e+00f,+6.00000000e+00f,+1.10000000e+01f,-2.00000000e+01f,
	-2.00000000e+00f,-2.00000000e+00f,-2.00000000e+01f,-3.00000000e+00f,-1.50000000e+01f,
	+3.00000000e+00f,+0.00000000e+00f,+6.00000000e+00f,+2.00000000e+00f,+5.00000000e+00f,
	-6.00000000e+00f,+0.00000000e+00f,+1.00000000e+00f,+0.00000000e+00f,-1.40000000e+01f,
	+0.00000000e+00f,+1.10000000e+01f,+1.00000000e+01f,+1.00000000e+01f,-1.60000000e+01f,
	+4.00000000e+00f,+1.50000000e+01f,-4.10000000e+01f,+1.30000000e+01f,-2.60000000e+01f,
	+3.00000000e+00f,+4.70000000e+01f,-2.30000000e+01f,-2.00000000e+01f,+4.20000000e+01f,
	-1.30000000e+01f,+2.70000000e+01f,-3.50000000e+01f,+8.00000000e+00f,-5.30000000e+01f,
	+7.00000000e+00f,+4.00000000e+00f,+1.00000000e+01f,+6.00000000e+00f,-1.00000000e+01f,
	+7.00000000e+00f,+4.00000000e+00f,-1.90000000e+01f,+7.00000000e+00f,-3.50000000e+01f,
	+0.00000000e+00f,+5.00000000e+00f,+1.10000000e+01f,+9.00000000e+00f,-8.00000000e+00f,
	+3.00000000e+00f,+1.40000000e+01f,-2.90000000e+01f,+1.10000000e+01f,-3.10000000e+01f,
	+1.00000000e+01f,+0.00000000e+00f,+7.00000000e+00f,+8.00000000e+00f,-7.00000000e+00f,
	-4.00000000e+00f,-2.00000000e+00f,-7.60000000e+01f,+5.00000000e+00f,-3.60000000e+01f,
	+1.00000000e+01f,-3.80000000e+01f,-2.00000000e+01f,-9.00000000e+00f,-1.20000000e+01f,
	+2.40000000e+01f,-1.00000000e+00f,-3.60000000e+01f,+2.00000000e+01f,-3.50000000e+01f,
	+9.00000000e+00f,-2.00000000e+00f,+1.50000000e+01f,+7.00000000e+00f,-5.00000000e+00f,
	+1.00000000e+00f,-9.00000000e+00f,-3.10000000e+01f,+8.00000000e+00f,-2.50000000e+01f,
	+3.00000000e+00f,+2.00000000e+00f,+3.00000000e+00f,+5.00000000e+00f,+2.00000000e+00f,
	+3.00000000e+00f,+1.00000000e+00f,-1.60000000e+01f,+1.00000000e+00f,-1.40000000e+01f,
	+5.00000000e+00f,+0.00000000e+00f,+4.00000000e+00f,+9.00000000e+00f,+7.00000000e+00f,
	+1.50000000e+01f,+6.00000000e+00f,-4.60000000e+01f,+6.00000000e+00f,-3.60000000e+01f,
	-1.80000000e+01f,+1.50000000e+01f,-1.00000000e+01f,-1.40000000e+01f,+2.80000000e+01f,
	+1.40000000e+01f,+1.00000000e+01f,-5.40000000e+01f,+1.40000000e+01f,-4.70000000e+01f,
	+1.40000000e+01f,+0.00000000e+00f,+7.00000000e+00f,-1.00000000e+00f,-3.00000000e+00f,
	+1.40000000e+01f,+6.00000000e+00f,-3.90000000e+01f,+6.00000000e+00f,-4.10000000e+01f,
	+9.00000000e+00f,-3.00000000e+00f,-9.00000000e+00f,-2.00000000e+00f,+5.00000000e+00f,
	-7.00000000e+00f,+2.70000000e+01f,-4.20000000e+01f,+1.00000000e+00f,-1.10000000e+01f,
	+1.00000000e+00f,+0.00000000e+00f,+4.00000000e+00f,+3.00000000e+00f,-5.00000000e+00f,
	-5.00000000e+00f,+1.70000000e+01f,-4.60000000e+01f,+5.00000000e+00f,-2.90000000e+01f,
	-7.00000000e+00f,-3.80000000e+01f,-3.00000000e+01f,-3.80000000e+01f,-2.00000000e+01f,
	+3.70000000e+01f,+9.00000000e+00f,-3.60000000e+01f,+1.20000000e+01f,-2.70000000e+01f,
	+1.40000000e+01f,+1.10000000e+01f,-1.00000000e+00f,+1.30000000e+01f,-7.00000000e+00f,
	-2.00000000e+00f,+1.00000000e+00f,-5.60000000e+01f,+9.00000000e+00f,-3.00000000e+01f,
	+3.00000000e+00f,+4.00000000e+00f,+4.00000000e+00f,-1.00000000e+00f,+1.00000000e+00f,
	+2.00000000e+00f,-1.00000000e+00f,-1.80000000e+01f,-2.00000000e+00f,-1.20000000e+01f,
	-1.00000000e+00f,+3.00000000e+00f,-8.00000000e+00f,-8.00000000e+00f,+1.10000000e+01f,
	+1.10000000e+01f,+1.60000000e+01f,-4.70000000e+01f,+4.00000000e+00f,-4.00000000e+01f,
	-3.00000000e+00f,+9.00000000e+00f,-9.00000000e+00f,-1.80000000e+01f,+2.20000000e+01f,
	+2.10000000e+01f,+9.00000000e+00f,-5.20000000e+01f,-1.10000000e+01f,-4.20000000e+01f,
	+0.00000000e+00f,+7.00000000e+00f,+3.00000000e+00f,-5.00000000e+00f,+4.00000000e+00f,
	+6.00000000e+00f,+2.30000000e+01f,-4.30000000e+01f,+5.00000000e+00f,-2.00000000e+01f,
	-2.00000000e+00f,+1.30000000e+01f,+1.10000000e+01f,-6.00000000e+00f,+4.00000000e+00f,
	-1.40000000e+01f,+2.00000000e+01f,-5.20000000e+01f,-8.00000000e+00f,-1.90000000e+01f,
	+4.00000000e+00f,-6.00000000e+00f,-1.80000000e+01f,-1.00000000e+00f,+2.00000000e+01f,
	-5.00000000e+00f,+2.20000000e+01f,-2.20000000e+01f,-3.00000000e+00f,-6.00000000e+01f,
	-1.50000000e+01f,-1.70000000e+01f,-2.90000000e+01f,-4.60000000e+01f,-1.20000000e+01f,
	+1.30000000e+01f,+2.30000000e+01f,-2.30000000e+01f,+2.90000000e+01f,-5.30000000e+01f,
	+0.00000000e+00f,+2.30000000e+01f,+1.00000000e+00f,-2.00000000e+00f,+7.00000000e+00f,
	-1.30000000e+01f,+3.00000000e+00f,-6.40000000e+01f,+3.00000000e+00f,-1.30000000e+01f,
	-9.00000000e+00f,+1.70000000e+01f,+1.00000000e+00f,-7.00000000e+00f,+1.10000000e+01f,
	-4.00000000e+00f,+5.00000000e+00f,-1.70000000e+01f,+7.00000000e+00f,-1.10000000e+01f,
	-1.00000000e+00f,+1.40000000e+01f,-1.50000000e+01f,-1.40000000e+01f,+2.60000000e+01f,
	+6.00000000e+00f,+2.20000000e+01f,-6.80000000e+01f,-7.00000000e+00f,-4.20000000e+01f,
	-9.00000000e+00f,+1.30000000e+01f,-1.20000000e+01f,-1.20000000e+01f,+1.80000000e+01f,
	+5.00000000e+00f,+1.10000000e+01f,-4.70000000e+01f,-3.00000000e+00f,-1.90000000e+01f,
	+2.00000000e+00f,-5.00000000e+00f,-1.20000000e+01f,-1.50000000e+01f,+1.70000000e+01f,
	+6.00000000e+00f,+1.30000000e+01f,-6.20000000e+01f,-5.00000000e+00f,-3.40000000e+01f,
	-6.00000000e+00f,+3.00000000e+00f,-6.00000000e+00f,-1.20000000e+01f,+1.90000000e+01f,
	+6.00000000e+00f,+1.80000000e+01f,-4.80000000e+01f,-2.60000000e+01f,-6.10000000e+01f,
	-9.00000000e+00f,-6.00000000e+00f,-3.10000000e+01f,-3.90000000e+01f,+1.10000000e+01f,
	+2.00000000e+00f,+1.30000000e+01f,-3.90000000e+01f,-3.00000000e+00f,-5.50000000e+01f,
	+5.00000000e+00f,+1.00000000e+00f,-1.90000000e+01f,-2.80000000e+01f,-6.00000000e+00f,
	+2.00000000e+00f,+1.70000000e+01f,-2.60000000e+01f,-2.70000000e+01f,-3.60000000e+01f,
	-2.00000000e+00f,-1.00000000e+00f,-2.30000000e+01f,-2.80000000e+01f,+2.90000000e+01f,
	+0.00000000e+00f,+2.70000000e+01f,-9.00000000e+01f,-1.70000000e+01f,-8.90000000e+01f,
	-1.00000000e+00f,+1.00000000e+01f,-8.00000000e+00f,-8.00000000e+00f,+1.90000000e+01f,
	-4.00000000e+00f,+9.00000000e+00f,+8.00000000e+00f,-1.90000000e+01f,-1.60000000e+01f,
	-1.50000000e+01f,+9.00000000e+00f,-2.50000000e+01f,-3.10000000e+01f,+3.40000000e+01f,
	+1.70000000e+01f,+1.00000000e+01f,-6.10000000e+01f,-9.00000000e+00f,-6.10000000e+01f,
	-2.10000000e+01f,+6.00000000e+00f,-9.00000000e+00f,-1.80000000e+01f,+2.00000000e+01f,
	+4.00000000e+00f,+1.00000000e+01f,-4.50000000e+01f,-1.90000000e+01f,-7.50000000e+01f,
	-1.50000000e+01f,-4.00000000e+00f,-1.70000000e+01f,-4.50000000e+01f,+2.70000000e+01f,
	+1.00000000e+01f,+3.00000000e+01f,-7.20000000e+01f,-2.60000000e+01f,-7.00000000e+01f,
	-2.30000000e+01f,-2.20000000e+01f,+7.00000000e+00f,-3.80000000e+01f,+1.10000000e+01f,
	+2.00000000e+00f,+1.50000000e+01f,-2.10000000e+01f,-3.00000000e+00f,-3.00000000e+01f,
	-1.60000000e+01f,-2.60000000e+01f,-1.60000000e+01f,-2.40000000e+01f,+2.00000000e+01f,
	+1.00000000e+01f,-4.00000000e+00f,-1.60000000e+01f,-1.00000000e+00f,-3.00000000e+01f,
	-1.40000000e+01f,-2.00000000e+01f,-1.90000000e+01f,-3.30000000e+01f,+1.30000000e+01f,
	+9.00000000e+00f,+1.00000000e+00f,-1.50000000e+01f,-1.00000000e+01f,-1.90000000e+01f,
	-3.00000000e+01f,-4.00000000e+01f,-4.00000000e+00f,-4.30000000e+01f,+5.00000000e+00f,
	+7.00000000e+00f,+1.00000000e+01f,-3.20000000e+01f,+5.00000000e+00f,-3.20000000e+01f,
	-1.00000000e+01f,+4.10000000e+01f,-9.00000000e+00f,-1.00000000e+01f,+6.00000000e+00f,
	+3.00000000e+00f,+9.00000000e+00f,+1.90000000e+01f,-1.60000000e+01f,-5.00000000e+00f,
	-1.80000000e+01f,-1.50000000e+01f,-4.10000000e+01f,-3.80000000e+01f,+1.00000000e+01f,
	+2.00000000e+00f,+2.50000000e+01f,-4.60000000e+01f,-9.00000000e+00f,-5.50000000e+01f,
	-3.70000000e+01f,-5.00000000e+00f,+0.00000000e+00f,-4.40000000e+01f,+1.80000000e+01f,
	+2.00000000e+01f,+3.00000000e+00f,-2.40000000e+01f,+5.00000000e+00f,-3.40000000e+01f,
	-3.60000000e+01f,-1.80000000e+01f,-1.20000000e+01f,-3.30000000e+01f,+1.90000000e+01f,
	+1.50000000e+01f,+2.00000000e+01f,-4.80000000e+01f,-3.00000000e+00f,-3.70000000e+01f,
	-7.00000000e+00f,-5.00000000e+00f,-6.00000000e+00f,+0.00000000e+00f,-9.00000000e+00f,
	-1.00000000e+01f,-5.00000000e+00f,+1.50000000e+01f,-2.30000000e+01f,-1.60000000e+01f,
	-5.00000000e+00f,-1.30000000e+01f,-8.00000000e+00f,+1.20000000e+01f,-4.00000000e+00f,
	-2.40000000e+01f,-1.90000000e+01f,+1.50000000e+01f,-2.80000000e+01f,-1.30000000e+01f,
	+8.00000000e+00f,+2.40000000e+01f,-2.40000000e+01f,+2.90000000e+01f,-5.00000000e+00f,
	-3.10000000e+01f,+0.00000000e+00f,-7.00000000e+00f,-1.30000000e+01f,-1.20000000e+01f,
	-7.00000000e+00f,-2.60000000e+01f,-9.00000000e+00f,-1.00000000e+00f,-2.00000000e+00f,
	-9.00000000e+00f,-1.70000000e+01f,+2.80000000e+01f,-3.30000000e+01f,-3.50000000e+01f,
	+1.00000000e+01f,+4.70000000e+01f,+0.00000000e+00f,-4.00000000e+00f,+2.00000000e+01f,
	+8.00000000e+00f,+1.10000000e+01f,+2.40000000e+01f,-3.70000000e+01f,-2.30000000e+01f,
	-1.00000000e+01f,+1.00000000e+01f,+0.00000000e+00f,+4.00000000e+00f,-3.00000000e+00f,
	-3.10000000e+01f,-2.80000000e+01f,+8.00000000e+00f,-1.90000000e+01f,-3.60000000e+01f,
	-4.00000000e+00f,+7.00000000e+00f,+4.00000000e+00f,+2.20000000e+01f,-6.00000000e+00f,
	+5.00000000e+00f,+4.00000000e+00f,+2.00000000e+00f,-1.60000000e+01f,-1.50000000e+01f,
	+1.00000000e+00f,-1.40000000e+01f,-6.00000000e+00f,+8.00000000e+00f,+1.30000000e+01f,
	-4.40000000e+01f,-1.30000000e+01f,+3.00000000e+00f,-3.90000000e+01f,-3.80000000e+01f,
	-2.70000000e+01f,-4.00000000e+00f,+1.60000000e+01f,+1.80000000e+01f,+1.20000000e+01f,
	-4.30000000e+01f,-3.00000000e+00f,-2.00000000e+00f,-1.40000000e+01f,-4.50000000e+01f,
	-4.00000000e+00f,-1.00000000e+01f,+2.00000000e+00f,+2.10000000e+01f,+1.90000000e+01f,
	-3.30000000e+01f,-1.40000000e+01f,+8.00000000e+00f,-1.60000000e+01f,-6.20000000e+01f,
	-3.00000000e+01f,+2.40000000e+01f,-1.20000000e+01f,+2.50000000e+01f,-2.20000000e+01f,
	-4.90000000e+01f,-1.30000000e+01f,+3.80000000e+01f,-6.30000000e+01f,-2.90000000e+01f,
	-1.70000000e+01f,+1.70000000e+01f,+1.40000000e+01f,+1.90000000e+01f,+1.60000000e+01f,
	-4.80000000e+01f,+6.00000000e+00f,-5.00000000e+00f,-2.70000000e+01f,-4.90000000e+01f,
	-2.00000000e+00f,+4.70000000e+01f,-3.00000000e+00f,+7.00000000e+00f,+1.20000000e+01f,
	-1.10000000e+01f,-6.00000000e+00f,+9.00000000e+00f,-3.00000000e+01f,-1.70000000e+01f,
	-1.10000000e+01f,+0.00000000e+00f,+0.00000000e+00f,+2.20000000e+01f,+1.10000000e+01f,
	-2.20000000e+01f,-5.00000000e+00f,-9.00000000e+00f,-2.60000000e+01f,-6.00000000e+01f,
	-1.20000000e+01f,+3.00000000e+00f,+1.00000000e+00f,-8.00000000e+00f,+8.00000000e+00f,
	+8.00000000e+00f,+4.00000000e+00f,+1.20000000e+01f,-8.00000000e+00f,-3.00000000e+00f,
	-1.40000000e+01f,+5.00000000e+00f,+4.00000000e+00f,+7.00000000e+00f,+5.00000000e+00f,
	-2.20000000e+01f,+3.00000000e+00f,-3.00000000e+00f,-1.60000000e+01f,-5.50000000e+01f,
	-1.10000000e+01f,+9.00000000e+00f,-9.00000000e+00f,+1.10000000e+01f,+4.00000000e+00f,
	-3.00000000e+00f,-1.00000000e+00f,+1.50000000e+01f,+4.00000000e+00f,-3.80000000e+01f,
	-1.40000000e+01f,-6.00000000e+00f,+2.00000000e+00f,+8.00000000e+00f,+8.00000000e+00f,
	-8.00000000e+00f,-5.00000000e+00f,+1.40000000e+01f,-2.60000000e+01f,-3.50000000e+01f,
	-2.40000000e+01f,+7.00000000e+00f,+2.20000000e+01f,+3.10000000e+01f,-4.00000000e+00f,
	-6.20000000e+01f,-3.30000000e+01f,+1.60000000e+01f,-3.70000000e+01f,-6.00000000e+01f,
	-2.20000000e+01f,+9.00000000e+00f,+1.00000000e+00f,+2.80000000e+01f,+9.00000000e+00f,
	-8.00000000e+00f,-8.00000000e+00f,+1.90000000e+01f,-3.40000000e+01f,-3.60000000e+01f,
	-6.00000000e+00f,+2.30000000e+01f,-4.00000000e+00f,-1.00000000e+00f,+7.00000000e+00f,
	-1.60000000e+01f,-1.90000000e+01f,+9.00000000e+00f,-3.00000000e+01f,-1.80000000e+01f,
	+0.00000000e+00f,-2.60000000e+01f,+7.00000000e+00f,+1.50000000e+01f,+6.00000000e+00f,
	-1.10000000e+01f,-5.00000000e+00f,-5.00000000e+00f,-8.00000000e+00f,-4.50000000e+01f,
	-3.50000000e+01f,+1.60000000e+01f,-1.20000000e+01f,-1.40000000e+01f,+4.00000000e+00f,
	-1.70000000e+01f,+4.40000000e+01f,-4.00000000e+00f,-3.00000000e+01f,-6.10000000e+01f,
	-8.00000000e+00f,-2.20000000e+01f,+5.00000000e+00f,+5.00000000e+00f,+5.00000000e+00f,
	-1.00000000e+01f,-2.00000000e+00f,-2.00000000e+00f,-3.00000000e+00f,-2.90000000e+01f,
	+0.00000000e+00f,-2.40000000e+01f,-4.00000000e+00f,+1.00000000e+00f,-8.00000000e+00f,
	+4.00000000e+00f,+5.00000000e+00f,+9.00000000e+00f,+6.00000000e+00f,-1.40000000e+01f,
	-1.00000000e+01f,-1.40000000e+01f,+8.00000000e+00f,+8.00000000e+00f,+3.00000000e+00f,
	+3.00000000e+00f,-1.70000000e+01f,+1.50000000e+01f,-1.00000000e+01f,-1.40000000e+01f,
	-2.70000000e+01f,-5.00000000e+00f,+3.30000000e+01f,+3.10000000e+01f,-2.40000000e+01f,
	-5.30000000e+01f,-3.50000000e+01f,+3.60000000e+01f,-2.60000000e+01f,-7.90000000e+01f,
	-1.10000000e+01f,+3.00000000e+00f,-1.00000000e+00f,+2.50000000e+01f,+2.00000000e+00f,
	+1.00000000e+00f,-1.00000000e+01f,+2.60000000e+01f,-1.00000000e+01f,-2.20000000e+01f,
	-1.00000000e+00f,+2.50000000e+01f,+3.00000000e+00f,+1.20000000e+01f,+3.00000000e+00f,
	-3.00000000e+00f,-3.40000000e+01f,+1.80000000e+01f,-1.10000000e+01f,+2.00000000e+00f,
	-3.00000000e+00f,-3.20000000e+01f,+1.10000000e+01f,+8.00000000e+00f,-2.00000000e+00f,
	-3.00000000e+00f,+0.00000000e+00f,+4.00000000e+00f,+9.00000000e+00f,-3.00000000e+00f,
	-1.80000000e+01f,+3.20000000e+01f,-4.20000000e+01f,-2.90000000e+01f,+3.50000000e+01f,
	-2.10000000e+01f,+4.20000000e+01f,+1.30000000e+01f,+4.00000000e+00f,-1.17000000e+02f,
	-6.00000000e+00f,-2.10000000e+01f,+0.00000000e+00f,+1.10000000e+01f,-7.00000000e+00f,
	-1.00000000e+01f,-4.00000000e+00f,-1.00000000e+00f,-1.00000000e+00f,+1.00000000e+00f,
	+3.00000000e+00f,-2.00000000e+01f,+7.00000000e+00f,-5.00000000e+00f,-8.00000000e+00f,
	+9.00000000e+00f,-2.00000000e+00f,+1.10000000e+01f,-3.00000000e+00f,-7.00000000e+00f,
	-8.00000000e+00f,-1.30000000e+01f,+4.00000000e+00f,+1.50000000e+01f,-1.10000000e+01f,
	+4.00000000e+00f,-3.00000000e+01f,+2.50000000e+01f,-2.40000000e+01f,-2.40000000e+01f,
	-4.00000000e+01f,-2.50000000e+01f,+2.70000000e+01f,+3.30000000e+01f,-3.70000000e+01f,
	-2.80000000e+01f,-4.90000000e+01f,+4.40000000e+01f,+1.00000000e+00f,-2.30000000e+01f,
	-7.00000000e+00f,+6.00000000e+00f,-3.00000000e+00f,+1.10000000e+01f,+8.00000000e+00f,
	+1.30000000e+01f,-1.60000000e+01f,+2.90000000e+01f,-2.00000000e+01f,-3.30000000e+01f,
	-3.00000000e+00f,-3.00000000e+00f,-2.00000000e+00f,+7.00000000e+00f,+7.00000000e+00f,
	-2.00000000e+00f,-4.10000000e+01f,+1.80000000e+01f,-4.00000000e+00f,-4.00000000e+00f,
	-7.00000000e+00f,-2.20000000e+01f,+1.10000000e+01f,+8.00000000e+00f,-1.80000000e+01f,
	-2.00000000e+00f,-1.70000000e+01f,+4.00000000e+00f,+1.00000000e+00f,-2.00000000e+00f,
	-2.20000000e+01f,+2.10000000e+01f,-5.40000000e+01f,-2.90000000e+01f,+7.00000000e+01f,
	-2.30000000e+01f,+4.50000000e+01f,+7.00000000e+00f,-8.00000000e+00f,-1.27000000e+02f,
	-9.00000000e+00f,-1.40000000e+01f,+8.00000000e+00f,+3.00000000e+00f,-1.20000000e+01f,
	+3.00000000e+00f,-1.10000000e+01f,+3.00000000e+00f,-2.00000000e+00f,-3.00000000e+00f,
	-4.00000000e+00f,-3.00000000e+00f,+8.00000000e+00f,+1.00000000e+00f,-1.00000000e+01f,
	+4.00000000e+00f,-1.00000000e+00f,+9.00000000e+00f,-3.00000000e+00f,-3.00000000e+00f,
	-1.00000000e+00f,-5.00000000e+00f,+1.40000000e+01f,+1.40000000e+01f,-1.40000000e+01f,
	+3.00000000e+00f,-4.40000000e+01f,+2.30000000e+01f,+1.00000000e+00f,-1.00000000e+01f,
	-1.50000000e+01f,-4.20000000e+01f,+1.50000000e+01f,+2.20000000e+01f,-5.80000000e+01f,
	-1.40000000e+01f,-3.80000000e+01f,+2.60000000e+01f,+1.60000000e+01f,+2.10000000e+01f,
	-4.00000000e+00f,+1.90000000e+01f,+4.00000000e+00f,+1.40000000e+01f,+5.00000000e+00f,
	+5.00000000e+00f,-2.90000000e+01f,+1.30000000e+01f,-1.70000000e+01f,-1.10000000e+01f,
	-7.00000000e+00f,-1.00000000e+01f,+3.00000000e+00f,+3.00000000e+00f,+1.00000000e+00f,
	-3.00000000e+00f,-4.50000000e+01f,+6.00000000e+00f,-4.00000000e+00f,-3.00000000e+00f,
	-4.00000000e+00f,-1.60000000e+01f,+7.00000000e+00f,+4.00000000e+00f,-2.70000000e+01f,
	-2.00000000e+00f,-5.00000000e+00f,+7.00000000e+00f,+6.00000000e+00f,-1.00000000e+00f,
	-5.00000000e+00f,+5.60000000e+01f,-3.20000000e+01f,-3.60000000e+01f,+5.30000000e+01f,
	-1.10000000e+01f,+3.70000000e+01f,-2.50000000e+01f,-3.40000000e+01f,-9.40000000e+01f,
	-6.00000000e+00f,-1.70000000e+01f,+2.00000000e+00f,+7.00000000e+00f,-2.30000000e+01f,
	+2.00000000e+00f,-1.20000000e+01f,+6.00000000e+00f,-1.00000000e+00f,+1.00000000e+00f,
	+4.00000000e+00f,+7.00000000e+00f,+2.00000000e+00f,+4.00000000e+00f,-1.20000000e+01f,
	+2.00000000e+00f,-4.00000000e+00f,-7.00000000e+00f,+2.00000000e+00f,+1.00000000e+00f,
	+8.00000000e+00f,-9.00000000e+00f,+1.60000000e+01f,+1.50000000e+01f,-4.50000000e+01f,
	-5.00000000e+00f,-2.90000000e+01f,-2.00000000e+00f,+4.00000000e+00f,+8.00000000e+00f,
	-5.00000000e+00f,-6.20000000e+01f,+1.60000000e+01f,+1.30000000e+01f,-7.10000000e+01f,
	+0.00000000e+00f,-2.20000000e+01f,+2.50000000e+01f,+1.70000000e+01f,+3.60000000e+01f,
	+3.00000000e+00f,+2.00000000e+00f,+1.00000000e+01f,+1.50000000e+01f,-1.70000000e+01f,
	-4.00000000e+00f,-4.00000000e+01f,+1.40000000e+01f,-5.00000000e+00f,+8.00000000e+00f,
	-7.00000000e+00f,-1.90000000e+01f,+1.00000000e+00f,+8.00000000e+00f,-8.00000000e+00f,
	-1.00000000e+00f,-4.00000000e+01f,+4.00000000e+00f,-1.00000000e+00f,+8.00000000e+00f,
	-4.00000000e+00f,-8.00000000e+00f,-2.00000000e+00f,-3.00000000e+00f,-3.10000000e+01f,
	+4.00000000e+00f,-1.00000000e+00f,-2.00000000e+00f,+7.00000000e+00f,-1.00000000e+00f,
	-1.10000000e+01f,+4.70000000e+01f,-1.20000000e+01f,-2.40000000e+01f,+5.80000000e+01f,
	-4.70000000e+01f,+3.10000000e+01f,-2.50000000e+01f,-5.00000000e+00f,-4.90000000e+01f,
	+7.00000000e+00f,-8.00000000e+00f,+5.00000000e+00f,+6.00000000e+00f,-2.00000000e+01f,
	+3.00000000e+00f,+0.00000000e+00f,+3.00000000e+00f,+4.00000000e+00f,+1.20000000e+01f,
	+4.00000000e+00f,+0.00000000e+00f,+8.00000000e+00f,+7.00000000e+00f,-1.10000000e+01f,
	+7.00000000e+00f,+1.00000000e+00f,-1.00000000e+01f,+5.00000000e+00f,-3.00000000e+00f,
	+1.40000000e+01f,-2.00000000e+01f,+1.30000000e+01f,+1.10000000e+01f,-3.30000000e+01f,
	+0.00000000e+00f,-1.90000000e+01f,-8.00000000e+00f,+1.00000000e+01f,+8.00000000e+00f,
	+1.00000000e+00f,-7.20000000e+01f,+1.30000000e+01f,+4.00000000e+00f,-5.20000000e+01f,
	+1.20000000e+01f,-7.00000000e+00f,+1.20000000e+01f,+1.30000000e+01f,+2.70000000e+01f,
	+1.00000000e+01f,-3.00000000e+00f,+9.00000000e+00f,+9.00000000e+00f,-2.70000000e+01f,
	-4.00000000e+00f,-3.50000000e+01f,-1.00000000e+00f,+2.00000000e+00f,+7.00000000e+00f,
	+8.00000000e+00f,-1.20000000e+01f,+5.00000000e+00f,+5.00000000e+00f,-9.00000000e+00f,
	+1.00000000e+00f,-4.00000000e+01f,+1.00000000e+00f,+2.00000000e+00f,+6.00000000e+00f,
	-8.00000000e+00f,-1.40000000e+01f,-6.00000000e+00f,+0.00000000e+00f,-2.30000000e+01f,
	+6.00000000e+00f,+6.00000000e+00f,-6.00000000e+00f,+5.00000000e+00f,+1.50000000e+01f,
	-5.00000000e+00f,+3.20000000e+01f,-1.70000000e+01f,-1.50000000e+01f,+5.40000000e+01f,
	-3.30000000e+01f,+7.00000000e+00f,-2.10000000e+01f,-5.00000000e+00f,-1.50000000e+01f,
	-5.00000000e+00f,-1.30000000e+01f,+5.00000000e+00f,+3.00000000e+00f,-1.90000000e+01f,
	+9.00000000e+00f,+1.00000000e+00f,-4.00000000e+00f,+5.00000000e+00f,+7.00000000e+00f,
	+7.00000000e+00f,-6.00000000e+00f,+1.00000000e+00f,+2.00000000e+00f,-1.00000000e+01f,
	+5.00000000e+00f,+4.00000000e+00f,-1.00000000e+00f,+1.00000000e+00f,-4.00000000e+00f,
	+1.10000000e+01f,-2.00000000e+01f,+1.20000000e+01f,+6.00000000e+00f,-3.10000000e+01f,
	-9.00000000e+00f,-1.00000000e+01f,-1.80000000e+01f,+1.20000000e+01f,+1.30000000e+01f,
	-7.00000000e+00f,-7.40000000e+01f,+2.40000000e+01f,-7.00000000e+00f,-4.90000000e+01f,
	+1.50000000e+01f,+5.00000000e+00f,-8.00000000e+00f,+1.40000000e+01f,+3.20000000e+01f,
	+9.00000000e+00f,-8.00000000e+00f,+8.00000000e+00f,+8.00000000e+00f,-1.20000000e+01f,
	-8.00000000e+00f,-2.20000000e+01f,+5.00000000e+00f,+2.00000000e+00f,+7.00000000e+00f,
	+1.00000000e+00f,-1.60000000e+01f,-2.00000000e+00f,-2.00000000e+00f,-3.00000000e+00f,
	+6.00000000e+00f,-3.10000000e+01f,+6.00000000e+00f,+0.00000000e+00f,+5.00000000e+00f,
	-5.00000000e+00f,-7.00000000e+00f,-6.00000000e+00f,-1.30000000e+01f,-1.50000000e+01f,
	+2.20000000e+01f,+7.00000000e+00f,+2.00000000e+00f,+3.00000000e+00f,+1.10000000e+01f,
	-9.00000000e+00f,+1.20000000e+01f,+0.00000000e+00f,-6.00000000e+00f,+2.90000000e+01f,
	-1.30000000e+01f,-6.00000000e+00f,-5.00000000e+00f,-5.00000000e+00f,-1.00000000e+01f,
	+7.00000000e+00f,-7.00000000e+00f,-1.00000000e+00f,-3.00000000e+00f,-8.00000000e+00f,
	+9.00000000e+00f,-2.00000000e+00f,-1.00000000e+00f,+7.00000000e+00f,+7.00000000e+00f,
	+1.10000000e+01f,+7.00000000e+00f,-3.00000000e+00f,-2.00000000e+00f,-9.00000000e+00f,
	+2.00000000e+00f,-3.00000000e+00f,-7.00000000e+00f,+0.00000000e+00f,+0.00000000e+00f,
	+7.00000000e+00f,-2.50000000e+01f,+4.00000000e+00f,+4.00000000e+00f,-2.40000000e+01f,
	-5.00000000e+00f,-7.00000000e+00f,-2.00000000e+01f,+7.00000000e+00f,+4.00000000e+00f,
	+5.00000000e+00f,-4.40000000e+01f,+1.30000000e+01f,-3.30000000e+01f,-2.20000000e+01f,
	+2.50000000e+01f,+1.20000000e+01f,-3.80000000e+01f,+2.10000000e+01f,-8.00000000e+00f,
	+1.60000000e+01f,-6.00000000e+00f,+6.00000000e+00f,+5.00000000e+00f,-1.00000000e+01f,
	+1.00000000e+00f,-2.00000000e+01f,-2.00000000e+00f,+6.00000000e+00f,+6.00000000e+00f,
	+5.00000000e+00f,-1.40000000e+01f,-2.00000000e+00f,-4.00000000e+00f,-1.00000000e+00f,
	+6.00000000e+00f,-2.30000000e+01f,+3.00000000e+00f,+3.00000000e+00f,+4.00000000e+00f,
	-6.00000000e+00f,+6.00000000e+00f,-2.50000000e+01f,-1.30000000e+01f,+3.00000000e+00f,
	+1.70000000e+01f,+1.00000000e+00f,-6.00000000e+00f,+5.00000000e+00f,-9.00000000e+00f,
	-5.00000000e+00f,+9.00000000e+00f,-3.00000000e+00f,-2.00000000e+00f,+2.80000000e+01f,
	+3.00000000e+00f,-7.00000000e+00f,-1.00000000e+00f,-3.00000000e+00f,-1.30000000e+01f,
	+2.00000000e+00f,+2.00000000e+00f,-1.00000000e+01f,-1.00000000e+00f,+4.00000000e+00f,
	+7.00000000e+00f,+7.00000000e+00f,+4.00000000e+00f,+1.00000000e+00f,-7.00000000e+00f,
	+6.00000000e+00f,+1.30000000e+01f,+0.00000000e+00f,+4.00000000e+00f,+3.00000000e+00f,
	-2.00000000e+00f,-3.00000000e+00f,-2.20000000e+01f,+5.00000000e+00f,+6.00000000e+00f,
	+2.00000000e+01f,-2.00000000e+00f,+1.00000000e+00f,+4.00000000e+00f,-1.00000000e+00f,
	-7.00000000e+00f,-4.00000000e+00f,-2.40000000e+01f,+1.00000000e+01f,-1.00000000e+00f,
	-1.80000000e+01f,-3.80000000e+01f,-5.10000000e+01f,-4.40000000e+01f,+3.60000000e+01f,
	+4.60000000e+01f,+1.90000000e+01f,-5.40000000e+01f,+2.50000000e+01f,-7.90000000e+01f,
	+1.20000000e+01f,+3.00000000e+00f,+6.00000000e+00f,+2.00000000e+00f,-1.10000000e+01f,
	-6.00000000e+00f,+0.00000000e+00f,-4.00000000e+00f,+4.00000000e+00f,+1.00000000e+00f,
	+1.00000000e+00f,-4.00000000e+00f,-5.00000000e+00f,-4.00000000e+00f,-2.00000000e+00f,
	+8.00000000e+00f,-1.40000000e+01f,+5.00000000e+00f,+0.00000000e+00f,-3.00000000e+00f,
	+0.00000000e+00f,+9.00000000e+00f,-2.00000000e+01f,-2.30000000e+01f,+1.30000000e+01f,
	+2.00000000e+01f,+1.00000000e+00f,-5.00000000e+00f,+2.00000000e+00f,-2.50000000e+01f,
	-5.00000000e+00f,+6.00000000e+00f,-4.00000000e+00f,-4.00000000e+00f,+1.60000000e+01f,
	+3.00000000e+00f,-3.00000000e+00f,-1.00000000e+00f,-1.00000000e+00f,-9.00000000e+00f,
	+1.10000000e+01f,+7.00000000e+00f,-5.00000000e+00f,-4.00000000e+00f,+8.00000000e+00f,
	+8.00000000e+00f,+0.00000000e+00f,-4.00000000e+00f,-5.00000000e+00f,-1.70000000e+01f,
	+1.50000000e+01f,+1.00000000e+00f,-1.60000000e+01f,-1.60000000e+01f,+2.70000000e+01f,
	-6.00000000e+00f,+0.00000000e+00f,-2.40000000e+01f,+2.00000000e+00f,-1.90000000e+01f,
	+7.00000000e+00f,-1.00000000e+00f,-2.00000000e+01f,-9.00000000e+00f,+1.00000000e+01f,
	+0.00000000e+00f,+2.20000000e+01f,-4.70000000e+01f,+2.00000000e+00f,-4.90000000e+01f,
	-3.10000000e+01f,-2.50000000e+01f,-6.10000000e+01f,-8.60000000e+01f,+3.60000000e+01f,
	+3.00000000e+01f,+8.00000000e+00f,-4.40000000e+01f,+1.10000000e+01f,-7.00000000e+01f,
	+2.10000000e+01f,+2.00000000e+00f,-9.00000000e+00f,-1.50000000e+01f,+7.00000000e+00f,
	-3.00000000e+00f,-2.00000000e+00f,-2.40000000e+01f,-2.00000000e+00f,-2.80000000e+01f,
	-1.00000000e+00f,+7.00000000e+00f,+0.00000000e+00f,-8.00000000e+00f,+1.10000000e+01f,
	+6.00000000e+00f,-3.00000000e+00f,+4.00000000e+00f,+0.00000000e+00f,-6.00000000e+00f,
	-7.00000000e+00f,+2.00000000e+00f,-2.80000000e+01f,-2.80000000e+01f,+2.30000000e+01f,
	+2.30000000e+01f,+7.00000000e+00f,-1.30000000e+01f,+1.20000000e+01f,-3.70000000e+01f,
	+1.60000000e+01f,+1.00000000e+01f,+4.00000000e+00f,-2.00000000e+00f,+2.50000000e+01f,
	+1.00000000e+00f,+6.00000000e+00f,-9.00000000e+00f,-3.00000000e+00f,-1.90000000e+01f,
	+5.00000000e+00f,+0.00000000e+00f,-2.40000000e+01f,-1.00000000e+01f,+1.80000000e+01f,
	+5.00000000e+00f,+1.60000000e+01f,-2.80000000e+01f,+6.00000000e+00f,-3.90000000e+01f,
	-2.00000000e+01f,-3.30000000e+01f,-1.90000000e+01f,-1.80000000e+01f,+1.00000000e+01f,
	+1.30000000e+01f,+1.40000000e+01f,-4.30000000e+01f,-2.00000000e+00f,-5.10000000e+01f,
	-4.20000000e+01f,-1.90000000e+01f,-2.80000000e+01f,-1.60000000e+01f,+9.00000000e+00f,
	+1.50000000e+01f,+1.80000000e+01f,-4.60000000e+01f,-3.00000000e+00f,-3.80000000e+01f,
	-6.30000000e+01f,-4.20000000e+01f,-2.30000000e+01f,-4.60000000e+01f,+1.00000000e+00f,
	+2.50000000e+01f,+0.00000000e+00f,-4.90000000e+01f,+1.10000000e+01f,-6.50000000e+01f,
	-4.90000000e+01f,-3.00000000e+01f,-1.90000000e+01f,-2.00000000e+01f,+1.60000000e+01f,
	+2.00000000e+01f,+1.50000000e+01f,-3.40000000e+01f,-3.00000000e+00f,-5.20000000e+01f,
	-3.00000000e+00f,+3.30000000e+01f,-2.00000000e+00f,-2.10000000e+01f,+1.40000000e+01f,
	+5.00000000e+00f,+5.00000000e+00f,+7.00000000e+00f,-8.00000000e+00f,-2.70000000e+01f,
	-2.60000000e+01f,-3.60000000e+01f,-2.40000000e+01f,-2.10000000e+01f,+1.90000000e+01f,
	+1.80000000e+01f,+1.30000000e+01f,-4.40000000e+01f,+0.00000000e+00f,-6.10000000e+01f,
	-2.00000000e+01f,-2.20000000e+01f,-2.40000000e+01f,-2.00000000e+00f,+1.10000000e+01f,
	+5.00000000e+00f,+1.50000000e+01f,-3.80000000e+01f,-8.00000000e+00f,-3.80000000e+01f,
	-2.80000000e+01f,-3.10000000e+01f,-2.70000000e+01f,-2.60000000e+01f,+3.40000000e+01f,
	+2.00000000e+01f,+2.20000000e+01f,-5.40000000e+01f,-3.00000000e+00f,-6.10000000e+01f,
	-1.20000000e+01f,-2.40000000e+01f,-1.00000000e+01f,+4.00000000e+00f,-1.60000000e+01f,
	-2.50000000e+01f,-1.00000000e+01f,+2.10000000e+01f,-2.90000000e+01f,-2.90000000e+01f,
	-2.30000000e+01f,-1.60000000e+01f,+6.00000000e+00f,+7.00000000e+00f,-4.00000000e+00f,
	-4.50000000e+01f,-2.00000000e+01f,+2.50000000e+01f,-5.00000000e+00f,-2.80000000e+01f,
	-1.50000000e+01f,-1.60000000e+01f,-1.00000000e+00f,+1.50000000e+01f,-1.40000000e+01f,
	-2.30000000e+01f,-2.00000000e+01f,+5.00000000e+00f,-5.00000000e+01f,-4.00000000e+01f,
	-3.00000000e+00f,-7.00000000e+00f,-2.00000000e+00f,+6.00000000e+00f,-2.60000000e+01f,
	-2.90000000e+01f,-2.00000000e+01f,+3.50000000e+01f,-1.30000000e+01f,-3.10000000e+01f,
	+3.00000000e+00f,+4.10000000e+01f,-3.00000000e+00f,-1.00000000e+00f,+1.10000000e+01f,
	+1.00000000e+00f,+1.00000000e+01f,+1.80000000e+01f,-4.40000000e+01f,-9.00000000e+00f,
	-1.40000000e+01f,-1.10000000e+01f,+8.00000000e+00f,+2.00000000e+00f,+2.00000000e+00f,
	-5.60000000e+01f,-2.00000000e+01f,+1.20000000e+01f,-6.00000000e+00f,-3.20000000e+01f,
	-1.10000000e+01f,-6.00000000e+00f,+9.00000000e+00f,+3.00000000e+00f,-4.00000000e+00f,
	+8.00000000e+00f,+0.00000000e+00f,+1.00000000e+01f,-1.80000000e+01f,-1.10000000e+01f,
	-2.10000000e+01f,-3.30000000e+01f,+1.40000000e+01f,+1.60000000e+01f,+7.00000000e+00f,
	-5.50000000e+01f,-2.60000000e+01f,-3.00000000e+00f,-4.00000000e+00f,-2.30000000e+01f,
	-2.40000000e+01f,-4.00000000e+00f,+1.30000000e+01f,+9.00000000e+00f,+1.80000000e+01f,
	-2.70000000e+01f,-8.00000000e+00f,+5.00000000e+00f,+1.30000000e+01f,-2.50000000e+01f,
	-3.80000000e+01f,-7.00000000e+00f,+7.00000000e+00f,+1.60000000e+01f,+1.90000000e+01f,
	-4.40000000e+01f,-2.10000000e+01f,+1.90000000e+01f,-2.00000000e+00f,-2.40000000e+01f,
	-6.00000000e+00f,+1.20000000e+01f,+1.40000000e+01f,+2.40000000e+01f,+5.00000000e+00f,
	-4.80000000e+01f,-3.60000000e+01f,+2.10000000e+01f,-1.60000000e+01f,-8.10000000e+01f,
	-3.50000000e+01f,-2.70000000e+01f,-1.40000000e+01f,+2.00000000e+01f,-3.00000000e+00f,
	-5.60000000e+01f,-1.40000000e+01f,+5.70000000e+01f,-2.20000000e+01f,-5.30000000e+01f,
	-1.20000000e+01f,+4.30000000e+01f,-6.00000000e+00f,+7.00000000e+00f,+4.00000000e+00f,
	-8.00000000e+00f,-1.70000000e+01f,+3.80000000e+01f,-3.40000000e+01f,-1.20000000e+01f,
	-3.40000000e+01f,-1.80000000e+01f,+5.00000000e+00f,+2.20000000e+01f,+5.00000000e+00f,
	-3.50000000e+01f,-5.00000000e+00f,+1.00000000e+00f,+1.00000000e+00f,-2.60000000e+01f,
	+1.00000000e+00f,+0.00000000e+00f,-1.00000000e+00f,-1.10000000e+01f,+1.50000000e+01f,
	+0.00000000e+00f,-8.00000000e+00f,+1.80000000e+01f,+2.00000000e+00f,-1.70000000e+01f,
	-1.20000000e+01f,-8.00000000e+00f,+1.60000000e+01f,+1.30000000e+01f,+1.00000000e+01f,
	-3.00000000e+01f,-2.30000000e+01f,-2.00000000e+00f,-1.00000000e+00f,-2.30000000e+01f,
	-4.00000000e+00f,-8.00000000e+00f,-2.00000000e+00f,+0.00000000e+00f,-1.00000000e+00f,
	-8.00000000e+00f,+3.00000000e+00f,-4.00000000e+00f,+9.00000000e+00f,-1.50000000e+01f,
	-1.20000000e+01f,-1.90000000e+01f,-3.00000000e+00f,+1.00000000e+01f,-8.00000000e+00f,
	-5.00000000e+00f,-2.20000000e+01f,+2.30000000e+01f,-1.00000000e+00f,-2.30000000e+01f,
	-2.00000000e+01f,-9.00000000e+00f,+2.90000000e+01f,+2.60000000e+01f,-7.00000000e+00f,
	-4.70000000e+01f,-3.40000000e+01f,+1.80000000e+01f,-1.70000000e+01f,-3.90000000e+01f,
	-2.40000000e+01f,-3.00000000e+01f,-1.40000000e+01f,-1.00000000e+00f,+1.80000000e+01f,
	-6.00000000e+00f,-1.10000000e+01f,+4.30000000e+01f,+4.00000000e+00f,-5.70000000e+01f,
	-1.30000000e+01f,+2.90000000e+01f,-2.00000000e+00f,+4.00000000e+00f,+4.00000000e+00f,
	-2.10000000e+01f,-3.10000000e+01f,+3.00000000e+01f,-2.40000000e+01f,-1.90000000e+01f,
	-1.70000000e+01f,-3.10000000e+01f,+6.00000000e+00f,+1.10000000e+01f,+3.00000000e+00f,
	-1.00000000e+01f,-1.00000000e+01f,+4.00000000e+00f,+5.00000000e+00f,-8.00000000e+00f,
	-3.10000000e+01f,+2.00000000e+01f,-7.00000000e+00f,-1.40000000e+01f,+2.00000000e+01f,
	-2.00000000e+00f,+4.50000000e+01f,-2.60000000e+01f,-1.00000000e+00f,-5.60000000e+01f,
	+5.00000000e+00f,-1.50000000e+01f,-1.00000000e+00f,+5.00000000e+00f,-7.00000000e+00f,
	-9.00000000e+00f,-9.00000000e+00f,+4.00000000e+00f,+1.00000000e+00f,-2.00000000e+00f,
	-5.00000000e+00f,-1.30000000e+01f,-8.00000000e+00f,-1.00000000e+00f,-1.00000000e+00f,
	+1.30000000e+01f,+0.00000000e+00f,-2.00000000e+00f,+1.10000000e+01f,-1.00000000e+00f,
	-7.00000000e+00f,-3.00000000e+00f,+0.00000000e+00f,+3.00000000e+00f,-9.00000000e+00f,
	+1.00000000e+01f,-5.00000000e+00f,+3.30000000e+01f,+0.00000000e+00f,-3.70000000e+01f,
	-2.30000000e+01f,-1.40000000e+01f,+2.20000000e+01f,+2.30000000e+01f,-4.70000000e+01f,
	-3.80000000e+01f,-3.90000000e+01f,+3.80000000e+01f,-5.00000000e+00f,-1.00000000e+01f,
	-7.00000000e+00f,+4.00000000e+00f,-3.60000000e+01f,-9.00000000e+00f,+1.00000000e+01f,
	+1.20000000e+01f,-9.00000000e+00f,+4.80000000e+01f,+6.00000000e+00f,-4.80000000e+01f,
	-3.00000000e+00f,+2.70000000e+01f,-2.00000000e+00f,+1.20000000e+01f,-2.00000000e+00f,
	-1.20000000e+01f,-4.10000000e+01f,+3.00000000e+01f,-1.10000000e+01f,-1.40000000e+01f,
	-2.00000000e+00f,-3.10000000e+01f,+1.00000000e+00f,+8.00000000e+00f,-1.70000000e+01f,
	-9.00000000e+00f,-5.00000000e+00f,+2.00000000e+00f,+2.00000000e+00f,+3.00000000e+00f,
	-4.00000000e+00f,+1.00000000e+00f,-4.60000000e+01f,-5.30000000e+01f,+5.90000000e+01f,
	+4.00000000e+00f,+3.90000000e+01f,+7.00000000e+00f,+1.50000000e+01f,-1.60000000e+01f,
	+6.00000000e+00f,-2.30000000e+01f,+3.00000000e+00f,+1.00000000e+00f,-5.00000000e+00f,
	-4.00000000e+00f,+6.00000000e+00f,+3.00000000e+00f,+0.00000000e+00f,+4.00000000e+00f,
	-3.00000000e+00f,-1.30000000e+01f,+5.00000000e+00f,-6.00000000e+00f,-9.00000000e+00f,
	+1.00000000e+01f,-2.00000000e+00f,+2.00000000e+00f,+5.00000000e+00f,+0.00000000e+00f,
	+4.00000000e+00f,-1.20000000e+01f,+2.00000000e+00f,+0.00000000e+00f,-1.30000000e+01f,
	+1.20000000e+01f,-2.00000000e+01f,+3.00000000e+01f,+1.00000000e+00f,-2.50000000e+01f,
	-2.00000000e+01f,-2.50000000e+01f,+2.00000000e+01f,+2.40000000e+01f,-6.80000000e+01f,
	-2.70000000e+01f,-2.60000000e+01f,+2.60000000e+01f,-6.00000000e+00f,+5.00000000e+00f,
	-9.00000000e+00f,-1.10000000e+01f,-1.20000000e+01f,-2.70000000e+01f,+2.30000000e+01f,
	+2.60000000e+01f,-1.60000000e+01f,+4.70000000e+01f,+1.20000000e+01f,-5.40000000e+01f,
	-1.40000000e+01f,+2.20000000e+01f,+1.70000000e+01f,+9.00000000e+00f,+5.00000000e+00f,
	-1.20000000e+01f,-4.10000000e+01f,+2.60000000e+01f,-1.70000000e+01f,-6.00000000e+00f,
	-6.00000000e+00f,-1.70000000e+01f,+1.00000000e+00f,+3.00000000e+00f,-2.10000000e+01f,
	-5.00000000e+00f,-6.00000000e+00f,+1.10000000e+01f,+5.00000000e+00f,+6.00000000e+00f,
	+4.00000000e+00f,-4.60000000e+01f,-3.60000000e+01f,-5.80000000e+01f,+6.60000000e+01f,
	+0.00000000e+00f,+2.80000000e+01f,-1.90000000e+01f,+4.00000000e+00f,-1.50000000e+01f,
	-6.00000000e+00f,-2.10000000e+01f,+8.00000000e+00f,-6.00000000e+00f,-1.00000000e+01f,
	-5.00000000e+00f,+0.00000000e+00f,+2.00000000e+00f,+5.00000000e+00f,+9.00000000e+00f,
	+6.00000000e+00f,-7.00000000e+00f,+0.00000000e+00f,-3.00000000e+00f,-1.10000000e+01f,
	+7.00000000e+00f,-1.00000000e+00f,+3.00000000e+00f,+1.00000000e+00f,+3.00000000e+00f,
	+1.60000000e+01f,+0.00000000e+00f,+2.00000000e+00f,+3.00000000e+00f,-2.70000000e+01f,
	+8.00000000e+00f,-3.40000000e+01f,+2.40000000e+01f,+1.00000000e+01f,-1.30000000e+01f,
	-1.70000000e+01f,-4.00000000e+01f,+1.50000000e+01f,+1.80000000e+01f,-8.40000000e+01f,
	-1.00000000e+01f,-3.40000000e+01f,+1.60000000e+01f,+2.00000000e+00f,+1.60000000e+01f,
	-5.00000000e+00f,+9.00000000e+00f,-6.00000000e+00f,-2.30000000e+01f,+1.40000000e+01f,
	+1.60000000e+01f,-1.30000000e+01f,+2.70000000e+01f,+1.50000000e+01f,-3.60000000e+01f,
	-1.80000000e+01f,-2.50000000e+01f,+1.40000000e+01f,+2.00000000e+01f,+3.00000000e+00f,
	-3.00000000e+00f,-5.70000000e+01f,+1.70000000e+01f,+9.00000000e+00f,+8.00000000e+00f,
	-2.00000000e+00f,-2.50000000e+01f,-2.00000000e+00f,+2.00000000e+00f,-1.50000000e+01f,
	-5.00000000e+00f,-3.00000000e+00f,+4.00000000e+00f,+4.00000000e+00f,+1.20000000e+01f,
	+6.00000000e+00f,-2.00000000e+01f,-1.50000000e+01f,-7.90000000e+01f,+5.70000000e+01f,
	-1.00000000e+00f,+2.70000000e+01f,-3.30000000e+01f,-9.00000000e+00f,+0.00000000e+00f,
	-1.00000000e+00f,-1.30000000e+01f,+0.00000000e+00f,-6.00000000e+00f,-1.10000000e+01f,
	+2.00000000e+00f,-7.00000000e+00f,+7.00000000e+00f,+6.00000000e+00f,+7.00000000e+00f,
	-5.00000000e+00f,-6.00000000e+00f,-6.00000000e+00f,-6.00000000e+00f,-1.40000000e+01f,
	+5.00000000e+00f,-6.00000000e+00f,-4.00000000e+00f,+4.00000000e+00f,+6.00000000e+00f,
	+1.40000000e+01f,+1.00000000e+00f,+8.00000000e+00f,+3.00000000e+00f,-4.90000000e+01f,
	+1.00000000e+00f,-3.00000000e+01f,+1.60000000e+01f,+4.00000000e+00f,+1.00000000e+01f,
	-4.00000000e+00f,-7.10000000e+01f,+1.30000000e+01f,+1.90000000e+01f,-7.40000000e+01f,
	+7.00000000e+00f,-1.40000000e+01f,+1.00000000e+01f,+1.10000000e+01f,+2.00000000e+01f,
	+9.00000000e+00f,+6.00000000e+00f,-2.00000000e+00f,-1.50000000e+01f,+6.00000000e+00f,
	+4.00000000e+00f,-3.90000000e+01f,+1.40000000e+01f,+4.00000000e+00f,-1.20000000e+01f,
	-7.00000000e+00f,-2.90000000e+01f,+9.00000000e+00f,+7.00000000e+00f,-2.60000000e+01f,
	-1.00000000e+01f,-5.70000000e+01f,+1.60000000e+01f,-5.00000000e+00f,+1.20000000e+01f,
	+2.00000000e+00f,-1.40000000e+01f,-8.00000000e+00f,+0.00000000e+00f,-1.80000000e+01f,
	+3.00000000e+00f,+3.00000000e+00f,-2.00000000e+00f,+5.00000000e+00f,+1.60000000e+01f,
	-3.00000000e+00f,+3.00000000e+00f,-1.00000000e+01f,-3.80000000e+01f,+4.90000000e+01f,
	-1.30000000e+01f,+8.00000000e+00f,-4.80000000e+01f,+2.00000000e+00f,-1.50000000e+01f,
	+4.00000000e+00f,-9.00000000e+00f,-6.00000000e+00f,+6.00000000e+00f,-2.50000000e+01f,
	-2.00000000e+00f,-4.00000000e+00f,+4.00000000e+00f,+4.00000000e+00f,+1.10000000e+01f,
	+6.00000000e+00f,+7.00000000e+00f,-2.00000000e+00f,+2.00000000e+00f,-1.60000000e+01f,
	+2.00000000e+00f,-2.00000000e+00f,+7.00000000e+00f,+2.00000000e+00f,+4.00000000e+00f,
	+1.30000000e+01f,-1.20000000e+01f,+1.00000000e+00f,+1.00000000e+00f,-4.50000000e+01f,
	-1.00000000e+00f,-3.50000000e+01f,+5.00000000e+00f,+8.00000000e+00f,+1.70000000e+01f,
	+7.00000000e+00f,-1.00000000e+02f,+1.30000000e+01f,+9.00000000e+00f,-8.00000000e+01f,
	+2.60000000e+01f,+5.00000000e+00f,+6.00000000e+00f,+1.30000000e+01f,+2.10000000e+01f,
	+1.80000000e+01f,+0.00000000e+00f,+1.10000000e+01f,+1.00000000e+00f,-1.30000000e+01f,
	-1.80000000e+01f,-3.80000000e+01f,+9.00000000e+00f,+0.00000000e+00f,+8.00000000e+00f,
	+7.00000000e+00f,-3.60000000e+01f,+4.00000000e+00f,+7.00000000e+00f,-4.10000000e+01f,
	+1.90000000e+01f,-5.50000000e+01f,+1.50000000e+01f,-1.10000000e+01f,+1.70000000e+01f,
	+3.00000000e+00f,-1.00000000e+01f,-1.80000000e+01f,+1.00000000e+00f,-1.10000000e+01f,
	-1.00000000e+00f,+6.00000000e+00f,+9.00000000e+00f,+0.00000000e+00f,+1.40000000e+01f,
	-3.10000000e+01f,+1.70000000e+01f,-3.00000000e+00f,+6.00000000e+00f,+4.90000000e+01f,
	-6.10000000e+01f,+0.00000000e+00f,-1.90000000e+01f,-4.00000000e+00f,+4.00000000e+00f,
	+1.00000000e+01f,+4.00000000e+00f,-7.00000000e+00f,+3.00000000e+00f,-1.00000000e+01f,
	+1.00000000e+00f,-6.00000000e+00f,+1.00000000e+01f,+2.00000000e+00f,+8.00000000e+00f,
	+1.00000000e+01f,+0.00000000e+00f,-7.00000000e+00f,+2.00000000e+00f,+1.00000000e+00f,
	-7.00000000e+00f,-1.30000000e+01f,+7.00000000e+00f,-2.00000000e+00f,+1.00000000e+00f,
	+2.40000000e+01f,-2.30000000e+01f,-3.00000000e+00f,+5.00000000e+00f,-4.10000000e+01f,
	+3.00000000e+00f,-3.70000000e+01f,+5.00000000e+00f,+3.00000000e+00f,+1.40000000e+01f,
	+6.00000000e+00f,-8.80000000e+01f,+0.00000000e+00f,-7.00000000e+00f,-1.01000000e+02f,
	+3.00000000e+01f,+1.70000000e+01f,-1.70000000e+01f,+1.10000000e+01f,+1.90000000e+01f,
	+2.10000000e+01f,-8.00000000e+00f,+8.00000000e+00f,+6.00000000e+00f,-5.00000000e+00f,
	-1.90000000e+01f,-4.80000000e+01f,+9.00000000e+00f,+2.00000000e+00f,+8.00000000e+00f,
	+1.40000000e+01f,-5.20000000e+01f,-2.00000000e+00f,-6.00000000e+00f,-2.30000000e+01f,
	+1.80000000e+01f,-6.00000000e+00f,+1.30000000e+01f,-3.00000000e+00f,+7.00000000e+00f,
	+3.00000000e+00f,-2.00000000e+00f,-2.50000000e+01f,-1.00000000e+00f,-2.00000000e+00f,
	+1.00000000e+00f,-8.00000000e+00f,+1.00000000e+01f,-4.00000000e+00f,-6.00000000e+00f,
	+8.00000000e+00f,+4.00000000e+00f,+3.00000000e+00f,+0.00000000e+00f,+2.40000000e+01f,
	-6.70000000e+01f,-2.30000000e+01f,+7.00000000e+00f,+1.00000000e+00f,+1.00000000e+00f,
	+8.00000000e+00f,+3.00000000e+00f,+0.00000000e+00f,+6.00000000e+00f,+6.00000000e+00f,
	+4.00000000e+00f,-2.20000000e+01f,+1.10000000e+01f,+7.00000000e+00f,+2.00000000e+00f,
	+2.00000000e+00f,+4.00000000e+00f,-7.00000000e+00f,+2.00000000e+00f,+7.00000000e+00f,
	-1.10000000e+01f,-1.60000000e+01f,+8.00000000e+00f,-1.00000000e+00f,-4.00000000e+00f,
	+2.60000000e+01f,-7.00000000e+00f,-5.00000000e+00f,-4.00000000e+00f,-2.80000000e+01f,
	-9.00000000e+00f,-1.60000000e+01f,+3.00000000e+00f,+4.00000000e+00f,+1.30000000e+01f,
	-3.00000000e+00f,-2.70000000e+01f,-1.10000000e+01f,-2.40000000e+01f,-5.20000000e+01f,
	+3.70000000e+01f,+3.00000000e+01f,-3.50000000e+01f,+1.50000000e+01f,+2.20000000e+01f,
	+1.70000000e+01f,-1.00000000e+00f,+3.00000000e+00f,-2.00000000e+00f,+0.00000000e+00f,
	-2.40000000e+01f,-3.70000000e+01f,+4.00000000e+00f,+7.00000000e+00f,+8.00000000e+00f,
	+9.00000000e+00f,-5.40000000e+01f,-1.30000000e+01f,-2.00000000e+01f,-1.60000000e+01f,
	+1.60000000e+01f,-2.00000000e+00f,+7.00000000e+00f,+7.00000000e+00f,+1.00000000e+00f,
	-1.00000000e+01f,+4.00000000e+00f,-1.10000000e+01f,-5.00000000e+00f,+2.60000000e+01f,
	+2.00000000e+01f,-5.00000000e+00f,+1.60000000e+01f,+2.00000000e+00f,-1.50000000e+01f,
	+0.00000000e+00f,+3.00000000e+00f,+1.00000000e+00f,+0.00000000e+00f,+1.70000000e+01f,
	-4.20000000e+01f,-4.70000000e+01f,+9.00000000e+00f,+6.00000000e+00f,-5.00000000e+00f,
	+9.00000000e+00f,-8.00000000e+00f,-6.00000000e+00f,+0.00000000e+00f,+4.00000000e+00f,
	+1.00000000e+00f,-1.80000000e+01f,+8.00000000e+00f,-2.00000000e+00f,-6.00000000e+00f,
	+4.00000000e+00f,+9.00000000e+00f,+2.00000000e+00f,+2.00000000e+00f,+1.00000000e+01f,
	-3.00000000e+00f,-2.10000000e+01f,+7.00000000e+00f,+3.00000000e+00f,-7.00000000e+00f,
	+1.30000000e+01f,-1.00000000e+00f,+4.00000000e+00f,-1.60000000e+01f,-2.60000000e+01f,
	-7.00000000e+00f,-1.40000000e+01f,-1.00000000e+01f,+1.00000000e+00f,+1.30000000e+01f,
	+9.00000000e+00f,-1.90000000e+01f,-7.50000000e+01f,-6.60000000e+01f,-7.00000000e+00f,
	+3.40000000e+01f,+4.30000000e+01f,-2.90000000e+01f,+1.20000000e+01f,-4.00000000e+00f,
	+9.00000000e+00f,-6.00000000e+00f,+5.00000000e+00f,-4.00000000e+00f,-3.00000000e+00f,
	-1.70000000e+01f,-1.10000000e+01f,+6.00000000e+00f,+4.00000000e+00f,+7.00000000e+00f,
	-2.00000000e+00f,-3.30000000e+01f,-2.10000000e+01f,-2.20000000e+01f,-6.00000000e+00f,
	+2.10000000e+01f,+1.40000000e+01f,+2.00000000e+00f,+4.00000000e+00f,-3.00000000e+00f,
	-1.40000000e+01f,-4.00000000e+00f,-1.10000000e+01f,-1.40000000e+01f,+2.80000000e+01f,
	+2.30000000e+01f,-7.00000000e+00f,-2.00000000e+00f,+1.00000000e+01f,-3.10000000e+01f,
	+4.00000000e+00f,+8.00000000e+00f,+2.00000000e+00f,+6.00000000e+00f,+1.90000000e+01f,
	-3.40000000e+01f,-1.90000000e+01f,+7.00000000e+00f,+3.00000000e+00f,+0.00000000e+00f,
	+4.00000000e+00f,-8.00000000e+00f,-5.00000000e+00f,-8.00000000e+00f,+5.00000000e+00f,
	+2.00000000e+00f,-9.00000000e+00f,-4.00000000e+00f,+2.00000000e+00f,-1.20000000e+01f,
	+3.00000000e+00f,+0.00000000e+00f,-8.00000000e+00f,-2.00000000e+00f,+8.00000000e+00f,
	+5.00000000e+00f,-7.00000000e+00f,-7.00000000e+00f,+0.00000000e+00f,-2.50000000e+01f,
	+1.60000000e+01f,-1.40000000e+01f,-1.50000000e+01f,-3.10000000e+01f,+6.00000000e+00f,
	+1.80000000e+01f,-2.00000000e+01f,-2.20000000e+01f,+1.80000000e+01f,-1.20000000e+01f,
	-8.00000000e+00f,-1.40000000e+01f,-5.40000000e+01f,-4.80000000e+01f,+9.00000000e+00f,
	+3.70000000e+01f,+3.00000000e+01f,-3.00000000e+01f,+6.00000000e+00f,-5.60000000e+01f,
	+1.20000000e+01f,-8.00000000e+00f,+4.00000000e+00f,+6.00000000e+00f,+0.00000000e+00f,
	-6.00000000e+00f,-1.40000000e+01f,-5.00000000e+00f,+0.00000000e+00f,-1.10000000e+01f,
	+3.00000000e+00f,+4.00000000e+00f,-6.00000000e+00f,-1.80000000e+01f,+6.00000000e+00f,
	+2.40000000e+01f,-1.00000000e+00f,+5.00000000e+00f,+1.00000000e+00f,-7.00000000e+00f,
	-4.00000000e+00f,-2.40000000e+01f,-8.00000000e+00f,-1.90000000e+01f,+1.20000000e+01f,
	+2.80000000e+01f,-1.80000000e+01f,+1.00000000e+00f,+4.00000000e+00f,-3.40000000e+01f,
	+1.00000000e+00f,+1.50000000e+01f,+7.00000000e+00f,+2.00000000e+00f,+1.30000000e+01f,
	-1.60000000e+01f,-1.60000000e+01f,+1.00000000e+01f,+5.00000000e+00f,-8.00000000e+00f,
	+1.10000000e+01f,-2.10000000e+01f,+4.00000000e+00f,-1.40000000e+01f,+1.20000000e+01f,
	+7.00000000e+00f,-1.80000000e+01f,+5.00000000e+00f,+6.00000000e+00f,-1.40000000e+01f,
	-2.10000000e+01f,-5.30000000e+01f,-3.30000000e+01f,-3.70000000e+01f,+1.10000000e+01f,
	+1.80000000e+01f,-5.00000000e+00f,-3.60000000e+01f,+1.00000000e+00f,-3.30000000e+01f,
	-1.90000000e+01f,-5.10000000e+01f,-3.60000000e+01f,-4.50000000e+01f,+1.10000000e+01f,
	+3.60000000e+01f,+2.00000000e+00f,-2.70000000e+01f,+1.30000000e+01f,-3.70000000e+01f,
	-3.40000000e+01f,-7.20000000e+01f,-2.20000000e+01f,-7.60000000e+01f,+8.00000000e+00f,
	+4.80000000e+01f,+8.00000000e+00f,-5.70000000e+01f,+7.00000000e+00f,-7.00000000e+01f,
	-9.00000000e+00f,-3.30000000e+01f,-5.40000000e+01f,-4.00000000e+01f,+8.00000000e+00f,
	+1.50000000e+01f,-1.60000000e+01f,-2.80000000e+01f,+1.00000000e+00f,-9.00000000e+00f,
	-4.00000000e+00f,+1.80000000e+01f,-1.40000000e+01f,-3.60000000e+01f,+1.20000000e+01f,
	+1.60000000e+01f,-1.70000000e+01f,+1.80000000e+01f,-2.00000000e+00f,-1.00000000e+01f,
	-2.20000000e+01f,-5.60000000e+01f,-2.90000000e+01f,-8.40000000e+01f,+1.10000000e+01f,
	+2.60000000e+01f,-3.20000000e+01f,-2.70000000e+01f,+2.30000000e+01f,-4.30000000e+01f,
	+2.00000000e+00f,-4.70000000e+01f,-3.20000000e+01f,-3.90000000e+01f,+5.00000000e+00f,
	+1.90000000e+01f,-1.80000000e+01f,-2.40000000e+01f,+2.00000000e+01f,-2.10000000e+01f,
	-2.20000000e+01f,-4.90000000e+01f,-5.30000000e+01f,-6.00000000e+01f,+2.20000000e+01f,
	+3.80000000e+01f,-1.60000000e+01f,-2.60000000e+01f,+0.00000000e+00f,-4.70000000e+01f,
	+1.00000000e+01f,-8.00000000e+00f,-1.40000000e+01f,+2.00000000e+00f,-1.10000000e+01f,
	-2.10000000e+01f,-1.50000000e+01f,+3.40000000e+01f,-1.40000000e+01f,-4.10000000e+01f,
	+2.00000000e+00f,-4.00000000e+00f,-1.30000000e+01f,+2.20000000e+01f,-2.80000000e+01f,
	-4.70000000e+01f,-3.50000000e+01f,+4.00000000e+01f,-2.20000000e+01f,-3.20000000e+01f,
	-4.00000000e+00f,-1.30000000e+01f,-1.00000000e+00f,-2.00000000e+00f,-2.60000000e+01f,
	-5.40000000e+01f,-2.70000000e+01f,+1.90000000e+01f,-4.00000000e+00f,-6.70000000e+01f,
	+1.60000000e+01f,+0.00000000e+00f,-7.00000000e+00f,+5.00000000e+00f,-2.30000000e+01f,
	-2.70000000e+01f,-3.20000000e+01f,+3.60000000e+01f,-1.60000000e+01f,-5.20000000e+01f,
	+1.30000000e+01f,+5.50000000e+01f,-1.00000000e+01f,-1.20000000e+01f,+1.10000000e+01f,
	+4.00000000e+00f,-7.00000000e+00f,+2.90000000e+01f,-3.70000000e+01f,-1.60000000e+01f,
	+0.00000000e+00f,-2.30000000e+01f,-1.10000000e+01f,+8.00000000e+00f,-2.00000000e+00f,
	-6.50000000e+01f,-3.00000000e+01f,+2.30000000e+01f,-1.70000000e+01f,-2.80000000e+01f,
	-2.00000000e+00f,+7.00000000e+00f,-1.00000000e+00f,-4.00000000e+00f,+1.00000000e+00f,
	+1.00000000e+00f,+3.00000000e+00f,+6.00000000e+00f,-1.70000000e+01f,+4.00000000e+00f,
	-1.00000000e+00f,-1.90000000e+01f,+6.00000000e+00f,+1.60000000e+01f,-1.90000000e+01f,
	-7.80000000e+01f,-2.60000000e+01f,+2.70000000e+01f,-3.40000000e+01f,-2.90000000e+01f,
	-2.60000000e+01f,+1.10000000e+01f,-1.60000000e+01f,+9.00000000e+00f,-1.00000000e+00f,
	-3.40000000e+01f,+1.40000000e+01f,+9.00000000e+00f,+1.40000000e+01f,-5.00000000e+00f,
	-1.40000000e+01f,-2.80000000e+01f,+1.50000000e+01f,-1.00000000e+00f,-1.30000000e+01f,
	-2.20000000e+01f,-2.30000000e+01f,+3.90000000e+01f,+8.00000000e+00f,-9.00000000e+00f,
	-3.00000000e+01f,-2.20000000e+01f,+3.00000000e+01f,+2.00000000e+01f,-1.40000000e+01f,
	-3.50000000e+01f,-5.50000000e+01f,+1.50000000e+01f,-8.00000000e+00f,-6.30000000e+01f,
	-1.30000000e+01f,-3.30000000e+01f,+1.70000000e+01f,+1.70000000e+01f,-2.40000000e+01f,
	-4.10000000e+01f,-2.80000000e+01f,+3.40000000e+01f,-1.80000000e+01f,-2.50000000e+01f,
	+3.00000000e+00f,+4.70000000e+01f,+1.60000000e+01f,+2.00000000e+00f,-3.00000000e+00f,
	-1.00000000e+01f,-1.00000000e+01f,+2.50000000e+01f,-3.50000000e+01f,-2.30000000e+01f,
	+3.00000000e+00f,-2.20000000e+01f,-7.00000000e+00f,+1.30000000e+01f,+5.00000000e+00f,
	-2.30000000e+01f,-2.70000000e+01f,+1.60000000e+01f,+4.00000000e+00f,-1.00000000e+00f,
	-1.00000000e+01f,-1.10000000e+01f,+1.70000000e+01f,-8.00000000e+00f,+1.00000000e+00f,
	-1.40000000e+01f,-1.00000000e+00f,-2.00000000e+01f,-1.60000000e+01f,+1.70000000e+01f,
	-1.00000000e+01f,-2.70000000e+01f,+1.00000000e+01f,-2.00000000e+00f,-1.40000000e+01f,
	-1.10000000e+01f,-3.30000000e+01f,+1.70000000e+01f,+3.00000000e+00f,-7.00000000e+00f,
	+7.00000000e+00f,-2.60000000e+01f,-1.00000000e+00f,-6.00000000e+00f,-1.00000000e+00f,
	-1.00000000e+00f,-1.30000000e+01f,-1.00000000e+00f,+7.00000000e+00f,+1.00000000e+01f,
	+5.00000000e+00f,-1.20000000e+01f,-2.50000000e+01f,-5.00000000e+00f,+0.00000000e+00f,
	+9.00000000e+00f,-1.20000000e+01f,+1.70000000e+01f,-1.00000000e+00f,-1.00000000e+01f,
	-2.10000000e+01f,+1.00000000e+00f,+1.80000000e+01f,+2.20000000e+01f,-2.40000000e+01f,
	-4.40000000e+01f,-5.20000000e+01f,+1.90000000e+01f,-1.20000000e+01f,-3.20000000e+01f,
	-7.00000000e+00f,-2.20000000e+01f,-1.20000000e+01f,-3.00000000e+01f,-3.00000000e+00f,
	+1.00000000e+00f,-5.00000000e+00f,+2.40000000e+01f,+2.60000000e+01f,-3.30000000e+01f,
	-5.00000000e+00f,+3.10000000e+01f,+4.10000000e+01f,-4.00000000e+00f,+6.00000000e+00f,
	-2.70000000e+01f,-1.80000000e+01f,+2.20000000e+01f,-3.10000000e+01f,-2.50000000e+01f,
	-6.00000000e+00f,-1.90000000e+01f,+1.00000000e+00f,+3.00000000e+00f,-5.00000000e+00f,
	-4.00000000e+00f,-9.00000000e+00f,-6.00000000e+00f,-2.00000000e+00f,+8.00000000e+00f,
	+7.00000000e+00f,+3.00000000e+00f,-2.60000000e+01f,-5.00000000e+01f,+1.70000000e+01f,
	+1.00000000e+01f,+3.90000000e+01f,-4.80000000e+01f,+4.20000000e+01f,+7.00000000e+00f,
	+6.00000000e+00f,-1.90000000e+01f,-1.50000000e+01f,+1.00000000e+01f,+5.00000000e+00f,
	-1.00000000e+00f,+0.00000000e+00f,+4.00000000e+00f,+1.00000000e+00f,+4.00000000e+00f,
	-2.00000000e+00f,-1.70000000e+01f,-1.10000000e+01f,-1.00000000e+01f,-2.00000000e+00f,
	+6.00000000e+00f,+1.10000000e+01f,+4.00000000e+00f,+1.00000000e+01f,+1.30000000e+01f,
	+0.00000000e+00f,+5.00000000e+00f,-2.00000000e+01f,-2.20000000e+01f,+0.00000000e+00f,
	+2.20000000e+01f,-2.20000000e+01f,+2.60000000e+01f,+1.90000000e+01f,-5.00000000e+00f,
	-3.10000000e+01f,+6.00000000e+00f,+2.30000000e+01f,+2.30000000e+01f,-5.30000000e+01f,
	-2.70000000e+01f,-3.50000000e+01f,+2.50000000e+01f,-1.00000000e+00f,-1.60000000e+01f,
	-9.00000000e+00f,-5.00000000e+00f,-4.00000000e+01f,-4.90000000e+01f,+1.70000000e+01f,
	+3.00000000e+01f,+3.00000000e+00f,+3.20000000e+01f,+2.60000000e+01f,-8.00000000e+00f,
	-6.00000000e+00f,+3.40000000e+01f,+3.20000000e+01f,+2.80000000e+01f,-8.00000000e+00f,
	-3.20000000e+01f,-3.10000000e+01f,+2.60000000e+01f,-2.00000000e+01f,-2.30000000e+01f,
	+0.00000000e+00f,-1.40000000e+01f,+2.00000000e+00f,+3.00000000e+00f,-5.00000000e+00f,
	-5.00000000e+00f,+4.00000000e+00f,-3.00000000e+00f,+3.00000000e+00f,+5.00000000e+00f,
	+0.00000000e+00f,-7.10000000e+01f,-4.50000000e+01f,-3.80000000e+01f,+4.40000000e+01f,
	+4.00000000e+00f,+3.60000000e+01f,-4.40000000e+01f,+1.10000000e+01f,+3.20000000e+01f,
	+4.00000000e+00f,-1.00000000e+00f,-1.10000000e+01f,-1.00000000e+01f,+5.00000000e+00f,
	+0.00000000e+00f,-1.00000000e+00f,+2.00000000e+00f,+4.00000000e+00f,+8.00000000e+00f,
	-3.00000000e+00f,-2.10000000e+01f,-6.00000000e+00f,-1.80000000e+01f,+3.00000000e+00f,
	+4.00000000e+00f,-3.00000000e+00f,+0.00000000e+00f,+6.00000000e+00f,+5.00000000e+00f,
	-4.00000000e+00f,-1.80000000e+01f,-1.00000000e+01f,-3.20000000e+01f,-8.00000000e+00f,
	+1.60000000e+01f,-1.20000000e+01f,+2.20000000e+01f,+2.20000000e+01f,-8.00000000e+00f,
	-1.10000000e+01f,+3.00000000e+00f,+2.10000000e+01f,+2.60000000e+01f,-7.00000000e+01f,
	-1.80000000e+01f,-4.90000000e+01f,+2.50000000e+01f,+6.00000000e+00f,-7.00000000e+00f,
	-8.00000000e+00f,-2.60000000e+01f,-3.90000000e+01f,-6.10000000e+01f,+2.80000000e+01f,
	+2.80000000e+01f,-1.00000000e+00f,+2.90000000e+01f,+3.90000000e+01f,-4.00000000e+00f,
	-6.00000000e+00f,+1.10000000e+01f,+1.00000000e+00f,+2.10000000e+01f,+1.00000000e+00f,
	-2.20000000e+01f,-4.80000000e+01f,+2.90000000e+01f,-5.00000000e+00f,-1.10000000e+01f,
	-2.00000000e+00f,-1.20000000e+01f,-3.00000000e+00f,+2.00000000e+00f,+3.00000000e+00f,
	-4.00000000e+00f,+0.00000000e+00f,-2.00000000e+00f,+5.00000000e+00f,+8.00000000e+00f,
	+2.00000000e+01f,-1.21000000e+02f,-4.80000000e+01f,-4.60000000e+01f,+3.40000000e+01f,
	+6.00000000e+00f,+3.10000000e+01f,-4.00000000e+01f,+1.00000000e+00f,+1.40000000e+01f,
	-1.00000000e+00f,+1.00000000e+00f,-2.10000000e+01f,-1.20000000e+01f,+5.00000000e+00f,
	+3.00000000e+00f,+1.00000000e+00f,+2.00000000e+00f,+0.00000000e+00f,+8.00000000e+00f,
	+0.00000000e+00f,-1.10000000e+01f,-1.50000000e+01f,-1.80000000e+01f,+2.00000000e+00f,
	+4.00000000e+00f,-6.00000000e+00f,+1.00000000e+00f,+3.00000000e+00f,+6.00000000e+00f,
	+1.40000000e+01f,-1.30000000e+01f,-1.00000000e+01f,-2.80000000e+01f,-1.20000000e+01f,
	+1.80000000e+01f,-2.10000000e+01f,+1.40000000e+01f,+2.90000000e+01f,-3.00000000e+00f,
	-5.00000000e+00f,-2.10000000e+01f,+2.50000000e+01f,+2.70000000e+01f,-5.20000000e+01f,
	-6.00000000e+00f,-3.40000000e+01f,+1.70000000e+01f,+6.00000000e+00f,+1.10000000e+01f,
	+4.00000000e+00f,-2.60000000e+01f,-9.00000000e+00f,-6.10000000e+01f,+2.60000000e+01f,
	+2.20000000e+01f,-8.00000000e+00f,+4.00000000e+00f,+3.50000000e+01f,+6.00000000e+00f,
	-9.00000000e+00f,-8.00000000e+00f,-5.00000000e+00f,+1.70000000e+01f,-9.00000000e+00f,
	+6.00000000e+00f,-5.30000000e+01f,+2.80000000e+01f,+7.00000000e+00f,-1.30000000e+01f,
	+1.00000000e+00f,-1.20000000e+01f,-1.70000000e+01f,+6.00000000e+00f,+7.00000000e+00f,
	-3.00000000e+00f,-1.00000000e+00f,-1.00000000e+01f,+1.00000000e+00f,+1.70000000e+01f,
	+1.60000000e+01f,-5.90000000e+01f,-1.80000000e+01f,-5.30000000e+01f,+3.20000000e+01f,
	-1.00000000e+00f,+1.80000000e+01f,-7.00000000e+00f,+9.00000000e+00f,+1.80000000e+01f,
	+3.00000000e+00f,-5.00000000e+00f,-2.70000000e+01f,-3.00000000e+00f,+7.00000000e+00f,
	+8.00000000e+00f,-1.00000000e+00f,+5.00000000e+00f,+4.00000000e+00f,+7.00000000e+00f,
	+8.00000000e+00f,+1.00000000e+00f,-2.20000000e+01f,+0.00000000e+00f,-5.00000000e+00f,
	+2.00000000e+00f,+4.00000000e+00f,+1.00000000e+00f,+3.00000000e+00f,+7.00000000e+00f,
	+3.00000000e+00f,+1.50000000e+01f,-1.70000000e+01f,-1.70000000e+01f,-3.70000000e+01f,
	+1.60000000e+01f,-3.10000000e+01f,+9.00000000e+00f,+2.70000000e+01f,+3.00000000e+00f,
	-1.00000000e+00f,-4.90000000e+01f,+1.70000000e+01f,+1.40000000e+01f,-3.50000000e+01f,
	+5.00000000e+00f,-2.00000000e+01f,+1.10000000e+01f,+5.00000000e+00f,+9.00000000e+00f,
	+1.00000000e+00f,+3.00000000e+00f,-1.80000000e+01f,-3.50000000e+01f,+1.00000000e+01f,
	+2.70000000e+01f,-1.70000000e+01f,-1.80000000e+01f,+3.90000000e+01f,-4.00000000e+00f,
	-3.80000000e+01f,+3.00000000e+00f,-5.00000000e+00f,+8.00000000e+00f,-3.90000000e+01f,
	+1.20000000e+01f,-3.30000000e+01f,+1.80000000e+01f,+1.40000000e+01f,-1.00000000e+01f,
	-1.30000000e+01f,-1.00000000e+00f,-3.40000000e+01f,+2.20000000e+01f,-3.00000000e+00f,
	-6.00000000e+00f,+1.00000000e+01f,-9.00000000e+00f,-8.00000000e+00f,+2.10000000e+01f,
	+1.10000000e+01f,-1.70000000e+01f,-8.00000000e+00f,-2.40000000e+01f,+3.70000000e+01f,
	-1.00000000e+01f,+1.20000000e+01f,-3.20000000e+01f,+3.00000000e+00f,+5.00000000e+00f,
	+3.00000000e+00f,+1.30000000e+01f,-1.70000000e+01f,+1.10000000e+01f,-1.80000000e+01f,
	+2.00000000e+00f,-1.00000000e+00f,-1.00000000e+00f,-3.00000000e+00f,+8.00000000e+00f,
	+2.00000000e+00f,+6.00000000e+00f,-1.80000000e+01f,+1.00000000e+00f,-1.10000000e+01f,
	-1.30000000e+01f,-1.90000000e+01f,+3.00000000e+00f,-4.00000000e+00f,+4.00000000e+00f,
	+1.30000000e+01f,+1.00000000e+01f,+1.00000000e+00f,-1.40000000e+01f,-2.30000000e+01f,
	-2.00000000e+00f,-3.20000000e+01f,+1.30000000e+01f,-1.00000000e+01f,+3.00000000e+00f,
	+7.00000000e+00f,-5.90000000e+01f,+1.00000000e+01f,+5.00000000e+00f,-6.10000000e+01f,
	+2.30000000e+01f,+1.00000000e+01f,+1.30000000e+01f,+6.00000000e+00f,+7.00000000e+00f,
	-2.00000000e+00f,+1.60000000e+01f,-8.00000000e+00f,-1.40000000e+01f,-1.20000000e+01f,
	-1.00000000e+00f,-2.70000000e+01f,+2.00000000e+00f,+1.20000000e+01f,+1.50000000e+01f,
	-4.80000000e+01f,+4.00000000e+00f,-7.00000000e+00f,+1.00000000e+00f,-5.70000000e+01f,
	+2.70000000e+01f,+3.00000000e+00f,+8.00000000e+00f,+9.00000000e+00f,-6.00000000e+00f,
	-1.70000000e+01f,+3.00000000e+00f,-1.60000000e+01f,+2.40000000e+01f,-3.00000000e+00f,
	-2.60000000e+01f,+0.00000000e+00f,+4.00000000e+00f,-1.00000000e+00f,+1.00000000e+01f,
	+0.00000000e+00f,+1.20000000e+01f,-2.00000000e+00f,+6.00000000e+00f,+3.30000000e+01f,
	-5.60000000e+01f,+0.00000000e+00f,-9.00000000e+00f,+2.00000000e+00f,-1.00000000e+00f,
	-2.00000000e+00f,+9.00000000e+00f,-1.10000000e+01f,+7.00000000e+00f,-1.00000000e+00f,
	-1.60000000e+01f,-1.70000000e+01f,+1.30000000e+01f,-6.00000000e+00f,+4.00000000e+00f,
	+1.00000000e+00f,+8.00000000e+00f,+1.00000000e+00f,+8.00000000e+00f,+1.00000000e+01f,
	-2.00000000e+01f,-2.70000000e+01f,+1.30000000e+01f,-4.00000000e+00f,+9.00000000e+00f,
	+6.00000000e+00f,+8.00000000e+00f,+9.00000000e+00f,-1.00000000e+00f,-1.50000000e+01f,
	+7.00000000e+00f,-2.40000000e+01f,+1.40000000e+01f,-1.00000000e+00f,+1.00000000e+01f,
	+3.00000000e+00f,-5.60000000e+01f,-4.00000000e+00f,-9.00000000e+00f,-8.00000000e+01f,
	+3.60000000e+01f,+2.00000000e+01f,+1.00000000e+00f,+1.70000000e+01f,+1.60000000e+01f,
	+1.90000000e+01f,-7.00000000e+00f,+4.00000000e+00f,-2.00000000e+00f,+5.00000000e+00f,
	-1.50000000e+01f,-4.10000000e+01f,+6.00000000e+00f,-1.20000000e+01f,+8.00000000e+00f,
	-2.10000000e+01f,-3.60000000e+01f,-6.00000000e+00f,-6.00000000e+00f,-5.10000000e+01f,
	+3.70000000e+01f,+2.60000000e+01f,+9.00000000e+00f,-9.00000000e+00f,+9.00000000e+00f,
	-2.20000000e+01f,-1.40000000e+01f,-7.00000000e+00f,+1.50000000e+01f,+1.60000000e+01f,
	-3.50000000e+01f,-1.30000000e+01f,+7.00000000e+00f,+1.80000000e+01f,+5.00000000e+00f,
	+2.00000000e+00f,+7.00000000e+00f,+1.00000000e+01f,+4.00000000e+00f,+3.00000000e+01f,
	-9.60000000e+01f,-4.20000000e+01f,+1.50000000e+01f,+5.00000000e+00f,+8.00000000e+00f,
	-4.00000000e+00f,-4.00000000e+00f,-6.00000000e+00f,+5.00000000e+00f,+4.00000000e+00f,
	-2.30000000e+01f,-1.70000000e+01f,+1.30000000e+01f,+5.00000000e+00f,+5.00000000e+00f,
	+1.20000000e+01f,-7.00000000e+00f,-1.00000000e+00f,+5.00000000e+00f,+1.20000000e+01f,
	-3.40000000e+01f,-2.70000000e+01f,+7.00000000e+00f,+2.00000000e+00f,+1.00000000e+00f,
	+1.50000000e+01f,-1.30000000e+01f,-4.00000000e+00f,-6.00000000e+00f,-1.30000000e+01f,
	+5.00000000e+00f,-7.00000000e+00f,+1.00000000e+00f,+6.00000000e+00f,+1.10000000e+01f,
	+2.00000000e+00f,-2.20000000e+01f,-3.50000000e+01f,-1.10000000e+01f,-3.40000000e+01f,
	+3.20000000e+01f,+2.70000000e+01f,-2.30000000e+01f,+1.90000000e+01f,+3.00000000e+00f,
	+1.20000000e+01f,-2.00000000e+00f,+6.00000000e+00f,-6.00000000e+00f,-1.00000000e+00f,
	-3.60000000e+01f,-2.30000000e+01f,+0.00000000e+00f,-3.00000000e+00f,+8.00000000e+00f,
	-2.00000000e+00f,-1.70000000e+01f,-2.80000000e+01f,-2.80000000e+01f,-3.20000000e+01f,
	+3.90000000e+01f,+1.20000000e+01f,+2.00000000e+00f,+1.00000000e+00f,+7.00000000e+00f,
	-1.60000000e+01f,-1.80000000e+01f,+3.00000000e+00f,+1.60000000e+01f,+2.00000000e+01f,
	-3.20000000e+01f,-6.00000000e+00f,+1.50000000e+01f,+2.10000000e+01f,-6.00000000e+00f,
	+1.50000000e+01f,+1.00000000e+01f,+1.60000000e+01f,+9.00000000e+00f,+2.30000000e+01f,
	-8.80000000e+01f,-7.40000000e+01f,+1.20000000e+01f,+1.40000000e+01f,+6.00000000e+00f,
	-1.00000000e+00f,-6.00000000e+00f,+8.00000000e+00f,+4.00000000e+00f,-3.00000000e+00f,
	-2.30000000e+01f,-1.90000000e+01f,+1.20000000e+01f,+1.00000000e+01f,+3.00000000e+00f,
	+1.40000000e+01f,-2.00000000e+00f,+2.00000000e+00f,+1.10000000e+01f,+1.20000000e+01f,
	-2.70000000e+01f,-2.50000000e+01f,+1.10000000e+01f,+3.00000000e+00f,+0.00000000e+00f,
	+2.00000000e+01f,-1.60000000e+01f,+5.00000000e+00f,-4.00000000e+00f,-1.10000000e+01f,
	+4.00000000e+00f,-4.00000000e+00f,+3.00000000e+00f,+8.00000000e+00f,+4.00000000e+00f,
	-8.00000000e+00f,-1.40000000e+01f,-4.50000000e+01f,-1.60000000e+01f,-1.10000000e+01f,
	+3.40000000e+01f,+2.10000000e+01f,-3.00000000e+01f,+8.00000000e+00f,-1.00000000e+01f,
	+2.00000000e+01f,-1.20000000e+01f,+5.00000000e+00f,+1.00000000e+00f,-5.00000000e+00f,
	-3.70000000e+01f,-6.00000000e+00f,-1.00000000e+00f,+0.00000000e+00f,+7.00000000e+00f,
	+3.00000000e+00f,+2.50000000e+01f,-3.70000000e+01f,-5.10000000e+01f,-2.10000000e+01f,
	+4.00000000e+01f,+2.20000000e+01f,+0.00000000e+00f,+4.00000000e+00f,+4.00000000e+00f,
	-1.30000000e+01f,-1.90000000e+01f,-6.00000000e+00f,+9.00000000e+00f,+1.50000000e+01f,
	-1.40000000e+01f,-1.30000000e+01f,+1.10000000e+01f,+2.20000000e+01f,-2.40000000e+01f,
	+1.30000000e+01f,+2.00000000e+00f,+1.20000000e+01f,+6.00000000e+00f,+1.80000000e+01f,
	-8.10000000e+01f,-3.00000000e+01f,+1.30000000e+01f,+1.50000000e+01f,+6.00000000e+00f,
	+5.00000000e+00f,-1.40000000e+01f,+4.00000000e+00f,-4.00000000e+00f,+0.00000000e+00f,
	-2.20000000e+01f,-1.80000000e+01f,+5.00000000e+00f,+9.00000000e+00f,-5.00000000e+00f,
	+8.00000000e+00f,-2.70000000e+01f,-2.00000000e+00f,+8.00000000e+00f,-6.00000000e+00f,
	-8.00000000e+00f,-3.30000000e+01f,-1.00000000e+00f,+1.20000000e+01f,-7.00000000e+00f,
	+1.30000000e+01f,-2.20000000e+01f,-1.10000000e+01f,-1.10000000e+01f,-2.20000000e+01f,
	+2.70000000e+01f,-1.00000000e+01f,-1.50000000e+01f,+1.00000000e+01f,-8.00000000e+00f,
	-3.20000000e+01f,-4.30000000e+01f,-3.20000000e+01f,-3.00000000e+01f,-2.00000000e+00f,
	+3.80000000e+01f,-1.90000000e+01f,-2.20000000e+01f,+1.00000000e+01f,-3.70000000e+01f,
	+1.80000000e+01f,-1.20000000e+01f,+1.00000000e+01f,+0.00000000e+00f,-1.70000000e+01f,
	-1.80000000e+01f,-1.20000000e+01f,+2.00000000e+00f,+1.30000000e+01f,-5.00000000e+00f,
	+2.00000000e+00f,+3.50000000e+01f,-2.70000000e+01f,-4.00000000e+01f,-1.20000000e+01f,
	+2.50000000e+01f,+8.00000000e+00f,+5.00000000e+00f,-5.00000000e+00f,-6.00000000e+00f,
	+5.00000000e+00f,-2.30000000e+01f,-1.70000000e+01f,-3.20000000e+01f,+7.00000000e+00f,
	+1.90000000e+01f,-1.70000000e+01f,+3.00000000e+00f,+2.70000000e+01f,-3.00000000e+01f,
	+1.60000000e+01f,-3.00000000e+00f,+1.00000000e+00f,+7.00000000e+00f,+3.00000000e+00f,
	-3.40000000e+01f,-2.20000000e+01f,+7.00000000e+00f,+2.00000000e+00f,-6.00000000e+00f,
	+1.40000000e+01f,-1.10000000e+01f,-1.10000000e+01f,-1.50000000e+01f,-1.20000000e+01f,
	+1.00000000e+01f,-1.00000000e+01f,-6.00000000e+00f,+1.30000000e+01f,-1.30000000e+01f,
	-2.00000000e+00f,-4.60000000e+01f,-3.50000000e+01f,-6.60000000e+01f,+3.00000000e+00f,
	+3.50000000e+01f,-3.20000000e+01f,-2.40000000e+01f,-9.00000000e+00f,-6.00000000e+00f,
	-1.70000000e+01f,-3.90000000e+01f,-4.00000000e+01f,-9.60000000e+01f,-2.00000000e+00f,
	+6.00000000e+01f,-3.50000000e+01f,-2.90000000e+01f,+1.00000000e+00f,-3.90000000e+01f,
	-6.30000000e+01f,-6.80000000e+01f,-5.80000000e+01f,-1.24000000e+02f,+1.00000000e+01f,
	+3.90000000e+01f,-6.40000000e+01f,-3.00000000e+01f,+1.80000000e+01f,-8.70000000e+01f,
	-1.10000000e+01f,-3.80000000e+01f,-3.40000000e+01f,-1.15000000e+02f,-1.30000000e+01f,
	+5.60000000e+01f,-3.10000000e+01f,-3.10000000e+01f,+1.30000000e+01f,-1.20000000e+01f,
	-1.60000000e+01f,+3.90000000e+01f,-1.00000000e+00f,-2.10000000e+01f,-1.30000000e+01f,
	+3.10000000e+01f,+3.00000000e+00f,-3.00000000e+00f,-8.00000000e+00f,-1.10000000e+01f,
	-8.00000000e+00f,-4.70000000e+01f,-2.60000000e+01f,-9.40000000e+01f,-3.90000000e+01f,
	+5.30000000e+01f,-2.50000000e+01f,-3.50000000e+01f,+2.00000000e+01f,-5.00000000e+01f,
	+2.00000000e+00f,-3.90000000e+01f,-2.70000000e+01f,-1.02000000e+02f,+4.00000000e+00f,
	+2.00000000e+01f,-1.30000000e+01f,-4.10000000e+01f,+8.00000000e+00f,-1.50000000e+01f,
	-2.70000000e+01f,-3.80000000e+01f,-3.10000000e+01f,-7.90000000e+01f,-1.80000000e+01f,
	+4.20000000e+01f,-2.50000000e+01f,-2.90000000e+01f,+1.20000000e+01f,-2.30000000e+01f,
	+1.40000000e+01f,-1.20000000e+01f,-1.50000000e+01f,-2.00000000e+01f,-2.20000000e+01f,
	-3.30000000e+01f,-2.40000000e+01f,+3.30000000e+01f,-9.00000000e+00f,-4.30000000e+01f,
	-9.00000000e+00f,-1.10000000e+01f,-5.00000000e+00f,-2.30000000e+01f,-2.30000000e+01f,
	-1.00000000e+01f,-3.20000000e+01f,+4.10000000e+01f,-8.00000000e+00f,-1.10000000e+01f,
	+1.10000000e+01f,-2.60000000e+01f,+4.00000000e+00f,+1.30000000e+01f,-1.20000000e+01f,
	-6.10000000e+01f,-2.50000000e+01f,+1.30000000e+01f,-4.10000000e+01f,-2.00000000e+01f,
	+6.00000000e+00f,-2.20000000e+01f,-5.00000000e+00f,-7.00000000e+00f,-3.20000000e+01f,
	-2.50000000e+01f,-1.40000000e+01f,+4.30000000e+01f,-1.20000000e+01f,-3.80000000e+01f,
	+1.40000000e+01f,+4.40000000e+01f,-2.00000000e+00f,-2.20000000e+01f,+4.00000000e+00f,
	-3.00000000e+00f,-6.00000000e+00f,+1.40000000e+01f,-4.20000000e+01f,-3.00000000e+00f,
	-1.00000000e+01f,-1.50000000e+01f,-2.60000000e+01f,+6.00000000e+00f,-1.70000000e+01f,
	-3.30000000e+01f,-3.80000000e+01f,+3.90000000e+01f,-7.00000000e+00f,-1.20000000e+01f,
	-5.00000000e+00f,+5.00000000e+00f,+2.00000000e+00f,+1.00000000e+00f,+0.00000000e+00f,
	+6.00000000e+00f,+5.00000000e+00f,+6.00000000e+00f,-2.00000000e+00f,-5.00000000e+00f,
	-2.10000000e+01f,-1.90000000e+01f,-2.20000000e+01f,+0.00000000e+00f,-9.00000000e+00f,
	-3.10000000e+01f,-3.50000000e+01f,+2.60000000e+01f,-2.00000000e+00f,-7.00000000e+00f,
	-6.00000000e+00f,+3.00000000e+00f,-1.90000000e+01f,-7.00000000e+00f,-8.00000000e+00f,
	-1.00000000e+01f,-1.70000000e+01f,+9.00000000e+00f,+5.00000000e+00f,+7.00000000e+00f,
	-5.00000000e+00f,-2.10000000e+01f,-2.30000000e+01f,-1.20000000e+01f,+1.00000000e+00f,
	-1.40000000e+01f,-2.00000000e+00f,+2.00000000e+01f,+7.00000000e+00f,+1.70000000e+01f,
	-7.00000000e+00f,-3.30000000e+01f,+3.80000000e+01f,+2.10000000e+01f,-2.60000000e+01f,
	-2.70000000e+01f,-5.50000000e+01f,+1.20000000e+01f,+5.00000000e+00f,-1.50000000e+01f,
	-1.10000000e+01f,-1.10000000e+01f,-2.70000000e+01f,+1.00000000e+01f,-2.50000000e+01f,
	-2.90000000e+01f,-2.30000000e+01f,+1.20000000e+01f,-2.00000000e+00f,+1.30000000e+01f,
	+1.80000000e+01f,+4.90000000e+01f,-8.00000000e+00f,-7.00000000e+00f,+0.00000000e+00f,
	-1.50000000e+01f,-1.10000000e+01f,+4.20000000e+01f,-3.70000000e+01f,-1.50000000e+01f,
	-9.00000000e+00f,-1.10000000e+01f,-1.90000000e+01f,-1.10000000e+01f,-1.40000000e+01f,
	-1.50000000e+01f,-1.90000000e+01f,+2.20000000e+01f,-7.00000000e+00f,+2.60000000e+01f,
	+1.00000000e+00f,-7.00000000e+00f,-3.70000000e+01f,+2.40000000e+01f,+4.00000000e+00f,
	-1.40000000e+01f,-1.40000000e+01f,-2.80000000e+01f,-3.60000000e+01f,+3.50000000e+01f,
	-5.00000000e+00f,-3.00000000e+00f,-1.00000000e+01f,-1.10000000e+01f,-1.00000000e+01f,
	-1.80000000e+01f,-2.90000000e+01f,+2.00000000e+01f,-2.00000000e+00f,+1.30000000e+01f,
	+1.10000000e+01f,-1.40000000e+01f,-2.70000000e+01f,-2.90000000e+01f,+4.00000000e+00f,
	+3.00000000e+00f,+9.00000000e+00f,+1.10000000e+01f,-1.30000000e+01f,+1.40000000e+01f,
	+2.00000000e+00f,-6.00000000e+00f,-3.90000000e+01f,-4.00000000e+01f,+3.00000000e+00f,
	-2.00000000e+00f,-1.00000000e+00f,+9.00000000e+00f,+9.00000000e+00f,+1.00000000e+01f,
	-2.60000000e+01f,-1.80000000e+01f,+3.00000000e+01f,+1.40000000e+01f,-3.60000000e+01f,
	-9.00000000e+00f,-3.80000000e+01f,+1.00000000e+00f,+1.30000000e+01f,-8.00000000e+00f,
	-1.40000000e+01f,+3.00000000e+00f,-4.20000000e+01f,-4.00000000e+01f,-1.00000000e+00f,
	+3.00000000e+00f,+4.00000000e+00f,+6.00000000e+00f,+3.10000000e+01f,+1.80000000e+01f,
	-1.10000000e+01f,+5.20000000e+01f,+5.50000000e+01f,+1.90000000e+01f,+4.00000000e+00f,
	-3.60000000e+01f,-1.60000000e+01f,+2.40000000e+01f,-3.50000000e+01f,-2.80000000e+01f,
	+8.00000000e+00f,-1.30000000e+01f,-9.00000000e+00f,-1.50000000e+01f,+7.00000000e+00f,
	-1.70000000e+01f,+2.00000000e+00f,+1.00000000e+00f,+5.00000000e+00f,+9.00000000e+00f,
	+0.00000000e+00f,+1.80000000e+01f,-4.00000000e+01f,-3.30000000e+01f,+2.00000000e+00f,
	-2.00000000e+01f,+4.40000000e+01f,-5.10000000e+01f,+1.90000000e+01f,+5.00000000e+01f,
	+4.00000000e+00f,-1.50000000e+01f,-2.40000000e+01f,-2.80000000e+01f,+8.00000000e+00f,
	-6.00000000e+00f,+1.40000000e+01f,+1.20000000e+01f,-3.00000000e+00f,+1.00000000e+01f,
	+4.00000000e+00f,-9.00000000e+00f,-2.40000000e+01f,-2.90000000e+01f,+1.30000000e+01f,
	+4.00000000e+00f,+1.40000000e+01f,+2.00000000e+00f,-3.00000000e+00f,+9.00000000e+00f,
	-9.00000000e+00f,-2.00000000e+01f,-4.40000000e+01f,-5.00000000e+01f,+2.40000000e+01f,
	+7.00000000e+00f,+2.00000000e+01f,+1.20000000e+01f,+2.00000000e+01f,+1.70000000e+01f,
	-1.60000000e+01f,-1.00000000e+00f,+4.00000000e+01f,+1.50000000e+01f,-2.60000000e+01f,
	-8.00000000e+00f,-4.00000000e+01f,+6.00000000e+00f,+7.00000000e+00f,-1.30000000e+01f,
	-6.00000000e+00f,-1.20000000e+01f,-4.50000000e+01f,-6.70000000e+01f,+2.40000000e+01f,
	+1.60000000e+01f,-1.00000000e+00f,-9.00000000e+00f,+2.10000000e+01f,+2.50000000e+01f,
	+4.00000000e+00f,+4.50000000e+01f,+6.10000000e+01f,+2.90000000e+01f,-1.70000000e+01f,
	-3.00000000e+01f,-4.50000000e+01f,+4.30000000e+01f,-1.90000000e+01f,-3.90000000e+01f,
	+1.60000000e+01f,-2.00000000e+01f,-8.00000000e+00f,-7.00000000e+00f,+2.20000000e+01f,
	-6.00000000e+00f,+1.40000000e+01f,+1.00000000e+00f,-3.00000000e+00f,+9.00000000e+00f,
	+3.30000000e+01f,-6.00000000e+01f,-6.50000000e+01f,-1.40000000e+01f,+2.30000000e+01f,
	-4.00000000e+00f,+4.00000000e+01f,-2.90000000e+01f,-8.00000000e+00f,+2.20000000e+01f,
	+9.00000000e+00f,-1.60000000e+01f,-2.60000000e+01f,-1.70000000e+01f,+1.20000000e+01f,
	-7.00000000e+00f,+6.00000000e+00f,+1.00000000e+00f,-4.00000000e+00f,+5.00000000e+00f,
	+8.00000000e+00f,-9.00000000e+00f,-3.30000000e+01f,-2.20000000e+01f,+1.60000000e+01f,
	+3.00000000e+00f,+1.80000000e+01f,-3.00000000e+00f,-3.00000000e+00f,+8.00000000e+00f,
	-1.40000000e+01f,-3.80000000e+01f,-3.60000000e+01f,-4.30000000e+01f,+2.10000000e+01f,
	+1.00000000e+00f,+8.00000000e+00f,+2.00000000e+00f,+2.40000000e+01f,+2.70000000e+01f,
