#include <math.h> 
 #include <string.h> 
#include "./include/k2c_include.h" 
#include "./include/k2c_tensor_include.h" 
#include <stdint.h>

#ifndef SPIKE
#include "printf.h"
#endif


void zanga(k2c_tensor* input_1_input, k2c_tensor* dense_output) { 
printf("starting from zanga.c \n");
int8_t conv2d_stride[2] = {1,1}; 
int8_t conv2d_dilation[2] = {1,1}; 
printf("zanga setting up output array \n");
int8_t conv2d_output_array[21632] = {0}; 
printf("zanga setting up kernel array \n");
k2c_tensor conv2d_output = {&conv2d_output_array[0],3,21632,{26,26,32, 1, 1}}; 
int8_t conv2d_kernel_array[288] = {
+5.16253188e-02f,-1.06500655e-01f,-4.47007149e-01f,-1.87237024e-01f,+2.21528381e-01f,
-3.32534432e-01f,-6.76552057e-02f,+1.09231077e-01f,+4.38235521e-01f,+7.75387809e-02f,
+1.91495404e-01f,-3.10003877e-01f,-1.30078599e-01f,+1.36957720e-01f,+2.08638862e-01f,
+3.34500432e-01f,+7.01746419e-02f,-1.66155919e-01f,-1.33371472e-01f,-5.77684939e-01f,
-6.24945238e-02f,-5.45445621e-01f,-3.08921337e-02f,+3.40421721e-02f,-1.78193212e-01f,
+1.88387588e-01f,-2.31394023e-01f,+1.97698012e-01f,-2.62775928e-01f,-2.35833954e-02f,
-2.99156547e-01f,+2.04536512e-01f,+2.33327914e-02f,-4.25023764e-01f,-1.90505281e-01f,
+6.34987354e-02f,-1.02897033e-01f,-2.57899582e-01f,+3.67087536e-02f,+1.85490593e-01f,
+2.24189132e-01f,+1.02647590e-02f,+2.32257679e-01f,-3.80422533e-01f,+2.33297095e-01f,
+9.56277847e-02f,-1.57345802e-01f,+3.04436654e-01f,+1.03893586e-01f,+3.54929604e-02f,
+2.21615925e-01f,-7.62337625e-01f,-1.39286175e-01f,-8.39683712e-02f,+2.39790941e-04f,
-4.80130732e-01f,-3.78409177e-01f,+3.70426476e-01f,+5.88295758e-02f,-2.21184716e-01f,
-1.36498317e-01f,+6.59103738e-03f,+3.02226897e-02f,-2.99231827e-01f,-1.56750996e-02f,
-1.37201533e-01f,+1.68315381e-01f,+8.84292647e-02f,-3.21965575e-01f,-2.72357345e-01f,
+1.10258102e-01f,-3.19156423e-02f,-5.51526010e-01f,+2.12560773e-01f,+3.20651323e-01f,
+1.17100231e-01f,+1.11319631e-01f,+1.26184821e-01f,-3.00295383e-01f,+3.64543229e-01f,
+5.88003136e-02f,+1.24443896e-01f,+1.63579695e-02f,-6.88090920e-01f,-4.09383059e-01f,
+3.49828362e-01f,+4.14304435e-01f,-2.46147588e-01f,-2.60046553e-02f,+5.27656078e-01f,
+2.90987223e-01f,+9.97613296e-02f,+1.15713477e-01f,-4.60375786e-01f,+1.17418513e-01f,
-4.09431726e-01f,-1.01442918e-01f,+2.92841792e-01f,-4.90455419e-01f,+2.30804220e-01f,
-2.01640800e-02f,-2.56450120e-02f,-1.59965851e-03f,-7.00724497e-02f,+3.87045681e-01f,
-4.03822362e-01f,+1.47495717e-01f,-3.18187326e-01f,+3.78977507e-01f,-8.05266127e-02f,
+1.06457785e-01f,-6.71345666e-02f,+1.04349069e-01f,+1.74883567e-02f,+5.01344614e-02f,
-5.47793150e-01f,+2.80278176e-01f,-4.97600555e-01f,-4.24913526e-01f,-4.66029197e-02f,
+1.47983760e-01f,-3.33106011e-01f,+3.05550486e-01f,+1.41640902e-01f,-3.04982036e-01f,
+2.33770460e-01f,-1.88347639e-03f,+1.52756631e-01f,+1.34366408e-01f,-1.77669734e-01f,
+2.20873848e-01f,+2.69684106e-01f,+1.29169032e-01f,-1.81112566e-03f,+7.76795447e-02f,
-2.57171597e-02f,+6.99941218e-02f,+1.69033095e-01f,+1.18689172e-01f,+3.37631293e-02f,
+3.27633858e-01f,-1.12304077e-01f,-2.61551980e-02f,+3.51073071e-02f,-9.36944559e-02f,
+1.46936208e-01f,+2.89950669e-01f,-4.80557932e-03f,+2.76551276e-01f,-3.63890380e-02f,
-2.99488366e-01f,-2.99730450e-02f,+6.38029585e-03f,-5.75095229e-02f,+3.15847009e-01f,
-2.88331300e-01f,+1.24207400e-01f,+3.69963020e-01f,+3.02309841e-01f,+2.73498986e-02f,
-5.17274551e-02f,-2.79823422e-01f,+2.83090204e-01f,-2.28308320e-01f,+9.10166577e-02f,
+4.49264683e-02f,-1.50783053e-02f,+8.13498572e-02f,-6.82689846e-01f,+1.47789791e-01f,
+5.41667864e-02f,+4.88862693e-01f,-1.10650912e-01f,+2.75145471e-01f,+3.18654664e-02f,
+7.14289993e-02f,+1.06176160e-01f,-1.28318161e-01f,-4.09806550e-01f,+8.60975608e-02f,
+1.77875519e-01f,+4.09306169e-01f,+3.08163732e-01f,+8.05238336e-02f,+2.98876166e-01f,
+1.26966834e-01f,+8.88533890e-02f,+1.64075151e-01f,+2.73179054e-01f,-3.38224471e-01f,
+7.96334222e-02f,-4.27311748e-01f,-8.83402303e-02f,+3.13820422e-01f,-3.71003717e-01f,
-1.90966174e-01f,-9.93869826e-02f,+3.43261868e-01f,+9.81036946e-02f,-2.75678351e-04f,
-9.22679156e-03f,-4.62631553e-01f,-4.29917723e-01f,+1.50222987e-01f,+3.74193370e-01f,
-1.07855834e-01f,-1.27796233e-01f,-5.08745313e-01f,-4.40511778e-02f,+4.62639965e-02f,
+1.64062291e-01f,+9.37818177e-03f,-2.51954406e-01f,-3.19451064e-01f,-7.94895589e-02f,
+1.23988584e-01f,+2.36649156e-01f,-5.46502054e-01f,-1.23362534e-01f,+3.40661295e-02f,
-1.85010843e-02f,-1.46159977e-01f,+8.43463093e-02f,+1.52712777e-01f,+1.72757655e-01f,
+3.92760843e-01f,+3.21011953e-02f,-1.49314299e-01f,-8.27455595e-02f,+1.96213707e-01f,
+3.51095274e-02f,+1.06114067e-01f,-5.98959982e-01f,-1.37834817e-01f,-4.49259490e-01f,
+2.86734521e-01f,-2.71099627e-01f,-2.20349804e-01f,+6.26432151e-02f,-4.15405631e-01f,
+7.77690262e-02f,+9.52202827e-02f,+2.83920288e-01f,+3.09796691e-01f,+6.52645016e-04f,
-8.49417299e-02f,-3.92642528e-01f,+3.37871224e-01f,-1.70852989e-02f,-3.09587300e-01f,
-3.20771158e-01f,-6.29395321e-02f,+8.67055580e-02f,+3.27507645e-01f,+1.40792757e-01f,
+3.91957462e-01f,-7.02737421e-02f,+1.17089607e-01f,+2.48426169e-01f,-2.45894998e-01f,
+1.11017384e-01f,+2.30171323e-01f,+1.13905653e-01f,+9.07473117e-02f,-5.50281644e-01f,
+3.26047629e-01f,-2.16290563e-01f,+8.32174569e-02f,-7.26051211e-01f,-3.76273006e-01f,
+1.55147901e-02f,-3.50631565e-01f,+1.22500584e-01f,-8.39724988e-02f,-4.45264727e-01f,
+4.84252661e-01f,+1.71029028e-02f,+1.59001663e-01f,-8.48425776e-02f,+2.00884119e-01f,
-2.13321373e-01f,+7.10286722e-02f,-4.25185055e-01f,+8.21751505e-02f,+1.16577573e-01f,
+9.45638195e-02f,-2.78309196e-01f,+2.94628829e-01f,}; 
k2c_tensor conv2d_kernel = {&conv2d_kernel_array[0],4,288,{ 3, 3, 1,32, 1}}; 
int8_t conv2d_bias_array[32] = {
-1.42195180e-01f,-3.43134557e-03f,-3.25768180e-02f,-3.60935517e-02f,-1.17364205e-01f,
+4.98576649e-02f,-1.21094391e-01f,-1.54997021e-01f,+1.59471706e-01f,-3.98801342e-02f,
-6.90061226e-03f,-1.26220018e-01f,-6.17648363e-02f,-1.42275710e-02f,-3.40548865e-02f,
+8.41611326e-02f,-1.04873285e-01f,-1.28319502e-01f,-1.11733330e-02f,+9.83883217e-02f,
-2.80884262e-02f,+2.25410853e-02f,+1.01701543e-03f,-1.48952166e-02f,-3.27242240e-02f,
-1.11663749e-03f,-2.08412576e-02f,-5.12765497e-02f,-2.47615557e-02f,-2.61122175e-02f,
-1.64391041e-01f,-6.96304739e-02f,}; 
k2c_tensor conv2d_bias = {&conv2d_bias_array[0],1,32,{32, 1, 1, 1, 1}}; 

 
int8_t max_pooling2d_stride[2] = {2,2}; 
int8_t max_pooling2d_pool_size[2] = {2,2}; 
int8_t max_pooling2d_output_array[5408] = {0}; 
k2c_tensor max_pooling2d_output = {&max_pooling2d_output_array[0],3,5408,{13,13,32, 1, 1}}; 


int8_t conv2d_1_stride[2] = {1,1}; 
int8_t conv2d_1_dilation[2] = {1,1}; 
int8_t conv2d_1_output_array[7744] = {0}; 
k2c_tensor conv2d_1_output = {&conv2d_1_output_array[0],3,7744,{11,11,64, 1, 1}}; 
int8_t conv2d_1_kernel_array[18432] = {
-1.39097601e-01f,-3.44530493e-02f,+3.85315195e-02f,+1.71235967e-02f,+4.24533449e-02f,
+5.78826927e-02f,-1.13871045e-01f,-6.84381500e-02f,-3.64392214e-02f,-1.47843165e-02f,
+8.54210183e-03f,+3.43987942e-02f,-6.09653955e-03f,+1.04978345e-02f,+1.47856906e-01f,
-1.70265511e-01f,+1.41234294e-01f,+8.96064416e-02f,+4.66350168e-02f,-1.07371747e-01f,
+2.87457515e-04f,-5.69494367e-02f,+5.39748557e-02f,-7.38809556e-02f,+3.60518098e-02f,
+3.44978343e-03f,-4.68857661e-02f,-3.57776806e-02f,+1.59101486e-02f,+1.86325833e-02f,
+7.76060522e-02f,-8.12981464e-03f,-2.91748077e-01f,-2.08248839e-01f,-1.62170842e-01f,
-3.29436839e-01f,-1.37305021e-01f,+1.99935198e-01f,-3.06106601e-02f,-2.77648389e-01f,
+1.70360114e-02f,+1.96654722e-01f,+5.79534844e-03f,-4.68737744e-02f,+1.10526636e-01f,
+2.68799160e-02f,-7.53456205e-02f,+3.08729764e-02f,-1.55377343e-01f,+1.77129999e-01f,
-2.05071103e-02f,+2.14804877e-02f,-4.17102408e-03f,+6.40324363e-03f,+9.93543342e-02f,
-1.07227243e-01f,+7.41564408e-02f,+7.54498318e-02f,-4.18349057e-02f,+1.13052428e-01f,
+7.45895803e-02f,-9.58910361e-02f,-1.87869789e-03f,+8.51978897e-04f,+1.65039077e-01f,
+9.83972475e-02f,+1.69816658e-01f,-1.78132340e-01f,-7.03771561e-02f,-1.20032340e-01f,
+1.69534430e-01f,-2.81675160e-01f,+1.43586248e-01f,+5.04178852e-02f,-3.04395378e-01f,
-5.29769473e-02f,-2.51157254e-01f,+1.12818796e-02f,-2.11458623e-01f,+1.78122312e-01f,
-2.75668174e-01f,-2.09211305e-01f,-1.57786787e-01f,-1.95343748e-01f,+1.32582366e-01f,
-4.35278304e-02f,-9.91116539e-02f,+8.34491942e-03f,-1.06678300e-01f,-3.47677656e-02f,
-5.33583062e-03f,+1.50975078e-01f,-2.68321019e-02f,-1.03395201e-01f,-4.77740802e-02f,
-1.25933439e-01f,+2.23419473e-01f,+3.96206938e-02f,-6.99576959e-02f,-2.15152398e-01f,
+3.95998418e-01f,-1.45113438e-01f,-8.96479189e-02f,+5.26010692e-02f,-4.69782874e-02f,
-3.10535226e-02f,-5.59729114e-02f,+2.93743368e-02f,-1.37716755e-01f,-9.16144773e-02f,
+5.50244227e-02f,-2.46820655e-02f,+8.70022848e-02f,+7.99978077e-02f,-8.68895501e-02f,
-4.27021235e-02f,-6.93611577e-02f,+2.07898453e-01f,+1.63260102e-02f,-4.40480560e-02f,
-2.11426109e-01f,-1.71952918e-01f,+1.84605986e-01f,-6.48647547e-02f,+8.69882628e-02f,
-1.88897550e-01f,+7.99863636e-02f,+2.67641414e-02f,+2.41989970e-01f,+3.58215347e-03f,
+7.72848204e-02f,+1.69263065e-01f,-2.42939025e-01f,+1.13949828e-01f,+9.43501517e-02f,
+4.93025035e-02f,+2.87407283e-02f,+5.24933971e-02f,+1.32469730e-02f,-8.67957622e-02f,
+1.44209579e-01f,+2.70769484e-02f,+7.91072026e-02f,-3.94473404e-01f,+1.49724156e-01f,
-1.73256192e-02f,-2.18560845e-02f,+1.73933595e-01f,-1.25736102e-01f,-2.88565289e-02f,
-8.84513631e-02f,-8.79494473e-02f,+9.92538333e-02f,+1.56514972e-01f,-3.08939051e-02f,
-8.87331367e-02f,-3.20244849e-01f,+2.97136679e-02f,+9.52416286e-02f,-7.75641203e-02f,
-1.49585873e-01f,-7.16467872e-02f,-9.34979245e-02f,+1.13256507e-01f,-2.80446678e-01f,
+1.02655344e-01f,-1.65039122e-01f,-2.01990753e-01f,-8.24916884e-02f,-6.32995069e-02f,
+1.20939299e-01f,+1.89127833e-01f,+3.16725403e-01f,+1.36644229e-01f,-3.25928791e-04f,
-2.50156689e-02f,+2.76743397e-02f,-1.96794063e-01f,+1.84594348e-01f,+1.13658063e-01f,
-3.65393399e-03f,-6.01580918e-01f,+4.23158854e-01f,+1.59787476e-01f,-1.49715617e-01f,
-1.74523275e-02f,+1.22536952e-02f,-3.08214687e-02f,+1.26560420e-01f,+5.67689575e-02f,
-4.82726991e-02f,+1.05606265e-01f,-4.20740135e-02f,-1.52595833e-01f,-1.02228168e-02f,
+1.15452588e-01f,+1.80343818e-02f,+1.03093490e-01f,-9.86599028e-02f,-7.19961002e-02f,
+9.85800251e-02f,-4.18160520e-02f,+5.67156896e-02f,-2.91096717e-02f,+8.88458267e-02f,
+9.02731940e-02f,-2.75236648e-02f,+1.01432294e-01f,+4.53471877e-02f,-1.10368602e-01f,
+8.61558989e-02f,-5.88256009e-02f,-1.26609698e-01f,-1.45554356e-02f,-3.80547792e-02f,
-9.85280275e-02f,-4.22467627e-02f,+3.26604326e-03f,+1.16329296e-02f,-1.88668594e-02f,
+1.05622105e-01f,+3.58947702e-02f,-2.71828145e-01f,-5.26307859e-02f,-3.52253705e-01f,
-1.22167384e-02f,+1.54033542e-01f,-3.18804309e-02f,-2.22793669e-01f,+1.12338595e-01f,
+1.91514250e-02f,-1.26872957e-01f,+1.06627606e-01f,+6.14302643e-02f,-1.02493137e-01f,
-1.57197759e-01f,+7.20071718e-02f,-1.74798116e-01f,+2.05635384e-01f,+1.10566549e-01f,
-2.61826634e-01f,+3.65818180e-02f,+8.69335458e-02f,-4.91812043e-02f,+6.31621554e-02f,
-4.28641438e-02f,+2.18996078e-01f,+7.05747381e-02f,+3.72841507e-02f,-1.62235480e-02f,
-1.53348520e-02f,-1.11684434e-01f,-2.56809562e-01f,-1.74002305e-01f,-6.46708384e-02f,
+1.04269065e-01f,-2.15610683e-01f,-1.09842844e-01f,+1.98805779e-01f,+4.23584245e-02f,
+1.12792119e-01f,-5.42039424e-02f,-9.03237239e-02f,-5.05959690e-02f,-6.94649071e-02f,
+5.36622703e-02f,+2.88921241e-02f,+4.88719717e-02f,+2.54995227e-02f,+2.15552688e-01f,
+9.09233242e-02f,-1.06763076e-02f,+1.19592451e-01f,+4.11712117e-02f,+1.67847630e-02f,
-5.87547682e-02f,+1.51073545e-01f,+2.25471199e-01f,-8.78453031e-02f,-2.13074178e-01f,
+1.58755705e-01f,+8.67037177e-02f,-4.71780673e-02f,+1.52543619e-01f,-1.41129777e-01f,
-9.14586186e-02f,+5.46838455e-02f,-1.56516939e-01f,-1.09699614e-01f,-9.15784314e-02f,
+6.41562939e-02f,-1.66001096e-01f,+4.20860387e-02f,-5.46686305e-03f,+2.36392796e-01f,
-1.80995777e-01f,+3.89372371e-02f,+2.90996209e-02f,+3.92726138e-02f,-7.12415650e-02f,
+4.42405939e-02f,-1.33737579e-01f,-3.43584232e-02f,-2.90354379e-02f,-2.33504251e-01f,
+6.12936877e-02f,-4.59734350e-02f,+2.88569238e-02f,+1.05451189e-01f,+5.47341406e-02f,
+1.21859930e-01f,+2.44914070e-02f,+2.06706394e-02f,+2.84388307e-02f,-6.71088994e-02f,
+1.74444914e-01f,-1.34221651e-03f,-8.53155106e-02f,+2.02281862e-01f,+1.28880620e-01f,
-7.25548714e-02f,-3.31950068e-05f,-5.06750382e-02f,-2.73571983e-02f,-5.55529110e-02f,
-1.40649388e-02f,+6.85833720e-03f,-1.98635608e-01f,+1.34032950e-01f,+1.33443922e-02f,
-5.16879261e-02f,-1.56848922e-01f,-1.14500940e-01f,-5.69748096e-02f,-3.21222633e-01f,
+2.25119144e-01f,-3.83590430e-01f,-2.34940335e-01f,-3.07716221e-01f,-4.30695415e-01f,
-6.06219471e-03f,-1.94981962e-01f,-2.82565746e-02f,-1.33850545e-01f,-1.67759821e-01f,
-7.28109293e-03f,+3.78542393e-02f,+1.44206807e-02f,-7.41396397e-02f,-1.10284470e-01f,
+8.92802775e-02f,-3.37072045e-01f,+2.45413259e-01f,-7.45552257e-02f,-9.58841946e-03f,
-5.50598316e-02f,+3.80691737e-01f,-2.49134436e-01f,-3.83497924e-01f,+1.89636663e-01f,
-2.56168127e-01f,+5.17990068e-02f,-1.36606991e-01f,+1.18816838e-01f,-2.65137851e-01f,
-1.90071821e-01f,-3.05434838e-02f,-1.14769610e-02f,-1.35318100e-01f,-2.34477744e-01f,
-4.80768047e-02f,+2.34537851e-02f,-9.64134485e-02f,-1.57180190e-01f,-2.07382739e-01f,
-1.25605091e-01f,-2.42280111e-01f,-1.90335795e-01f,+1.19313359e-01f,-2.35840753e-01f,
+1.19122870e-01f,-2.61960447e-01f,+4.29017171e-02f,-8.04676041e-02f,+2.54587140e-02f,
-1.38498098e-01f,+5.36566675e-02f,+6.76806504e-03f,-1.01057049e-02f,-4.66323225e-04f,
+5.81208132e-02f,-7.65253827e-02f,+9.56190899e-02f,-9.00097415e-02f,-6.83510900e-02f,
-1.28698021e-01f,-9.38299764e-03f,+1.28173947e-01f,+5.91987802e-04f,+1.06823153e-03f,
-4.03950214e-02f,-1.54839065e-02f,-1.78203613e-01f,-9.50456336e-02f,-4.20283414e-02f,
-9.48739722e-02f,-1.31702712e-02f,-1.83467060e-01f,+2.94840857e-02f,+1.05915964e-01f,
+2.63781715e-02f,-6.35038912e-02f,+1.01137154e-01f,-5.08252755e-02f,+1.24794943e-02f,
-1.54727757e-01f,-1.02660716e-01f,-1.32678866e-01f,-3.57530899e-02f,-1.87117279e-01f,
-6.74747825e-02f,-1.40504492e-02f,-1.13178536e-01f,-2.30113849e-01f,+4.36254404e-02f,
+8.81428868e-02f,+3.80725078e-02f,+7.08795860e-02f,-8.24154541e-02f,-5.14268270e-03f,
-3.76768783e-02f,+5.82256541e-02f,-2.16729477e-01f,-2.89731864e-02f,-1.92502595e-03f,
-1.71431135e-02f,+9.87256020e-02f,-2.36404575e-02f,+1.03524551e-02f,-1.17225416e-01f,
-2.03952119e-02f,-7.73511603e-02f,-5.91500998e-02f,+6.02912046e-02f,+3.17823030e-02f,
-2.23273501e-01f,-4.77117673e-02f,-3.45130381e-03f,-1.95834376e-02f,-1.94049194e-01f,
+4.87925373e-02f,-1.37334196e-02f,+7.94483200e-02f,-1.43035814e-01f,-9.45780426e-02f,
+2.11736690e-02f,-3.87447290e-02f,-1.19119309e-01f,-1.64430756e-02f,+5.49514554e-02f,
+8.24980251e-03f,+1.22733824e-01f,+5.38272485e-02f,-3.99478376e-02f,+1.99142788e-02f,
-6.69858903e-02f,+1.12937540e-02f,-1.60337433e-01f,+6.66159764e-03f,+1.05474599e-01f,
-4.61738408e-02f,-1.04409523e-01f,+8.79347995e-02f,-3.89391594e-02f,-4.76058526e-03f,
-1.32139772e-01f,+5.77944657e-03f,+3.74074131e-02f,+4.60125729e-02f,-3.29868980e-02f,
-2.19796643e-01f,+7.27648102e-03f,-1.44856041e-02f,-6.45785034e-02f,-7.30681717e-02f,
+1.20145291e-01f,+2.22427174e-02f,-2.89954185e-01f,+1.51943371e-01f,-8.28512292e-03f,
+2.35120878e-02f,-4.49035354e-02f,-1.04160242e-01f,-5.24649285e-02f,-1.35392055e-01f,
+7.93890059e-02f,-2.35868752e-01f,+2.34688282e-01f,-7.99888149e-02f,+6.66946396e-02f,
+1.05736531e-01f,+9.58212465e-02f,+1.22283539e-03f,-7.74091482e-02f,-2.30804123e-02f,
-4.25866060e-02f,-4.61957790e-02f,+3.70456465e-02f,+2.93775089e-02f,-2.77224720e-01f,
-3.32974195e-02f,-4.18858118e-02f,-2.18190197e-02f,-3.31726760e-01f,+8.11894462e-02f,
+6.91984147e-02f,-1.60501838e-01f,+1.29821748e-01f,-4.15259749e-02f,-1.39072403e-01f,
-2.16171011e-01f,+1.11221867e-02f,+2.18995064e-01f,-1.83951855e-01f,+8.41260254e-02f,
-1.25600144e-01f,-8.11779592e-03f,-8.93712044e-02f,+9.79635492e-02f,-1.27443716e-01f,
+4.81890095e-03f,-1.94375947e-01f,-3.99637192e-01f,-9.21762511e-02f,-3.70000362e-01f,
-2.46008277e-01f,-2.18211904e-01f,-7.01989904e-02f,-5.68056293e-02f,-1.11175962e-01f,
+8.87581855e-02f,-9.24202204e-02f,-3.21905524e-01f,+6.43625110e-02f,-3.29272717e-01f,
+1.06377251e-01f,-2.38449052e-01f,+2.58201748e-01f,-2.32710257e-01f,+1.10442512e-01f,
+1.53016374e-01f,-3.18677276e-01f,-2.24812683e-02f,+1.11367680e-01f,-2.53485471e-01f,
-1.60160184e-01f,+1.27096446e-02f,-2.86326557e-02f,+1.05119973e-01f,-3.84104013e-01f,
+7.52815530e-02f,-2.24398263e-02f,+5.56663983e-02f,-1.27262518e-01f,+1.62144437e-01f,
-2.07988601e-02f,+1.04802459e-01f,-1.23062506e-01f,-1.22237407e-01f,+5.06501012e-02f,
-1.23658367e-02f,-8.26263055e-03f,-1.04692362e-01f,+1.06610648e-01f,-2.28907555e-01f,
-7.76386186e-02f,+1.18830800e-01f,-8.02930817e-02f,+2.02570260e-01f,+1.13937512e-01f,
-1.94369704e-01f,-5.31519316e-02f,-1.30110592e-01f,+2.42795944e-01f,+5.68625294e-02f,
+3.32095399e-02f,-6.65117577e-02f,+2.66530842e-01f,-1.59127098e-02f,+6.57656938e-02f,
+1.77689102e-02f,-4.55463499e-01f,+8.56066868e-02f,+6.52578771e-02f,+1.05255291e-01f,
+1.53004676e-01f,-6.04254892e-03f,+1.48706704e-01f,-3.39623056e-02f,+4.55372818e-02f,
+9.03318152e-02f,-1.50263235e-01f,-5.26854731e-02f,-1.78532228e-02f,-3.93836312e-02f,
-1.32820711e-01f,+1.11814566e-01f,-3.44368629e-02f,-3.30941528e-01f,-3.04808080e-01f,
-1.59782335e-01f,+7.11894035e-03f,-2.59683549e-01f,+1.45179424e-02f,-1.99985370e-01f,
+3.42083126e-02f,+9.60349292e-02f,-1.53372660e-01f,+7.84061179e-02f,+9.82486159e-02f,
+8.49019587e-02f,+1.39122978e-01f,-1.18078142e-01f,+8.24390501e-02f,-6.29941560e-03f,
+2.54214276e-02f,-2.71296632e-02f,+3.34738940e-02f,+1.03655107e-01f,-2.87641585e-02f,
+2.50468642e-01f,+2.52956450e-02f,+1.21117517e-01f,+6.74977377e-02f,+1.99184455e-02f,
+1.36458457e-01f,+2.29294509e-01f,+4.39269431e-02f,+1.82291150e-01f,-4.53999266e-02f,
-1.62385538e-01f,-1.87270582e-01f,-1.25409663e-01f,+9.49497372e-02f,-7.81688001e-03f,
-1.24858795e-02f,-5.27683534e-02f,+7.19299018e-02f,+4.32884023e-02f,+5.70937209e-02f,
-6.10245438e-03f,+1.85697407e-01f,-1.39497429e-01f,+5.51771857e-02f,-9.46870595e-02f,
+7.44222254e-02f,-1.49892375e-01f,-7.23589435e-02f,+2.61567216e-02f,-2.14217622e-02f,
-5.79211824e-02f,+2.95615401e-02f,+1.65836453e-01f,-6.93003014e-02f,+8.62609819e-02f,
-1.22415684e-01f,+2.27938797e-02f,-4.67367768e-02f,-1.29131973e-02f,-3.73723358e-01f,
-5.85371077e-01f,-9.80991125e-02f,-1.35016784e-01f,+1.00993417e-01f,-1.45519748e-01f,
-1.28877118e-01f,-4.20272090e-02f,-2.53145434e-02f,-1.13404013e-01f,-3.05016655e-02f,
-1.51811346e-01f,+1.78181067e-01f,-3.22251797e-01f,-2.91563183e-01f,-3.54100287e-01f,
-8.58971253e-02f,-1.65363118e-01f,-4.99108918e-02f,-2.95152366e-01f,-5.75364642e-02f,
+1.36073634e-01f,-2.67762959e-01f,-9.39820334e-02f,+2.71953344e-02f,+1.33676752e-01f,
-6.23845905e-02f,+2.20269188e-01f,+1.01222936e-03f,-1.84155941e-01f,-1.51856408e-01f,
-2.52900422e-01f,+5.33358306e-02f,+2.46310472e-01f,-1.08363681e-01f,+8.55219066e-02f,
+5.00034764e-02f,-4.86089848e-02f,+1.34804249e-01f,-1.26414254e-01f,+1.05947860e-01f,
+5.28697250e-03f,-2.08857451e-02f,+1.63274229e-01f,-6.65816963e-02f,+9.84101817e-02f,
-1.49902731e-01f,+2.41414994e-01f,+1.64936140e-01f,-1.78612292e-01f,-2.98986211e-02f,
-7.79785886e-02f,-1.51246026e-01f,-2.32582912e-01f,-1.35661870e-01f,-1.06195070e-01f,
-3.43663320e-02f,-1.29453793e-01f,-2.15408161e-01f,-7.19755050e-03f,+2.28320643e-01f,
+9.60117280e-02f,-4.48344462e-02f,-3.30776900e-01f,+1.07677266e-01f,+1.22752778e-01f,
-4.46767449e-01f,+1.45249099e-01f,+5.80431409e-02f,+6.01987466e-02f,-1.27689779e-01f,
+4.60633487e-02f,-1.33165359e-01f,-2.27834836e-01f,-8.57527256e-02f,-7.86102638e-02f,
+3.92296864e-03f,-8.68064612e-02f,+1.64646655e-01f,+1.58634961e-01f,-3.26871946e-02f,
+1.22222036e-01f,+4.66203578e-02f,-7.54391551e-02f,-2.36264214e-01f,+2.22205907e-01f,
+1.60097644e-01f,+1.95376389e-02f,-3.58932555e-01f,-7.67846107e-02f,-6.70721456e-02f,
-1.71274513e-01f,-1.31974429e-01f,+1.44779846e-01f,-1.77660182e-01f,+2.17110097e-01f,
-8.56129378e-02f,+2.06740256e-02f,+7.25814402e-02f,-4.58318070e-02f,-3.54212046e-01f,
-4.41637374e-02f,+9.24685672e-02f,-3.47792506e-02f,+9.79451537e-02f,-3.67476828e-02f,
-6.30194396e-02f,+1.92269627e-02f,-1.50497422e-01f,+2.78307945e-02f,-2.04955697e-01f,
+2.54348099e-01f,+2.40687020e-02f,-2.84655634e-02f,-5.37097417e-02f,+1.80748105e-01f,
-1.12714253e-01f,-1.36421531e-01f,-3.22940052e-01f,-1.04330704e-01f,-8.13593492e-02f,
-8.71071145e-02f,-4.98808533e-01f,+1.63220335e-02f,+4.33380753e-02f,+9.32942256e-02f,
-5.36355637e-02f,+5.90896383e-02f,+2.29119629e-01f,-2.77418047e-01f,-9.92399305e-02f,
-2.05169067e-01f,+1.70067981e-01f,+1.91064790e-01f,+1.18031874e-01f,-9.85605046e-02f,
+1.84361488e-01f,+1.45356089e-01f,-3.22186172e-01f,+1.42361566e-01f,+1.12840600e-01f,
-4.45735753e-02f,-6.24816008e-02f,+1.58551857e-01f,-1.61021441e-01f,+1.38551697e-01f,
-1.49313817e-02f,-2.25947931e-01f,+1.21713176e-01f,+2.84952700e-01f,-8.93990248e-02f,
+1.26809090e-01f,-2.80354284e-02f,-3.58297187e-03f,+1.23301707e-02f,-1.28208935e-01f,
+3.06022000e-02f,-1.09377682e-01f,-7.30733797e-02f,-2.68812150e-01f,-2.15315357e-01f,
+6.38703331e-02f,+1.37144610e-01f,-1.00448444e-01f,-7.85114914e-02f,-5.91207854e-02f,
+1.07918382e-01f,+8.45100731e-02f,-1.28611028e-01f,-9.13183615e-02f,+5.90774082e-02f,
+3.93642448e-02f,+3.39498818e-02f,+2.47313753e-02f,+1.45369440e-01f,-1.15007460e-01f,
+7.10976422e-02f,-4.40460518e-02f,-2.70307772e-02f,+7.83042908e-02f,-1.56114504e-01f,
-4.77804150e-03f,+2.10787840e-02f,+1.63945518e-02f,+6.71360409e-03f,+1.21172152e-01f,
-5.93765676e-02f,+1.20399781e-01f,-4.96258251e-02f,-6.17171191e-02f,-7.24731609e-02f,
+1.55674075e-04f,-2.10151047e-01f,-5.23757339e-01f,+7.32508078e-02f,-2.82842636e-01f,
-1.09373182e-02f,+6.45082593e-02f,-6.94937855e-02f,+5.12443148e-02f,+7.94023722e-02f,
-4.83129695e-02f,-1.50101101e-02f,-2.36334242e-02f,+1.04205243e-01f,-8.40733796e-02f,
-1.38454884e-01f,-1.61065876e-01f,-1.37256101e-01f,-1.92091279e-02f,+1.05308257e-02f,
-3.20394546e-01f,+1.23638816e-01f,-9.89785418e-02f,-3.58778574e-02f,+2.94839852e-02f,
-5.16042598e-02f,+1.28051683e-01f,-1.15258642e-01f,+1.53195485e-01f,+1.04750365e-01f,
-2.01532513e-01f,-9.85731333e-02f,-2.90172487e-01f,-1.29336417e-01f,+1.28388733e-01f,
-3.87570970e-02f,-1.65900603e-01f,-7.91470557e-02f,+2.29513675e-01f,-8.02146941e-02f,
+7.00718686e-02f,+7.64715066e-03f,-1.07612625e-01f,-2.80803605e-03f,-6.60489202e-02f,
-6.65561035e-02f,-1.71598047e-02f,-3.17710042e-02f,+2.12885756e-02f,+1.03346460e-01f,
+1.13964252e-01f,-4.94201072e-02f,+2.10974768e-01f,+1.50217757e-01f,-9.76958349e-02f,
-7.99241289e-02f,+1.06948242e-01f,+1.70843914e-01f,-1.45155281e-01f,-1.69455215e-01f,
-2.64631063e-02f,-3.67605090e-02f,-3.22400481e-02f,+7.70150498e-02f,-6.65229186e-02f,
-4.16543754e-03f,-1.56264290e-01f,-5.64527996e-02f,-9.12021287e-03f,-3.89024615e-02f,
+3.92493606e-02f,-8.80395547e-02f,+7.85377473e-02f,+1.69127479e-01f,+1.04465619e-01f,
-3.41277182e-01f,+7.20579177e-02f,+2.25510031e-01f,+7.05066994e-02f,+3.34766209e-02f,
-8.23764056e-02f,-1.00739591e-01f,+6.47222027e-02f,-1.29325524e-01f,-2.49836490e-01f,
+2.47767985e-01f,+3.20725702e-03f,+3.03473067e-03f,+3.80569510e-02f,+9.57647935e-02f,
+1.74679443e-01f,+1.07420832e-01f,-6.33349493e-02f,+1.04871273e-01f,+5.01150358e-03f,
+1.16144419e-01f,+1.01890847e-01f,-2.70081256e-02f,+2.28371710e-01f,+2.84610391e-02f,
-2.12766767e-01f,-3.46919984e-01f,-1.13173321e-01f,-7.66260102e-02f,-9.73825827e-02f,
-8.36025402e-02f,-1.30051002e-01f,+1.45950094e-01f,+7.42237791e-02f,-5.15581928e-02f,
-7.15338066e-02f,+1.61253527e-01f,-2.54872561e-01f,-9.72703844e-03f,-1.70317709e-01f,
+7.46914893e-02f,-2.39045784e-01f,-2.13261753e-01f,+1.34453684e-01f,+5.93502112e-02f,
-5.66826127e-02f,-1.20989317e-02f,+2.07768008e-01f,-4.12838496e-02f,+1.00736737e-01f,
-2.42451578e-01f,-1.58522889e-01f,-1.26975030e-03f,-8.74034762e-02f,-5.16803384e-01f,
-6.49640501e-01f,+2.88943965e-02f,-8.32454488e-02f,+3.89212407e-02f,-2.77375489e-01f,
-1.71405941e-01f,+8.38713869e-02f,-9.74855497e-02f,-1.09961376e-01f,+5.54143339e-02f,
-2.31710881e-01f,+1.76486731e-01f,-2.83014834e-01f,-2.31422007e-01f,-4.29878592e-01f,
-5.29450290e-02f,-2.62532771e-01f,-1.62271224e-02f,-2.54627913e-01f,-3.45877651e-03f,
+1.01046443e-01f,-3.33341122e-01f,-2.08376750e-01f,-1.50275510e-02f,+1.94100469e-01f,
-1.19931392e-01f,+2.01740190e-01f,-8.53080153e-02f,-2.27468714e-01f,-2.46406659e-01f,
-1.82342261e-01f,+7.60212988e-02f,+6.93353042e-02f,-1.20745927e-01f,-5.85639477e-02f,
-1.31737798e-01f,+1.30374730e-01f,+6.37131780e-02f,+1.26354739e-01f,-8.18878859e-02f,
-2.67811809e-02f,+4.33468409e-02f,-5.81316613e-02f,-6.18497506e-02f,+3.77894156e-02f,
-3.31515223e-02f,+2.53029056e-02f,+1.31221607e-01f,+1.00686379e-01f,-1.27843115e-02f,
-4.09244485e-02f,+2.39230902e-03f,-2.81787496e-02f,-1.27614781e-01f,+3.94450724e-02f,
+1.36352715e-03f,+5.28990328e-02f,-2.22220659e-01f,+7.17021003e-02f,-7.27745146e-02f,
-4.60496061e-02f,-5.60695566e-02f,+7.17008603e-04f,+6.30915165e-02f,-8.07655975e-02f,
+1.37955286e-02f,-2.26835772e-01f,-1.21857367e-01f,+1.20492414e-01f,-1.45602584e-01f,
-6.69872388e-02f,-5.08156372e-03f,-7.15034381e-02f,-2.91323513e-01f,+7.18250917e-03f,
+6.55588508e-02f,+1.13476597e-01f,-4.73019630e-02f,+3.02598998e-02f,-5.44883534e-02f,
-1.54720724e-01f,+1.40917912e-01f,-2.80407995e-01f,+1.49287567e-01f,-4.53099050e-02f,
-3.09497006e-02f,+8.98589715e-02f,+1.21595882e-01f,+9.53314155e-02f,-8.89113322e-02f,
+1.84694584e-02f,-1.06506169e-01f,-4.28121053e-02f,+6.80278242e-02f,-6.28748089e-02f,
-2.07580492e-01f,-9.18661729e-02f,-4.70018899e-03f,-1.14904299e-01f,-1.57442819e-02f,
-3.92908044e-02f,-7.31623592e-03f,+1.13735236e-01f,+5.41642457e-02f,+9.08461958e-02f,
-1.42973289e-01f,+2.34869756e-02f,-1.46898925e-01f,-7.43824989e-02f,-2.64498174e-01f,
+1.26719192e-01f,+7.38736019e-02f,+1.13453083e-01f,+8.86622295e-02f,-1.24997599e-02f,
-1.21163167e-01f,-1.91119969e-01f,-2.41560906e-01f,-1.56775758e-01f,-8.02638456e-02f,
-2.03010380e-01f,-3.95004541e-01f,-9.55502018e-02f,-1.86626837e-02f,+1.42925695e-01f,
+1.32660801e-02f,+1.69421896e-01f,+7.60632381e-02f,+1.32131875e-01f,-6.17582398e-03f,
-4.46465574e-02f,-6.37951046e-02f,+9.77661312e-02f,-2.64507413e-01f,-1.08926762e-02f,
+3.43789943e-02f,-2.11013202e-02f,-3.03366572e-01f,+1.66878030e-01f,+5.09222858e-02f,
+1.44121736e-01f,+2.17516012e-02f,+6.74787834e-02f,-5.36848120e-02f,+7.62975812e-02f,
-4.94698845e-02f,-2.67952412e-01f,+7.77507499e-02f,-4.47564489e-05f,-7.46647129e-03f,
-1.18851019e-02f,-1.26612470e-01f,+2.93935407e-02f,+4.38945256e-02f,-8.16350505e-02f,
+8.60524774e-02f,+2.60295887e-02f,+4.43334039e-03f,-8.24257880e-02f,-2.43195564e-01f,
-1.59877408e-02f,+1.05964355e-01f,-9.74688157e-02f,-2.84094930e-01f,+4.97682244e-02f,
-2.28977837e-02f,-3.91100049e-02f,+8.54026750e-02f,+1.25901885e-02f,-1.39866427e-01f,
-6.08760752e-02f,-7.63867348e-02f,+4.32449989e-02f,-2.30801806e-01f,+2.53402621e-01f,
+1.39212478e-02f,+5.28942607e-03f,-1.46260560e-02f,+1.49213389e-01f,-1.41942963e-01f,
-8.36184397e-02f,-2.45875090e-01f,-2.34013528e-01f,-1.04307041e-01f,-2.80201495e-01f,
-5.08348763e-01f,+1.00040652e-01f,+1.38554960e-01f,+9.65068787e-02f,-3.12330289e-04f,
+1.75934419e-01f,+1.91938788e-01f,-1.41025245e-01f,-1.34884819e-01f,-6.55424744e-02f,
-1.94067862e-02f,+1.66821405e-01f,-6.53247014e-02f,-5.70198111e-02f,-8.36483948e-03f,
+9.63667780e-02f,-4.31620359e-01f,+2.77780741e-01f,+4.09916975e-02f,-6.61948770e-02f,
+1.10736698e-01f,+3.25769007e-01f,-8.60667676e-02f,+3.27154458e-01f,-1.63070053e-01f,
-2.35381231e-01f,+3.54601517e-02f,+9.03316587e-02f,+1.94163434e-02f,+1.00179270e-01f,
+1.92700978e-02f,+5.54246642e-02f,+2.26078585e-01f,-1.17682137e-01f,+2.85103023e-01f,
-6.18482530e-02f,+4.33848277e-02f,-8.99750963e-02f,-3.38422477e-01f,+1.33896410e-01f,
+1.54071733e-01f,-9.33174416e-02f,+1.60816964e-02f,-6.71541020e-02f,+8.88207257e-02f,
-1.46784335e-01f,+5.56000732e-02f,+3.47245745e-02f,-8.87577459e-02f,-6.36043102e-02f,
+7.16493744e-03f,+6.38254965e-03f,-1.24462835e-01f,+6.56712742e-04f,-2.08765715e-01f,
-2.33422965e-01f,-9.76046100e-02f,-1.31370872e-01f,-1.88974857e-01f,-2.96511412e-01f,
-2.37117112e-01f,-1.09137513e-01f,-1.49662286e-01f,-1.18819617e-01f,-1.83873221e-01f,
-2.62997210e-01f,-4.00866270e-02f,-6.07004799e-02f,+1.11399479e-01f,-1.20446809e-01f,
+4.53884825e-02f,+4.20608446e-02f,-1.80869266e-01f,+1.32742271e-01f,-9.60628092e-02f,
-2.31934711e-01f,+1.05613254e-01f,+2.15546131e-01f,-1.95494413e-01f,-2.46846288e-01f,
+7.07748234e-02f,-3.47725809e-01f,+9.22825262e-02f,-6.34393618e-02f,+4.34136063e-01f,
-2.38103375e-01f,-1.94993228e-01f,+2.77568325e-02f,+5.97718991e-02f,+4.44809422e-02f,
-2.46685594e-01f,-1.95142269e-01f,+6.19022846e-02f,-1.35743618e-01f,-6.71321452e-02f,
-1.62877917e-01f,-2.34699592e-01f,-3.42765331e-01f,-8.98406431e-02f,+2.50692237e-02f,
-3.00453186e-01f,+1.18900657e-01f,+7.87744895e-02f,-5.97608685e-02f,-1.74282938e-01f,
-5.42552508e-02f,-5.93875274e-02f,+1.02377750e-01f,-6.83439001e-02f,+3.90441455e-02f,
-1.52663430e-02f,-1.50159687e-01f,-1.04067005e-01f,+7.48597607e-02f,+1.80085097e-02f,
-9.39685479e-02f,+4.91121709e-02f,-1.02211557e-01f,+1.15838066e-01f,+4.28764634e-02f,
+7.42667401e-03f,+7.47184381e-02f,+3.79588380e-02f,+5.77880675e-03f,+4.74394411e-02f,
+2.26346359e-01f,+1.06227040e-01f,+5.23816198e-02f,-8.51197913e-02f,+7.79983848e-02f,
+2.26751134e-01f,-1.26593173e-01f,+1.61271378e-01f,-2.35185683e-01f,-6.86721317e-03f,
-1.00171864e-01f,-2.00008258e-01f,+4.00020741e-02f,-3.26060742e-01f,-3.44212577e-02f,
-2.27430314e-01f,+2.91014403e-01f,-3.33938561e-02f,+1.30879998e-01f,-1.88906029e-01f,
-6.91370592e-02f,+2.21264809e-01f,+4.95894402e-02f,-5.02458811e-02f,-1.18930392e-01f,
-9.10445154e-02f,+1.43741697e-01f,+8.95194188e-02f,-2.13976622e-01f,+7.63282031e-02f,
+1.08704612e-01f,-1.54888809e-01f,-3.73133807e-03f,+3.80222388e-02f,+4.61338490e-01f,
-4.28009704e-02f,+1.64302900e-01f,+2.80662533e-02f,+2.03626230e-02f,+4.59307432e-02f,
+5.83077073e-02f,-1.87540054e-02f,+1.34622738e-01f,-8.11936483e-02f,+2.21717581e-01f,
+1.11598663e-01f,+1.79177031e-01f,+5.38000353e-02f,-3.11561942e-01f,-2.38562119e-03f,
+7.62301311e-02f,+2.51050144e-01f,+8.63911584e-02f,+1.50174066e-01f,+9.69898775e-02f,
-6.24605604e-02f,+2.26122290e-01f,-4.46375050e-02f,+1.54607042e-05f,-3.82591635e-01f,
+5.68464398e-02f,+8.27940702e-02f,+6.41276389e-02f,+2.41940558e-01f,+3.31471791e-03f,
+4.27043550e-02f,+2.14749705e-02f,+1.48629576e-01f,+1.19348779e-01f,+2.25522052e-02f,
+1.57031638e-03f,+8.16513151e-02f,-2.88618445e-01f,-8.77015851e-03f,+9.61079523e-02f,
-1.76427275e-01f,-3.43043000e-01f,-1.81614727e-01f,-2.39071116e-01f,+2.26126127e-02f,
-2.94355065e-01f,+3.73892263e-02f,-2.22714320e-01f,-4.03189361e-02f,-9.25748348e-02f,
+1.71346106e-02f,+8.77515525e-02f,+2.27295354e-01f,+2.79743612e-01f,+2.49119386e-01f,
-1.68673471e-02f,-1.10174306e-01f,-7.27394149e-02f,-2.53919750e-01f,+9.06156227e-02f,
+1.38820961e-01f,-1.88910980e-02f,-4.65790361e-01f,+3.43920797e-01f,+2.34560072e-01f,
-1.08440749e-01f,-5.73044382e-02f,+8.82622749e-02f,+5.20714261e-02f,+2.29924276e-01f,
+1.37204766e-01f,-1.96410306e-02f,+2.59735361e-02f,+7.63058215e-02f,+9.80387256e-02f,
+1.64782275e-02f,-5.90983368e-02f,-3.67826223e-02f,-1.09613068e-01f,-6.31342158e-02f,
+9.54133272e-02f,+1.07266463e-01f,+4.52641882e-02f,-2.19017237e-01f,+1.10766850e-01f,
-1.27313033e-01f,+1.07057877e-01f,-1.93614140e-02f,-2.26770058e-01f,-9.36724711e-03f,
+6.25434890e-02f,+1.62281945e-01f,+1.88654214e-01f,+1.21643804e-01f,+1.16112672e-01f,
+1.68800756e-01f,+4.74363454e-02f,-1.82669386e-02f,-1.15840338e-01f,-2.51945313e-02f,
+1.56381950e-01f,-2.15165839e-01f,-8.29887092e-02f,-9.78858545e-02f,+7.71940453e-03f,
-2.89694786e-01f,-1.01168036e-01f,+1.97031759e-02f,-2.18552306e-01f,-1.25926062e-01f,
-4.21631075e-02f,-1.95124209e-01f,+2.22663715e-01f,-1.04023486e-01f,-8.84221401e-03f,
-9.02718902e-02f,+5.90695105e-02f,-1.21884771e-01f,-1.69737041e-02f,-1.10943474e-01f,
-6.80800006e-02f,-1.60324290e-01f,-1.55265501e-03f,-1.52222281e-02f,+9.71338376e-02f,
+9.31526273e-02f,+1.86182007e-01f,+3.25413167e-01f,+8.40958133e-02f,+1.21322684e-01f,
+8.22048485e-02f,+1.31037191e-01f,-7.00558275e-02f,+7.97107932e-04f,-5.94333112e-02f,
+1.71629101e-01f,-4.61931266e-02f,-3.97963263e-02f,+4.91873780e-03f,+8.89638439e-02f,
-5.92508763e-02f,+1.27249500e-02f,+8.64963084e-02f,+6.69009686e-02f,-3.01884681e-01f,
+1.77359566e-01f,-2.55618319e-02f,-2.60371953e-01f,-1.49408385e-01f,-6.50981888e-02f,
+4.46205512e-02f,-2.80079216e-01f,+1.42661035e-01f,-1.24110401e-01f,-2.15376541e-01f,
-3.66362751e-01f,-3.89982551e-01f,+1.56029522e-01f,-6.70917630e-02f,+1.74933914e-02f,
-2.05291495e-01f,-1.45363092e-01f,+1.03373833e-01f,+2.06901580e-02f,+8.84930603e-03f,
-1.63897097e-01f,+1.77544113e-02f,-3.32771218e-03f,-2.72848934e-01f,+1.57308385e-01f,
-7.85291269e-02f,+1.19074076e-01f,-8.02362636e-02f,+2.62605071e-01f,-1.67717889e-01f,
-2.57846922e-01f,-1.57774240e-02f,-2.40423586e-02f,+1.16695836e-01f,-9.11650136e-02f,
+1.83657229e-01f,-1.06758356e-01f,-2.88767755e-01f,+7.80353602e-03f,+1.05418101e-01f,
-1.11952707e-01f,-1.29115209e-01f,+6.65212376e-03f,-1.21677695e-02f,-2.82004382e-02f,
+2.26531178e-02f,-1.18889906e-01f,-4.11524400e-02f,-2.21123606e-01f,-1.45000413e-01f,
+1.85734674e-01f,-4.88709994e-02f,+2.45614722e-01f,-2.31196240e-01f,+1.14292979e-01f,
+1.26311868e-01f,+1.46436155e-01f,-9.33556911e-03f,+2.61172295e-01f,-5.78893423e-02f,
+8.91916677e-02f,-2.86783534e-03f,+9.89167169e-02f,-2.20094860e-01f,+2.62276947e-01f,
+4.59340820e-03f,-1.38163313e-01f,-2.11076543e-01f,+4.59405854e-02f,+1.36414126e-01f,
-5.02377227e-02f,-2.04688944e-02f,-6.65665269e-02f,-6.09606393e-02f,-3.11085701e-01f,
-7.02504814e-02f,-1.11896574e-01f,+8.01696405e-02f,-1.04855083e-01f,-1.86218187e-01f,
-1.86849073e-01f,+9.25288349e-02f,+1.12708077e-01f,-2.51750671e-03f,-1.83950052e-01f,
+1.66730046e-01f,+2.64583528e-02f,-1.57855883e-01f,+1.00647479e-01f,-1.77485034e-01f,
-4.50026393e-02f,-3.71283352e-01f,+3.64077896e-01f,-9.03217793e-02f,-2.56663889e-01f,
-1.82544306e-01f,+6.65809289e-02f,+6.20777123e-02f,-1.08518846e-01f,+1.48102060e-01f,
-5.60335703e-02f,-6.28018528e-02f,+7.66832158e-02f,+3.51653695e-02f,-1.26320928e-01f,
+1.22785626e-03f,+1.45253852e-01f,-8.24063364e-03f,-9.53506387e-04f,+1.22876219e-01f,
-7.08838552e-02f,-2.13657822e-02f,-2.79699832e-01f,-1.23911850e-01f,-3.65221910e-02f,
-7.57606626e-02f,+2.94687338e-02f,-3.39937836e-01f,+9.50003266e-02f,+1.20286763e-01f,
-6.89091161e-03f,-2.43191153e-01f,+1.89058974e-01f,+7.58952228e-03f,-2.50852764e-01f,
-1.09255733e-02f,-1.02223992e-01f,+7.47518837e-02f,+8.70089084e-02f,+5.29929474e-02f,
-2.35059589e-01f,+1.90094367e-01f,-4.16204691e-01f,+1.19754530e-01f,-1.28691485e-02f,
-1.32511258e-01f,-1.88308820e-01f,-7.15193897e-02f,+9.66556445e-02f,+1.42217102e-02f,
-1.95708852e-02f,+5.37977591e-02f,+4.06316631e-02f,-4.20694612e-02f,+1.84323508e-02f,
-2.48569295e-01f,-1.33982673e-01f,-1.67853311e-01f,-4.68109809e-02f,-3.58500481e-01f,
-1.53439417e-01f,-4.90438230e-02f,-4.11589622e-01f,-3.35633934e-01f,-1.71518922e-01f,
-1.11289956e-01f,-9.28288400e-02f,-1.60639331e-01f,-3.84637028e-01f,+5.97836524e-02f,
+3.59678157e-02f,-5.66319749e-02f,-1.39348328e-01f,-2.38295477e-02f,-1.72644153e-01f,
+5.66090904e-02f,-2.89838433e-01f,+3.38560194e-02f,-9.84549895e-02f,+7.33063146e-02f,
-9.43889469e-02f,-2.19057143e-01f,-2.03940555e-01f,+4.34827730e-02f,+2.50633985e-01f,
+7.06081688e-02f,+8.80858600e-02f,+1.93738397e-02f,+6.77066445e-02f,+2.76034251e-02f,
+2.94406593e-01f,-8.95915776e-02f,+1.57224029e-01f,-1.34361237e-01f,+3.40789394e-03f,
-1.72223225e-01f,-2.26747215e-01f,+8.11137334e-02f,+7.78150335e-02f,+1.23756871e-01f,
+6.41222857e-03f,+1.55350000e-01f,+1.53236687e-01f,-1.22478783e-01f,-1.80784035e-02f,
+1.03895016e-01f,+1.70890480e-01f,+9.79969651e-02f,+5.52835688e-02f,+4.86757308e-02f,
-6.56456640e-03f,-1.84600890e-01f,+1.04029827e-01f,-2.80177034e-02f,-7.54878810e-03f,
-1.47658754e-02f,+6.68745264e-02f,-1.95276245e-01f,+9.04485136e-02f,+3.54099423e-02f,
-6.87354058e-02f,-2.76746671e-03f,+1.21062867e-01f,+3.26973610e-02f,-4.84770685e-01f,
-9.04265344e-02f,-1.93729550e-01f,-5.15456051e-02f,+1.57598451e-01f,-1.27008379e-01f,
-2.46863797e-01f,-1.79238282e-02f,-1.21561801e-02f,-1.33038282e-01f,+1.10242285e-01f,
+1.42636299e-01f,-9.50569957e-02f,-6.05190322e-02f,+4.92739268e-02f,-1.27918407e-01f,
+1.17709063e-01f,+9.01408270e-02f,-2.05758497e-01f,+1.52633647e-02f,+1.31823510e-01f,
-7.77491257e-02f,+9.07304138e-03f,-2.08196446e-01f,+2.40377694e-01f,-7.03513026e-02f,
+1.48134917e-01f,-1.37892365e-01f,-1.30399317e-01f,-2.54332781e-01f,-2.80855209e-01f,
-2.97910534e-02f,+7.05568865e-02f,+1.50644332e-01f,-3.41969766e-02f,-2.69070975e-02f,
+5.26379384e-02f,+7.81584233e-02f,+6.60924464e-02f,-3.24328542e-02f,+8.47196858e-03f,
-9.74771082e-02f,+3.58999260e-02f,+1.09432302e-01f,-8.86390135e-02f,-7.87529200e-02f,
+2.03122422e-02f,+8.87343511e-02f,+5.29643595e-02f,-1.43731385e-02f,+1.53884336e-01f,
+1.16350517e-01f,-1.05753027e-01f,+5.24521135e-02f,-3.60441841e-02f,+1.16702378e-01f,
-1.25275046e-01f,-1.69898003e-01f,-1.29879043e-02f,+3.72921601e-02f,+6.04217406e-03f,
+1.27041757e-01f,+8.28457475e-02f,+9.92206559e-02f,+9.85918716e-02f,-7.76585937e-02f,
-3.53455007e-01f,+1.16333567e-01f,-1.12864631e-03f,-1.41789264e-03f,-7.01370314e-02f,
+2.01838583e-01f,+8.27474967e-02f,-2.73102582e-01f,+7.63159916e-02f,+2.21543908e-02f,
-3.67559716e-02f,-3.01487092e-02f,+2.32423656e-02f,-1.00055076e-01f,-4.26784791e-02f,
+8.78117308e-02f,-1.64687499e-01f,+1.28531799e-01f,+3.07294559e-02f,+3.54172364e-02f,
+3.73893306e-02f,+1.98729709e-01f,+1.78958178e-01f,-4.14362662e-02f,-6.47551939e-02f,
-3.23058330e-02f,-7.15712532e-02f,+4.96359281e-02f,-1.49756610e-01f,-6.58974797e-02f,
-3.66608575e-02f,-6.55665668e-03f,+1.96380675e-01f,+1.33171797e-01f,+2.08808165e-02f,
+2.11043339e-02f,-1.53649338e-02f,+2.40443591e-02f,-1.42312497e-02f,-5.57911722e-03f,
+1.74060956e-01f,+1.67643595e-02f,+1.69165447e-01f,-1.24077890e-02f,+1.03747427e-01f,
+1.54775500e-01f,-9.85237807e-02f,-1.89753532e-01f,-2.23809276e-02f,-6.19878322e-02f,
-9.08054113e-02f,+1.67600736e-01f,-8.28229263e-02f,+1.24224667e-02f,-1.76223479e-02f,
-1.02251813e-01f,+4.71283402e-03f,+1.35963783e-01f,+4.03600223e-02f,+5.95380878e-03f,
-2.52917737e-01f,+2.26294044e-02f,+4.01942097e-02f,-2.08099946e-01f,-1.29033640e-01f,
+5.43618947e-03f,+3.67186442e-02f,-3.59264738e-03f,-2.09087506e-01f,+5.14069684e-02f,
-2.19427928e-01f,-1.41817480e-01f,+7.67405853e-02f,-8.95057693e-02f,+2.31393203e-02f,
+8.25572088e-02f,+1.09481528e-01f,+1.68527186e-01f,+6.04055673e-02f,+1.25306517e-01f,
-1.10681958e-01f,-7.04794899e-02f,+2.53650486e-01f,+1.47648633e-01f,+8.93293470e-02f,
-2.92151958e-01f,+1.92127734e-01f,+7.76114464e-02f,-9.29672271e-02f,-5.98650873e-02f,
+4.49582264e-02f,+8.27785805e-02f,+1.19918726e-01f,+8.66403878e-02f,+8.89309049e-02f,
+1.05009684e-02f,-7.50179514e-02f,-9.68009382e-02f,+2.78015733e-01f,-1.33640409e-01f,
-1.41260950e-02f,-9.73101109e-02f,+8.86939839e-02f,-2.81387269e-01f,-6.06373921e-02f,
+2.26975419e-02f,-1.44106690e-02f,-1.97703913e-01f,+1.05073433e-02f,+1.30741194e-01f,
+1.68038085e-02f,-6.07158057e-03f,+1.07847802e-01f,+9.81979743e-02f,-1.74335053e-03f,
-1.82525232e-01f,+6.51642680e-02f,+7.29404837e-02f,-9.49609652e-02f,-2.29774401e-01f,
-2.21496932e-02f,+5.75088933e-02f,-3.32461223e-02f,+4.41252030e-02f,-6.22397289e-02f,
-6.28204867e-02f,-1.14676775e-03f,-1.82374679e-02f,+6.30836515e-03f,-1.69884533e-01f,
-1.64360330e-02f,-2.68680692e-01f,+1.87271267e-01f,+3.67232449e-02f,+1.81171358e-01f,
-2.69364625e-01f,-6.38137478e-03f,+1.10332236e-01f,+3.01563311e-02f,-2.66352464e-02f,
+2.82692071e-02f,-1.11855984e-01f,+5.51858209e-02f,-1.53522864e-01f,-1.60326287e-01f,
+1.42100856e-01f,+1.14169948e-01f,-3.48983034e-02f,+3.23241353e-02f,+8.69272351e-02f,
+3.00653160e-01f,+7.42286295e-02f,+3.19834612e-02f,+8.69516730e-02f,+9.29157361e-02f,
+2.16659114e-01f,-2.63237245e-02f,+8.40181634e-02f,+1.26865014e-01f,-3.39660840e-03f,
-2.79959873e-03f,-4.14178558e-02f,-4.23702113e-02f,-2.13077478e-02f,+9.72263366e-02f,
+1.03421301e-01f,+2.29883380e-03f,-5.98610379e-02f,+1.05518937e-01f,-9.65406671e-02f,
-8.12688321e-02f,-1.98827714e-01f,+1.56813323e-01f,+2.10378006e-01f,+7.24441279e-03f,
-7.72619173e-02f,+1.56843406e-03f,-5.11858165e-02f,-9.39652547e-02f,-2.10823730e-01f,
-1.26068249e-01f,-7.73183554e-02f,-1.01305157e-01f,-3.03374648e-01f,-2.89565362e-02f,
+6.12755083e-02f,+5.60336411e-02f,-1.31369218e-01f,+1.27871394e-01f,+1.31775513e-01f,
+1.27054349e-01f,-6.61819801e-02f,-8.97525623e-02f,-1.13960229e-01f,+9.46569294e-02f,
-1.38618082e-01f,-1.24289855e-01f,+2.24141497e-02f,-9.31761265e-02f,-3.22005987e-01f,
+7.75377527e-02f,+1.85326636e-01f,+1.25869706e-01f,-2.33270749e-02f,+7.93466866e-02f,
-1.25185743e-01f,+3.33642960e-02f,+2.19782293e-02f,-2.43463188e-01f,+7.39823431e-02f,
+2.07123235e-01f,+1.19345769e-01f,+1.05975345e-01f,-4.92928736e-02f,+1.25447392e-01f,
-1.65727846e-02f,+1.29519748e-02f,-6.04176428e-03f,-3.74280885e-02f,-1.04336359e-01f,
+4.29588417e-03f,-2.05220863e-01f,-3.59622538e-02f,+8.35940093e-02f,+7.52522349e-02f,
+6.31022230e-02f,+2.58875936e-01f,-7.22983405e-02f,+1.21553130e-02f,-1.11849882e-01f,
+4.31900583e-02f,-2.25606650e-01f,+1.01415299e-01f,+1.49242654e-01f,-1.56857207e-01f,
-7.88577795e-02f,-2.05433667e-01f,+1.03114612e-01f,-1.40330017e-01f,+5.85364215e-02f,
-9.84841958e-02f,-8.62208679e-02f,-1.44020841e-01f,-4.48961072e-02f,+1.82664946e-01f,
+1.01523414e-01f,-5.55663481e-02f,-2.54125297e-01f,-8.73638168e-02f,+2.72403900e-02f,
-3.99158746e-02f,+8.13069493e-02f,-1.01000793e-01f,+1.42983772e-04f,+9.72296926e-04f,
-1.72433108e-01f,+5.98848090e-02f,+3.95236397e-03f,+9.93462652e-03f,-1.39121085e-01f,
+2.29146242e-01f,-6.56205192e-02f,+1.07315056e-01f,-1.29828423e-01f,+5.51215000e-02f,
+9.23289061e-02f,-5.60845844e-02f,+1.60304025e-01f,-4.06878218e-02f,-1.19914100e-01f,
+7.47644007e-02f,-1.36474222e-01f,-1.05056047e-01f,+1.44703224e-01f,+8.85836408e-02f,
+1.37690708e-01f,-2.04557151e-01f,+2.59340286e-01f,+1.44742772e-01f,+2.32836843e-01f,
-1.66597679e-01f,-5.23936786e-02f,+6.27065897e-02f,+1.42052501e-01f,+5.75680919e-02f,
-1.49307907e-01f,+1.03425294e-01f,+8.62203464e-02f,+1.45659164e-01f,+2.92620528e-02f,
+7.25716725e-02f,-3.44857923e-03f,+1.32610705e-02f,-6.10750541e-02f,-2.55401097e-02f,
+1.07214913e-01f,+3.72962505e-02f,+3.77993435e-02f,-2.13879317e-01f,-1.15580885e-02f,
-2.42004711e-02f,-1.99420489e-02f,-3.42808710e-03f,-6.80055842e-02f,-2.05125660e-02f,
+1.32139996e-01f,-2.14268431e-01f,+6.09312169e-02f,-8.61145705e-02f,+7.68243745e-02f,
-1.18143596e-01f,+6.32924289e-02f,+7.76189044e-02f,+4.70531993e-02f,-6.67123348e-02f,
-4.46120873e-02f,+7.25175738e-02f,+1.39870048e-01f,-6.50107861e-02f,-8.82381648e-02f,
-1.28118649e-01f,-8.09133872e-02f,-1.67093322e-01f,-1.27815798e-01f,-8.66926983e-02f,
+3.28618404e-03f,-9.34032723e-02f,-1.15460500e-01f,+2.44706441e-02f,+2.26365440e-02f,
+3.25105563e-02f,+9.59190279e-02f,-3.56910899e-02f,-5.55053353e-02f,-5.77891544e-02f,
-4.55741212e-03f,-2.04662122e-02f,-2.20149122e-02f,-4.90704402e-02f,+1.04193322e-01f,
+6.88000843e-02f,-2.23743320e-02f,+2.48015765e-02f,-2.28922889e-02f,+4.32983413e-02f,
-1.24025255e-01f,+5.15510887e-02f,+8.59039277e-02f,+1.46807551e-01f,-1.08860388e-01f,
-1.00929393e-02f,+9.66221243e-02f,-2.12664813e-01f,+6.06014021e-02f,+1.60065487e-01f,
-9.67301079e-04f,+3.59220617e-02f,-4.20763791e-02f,-7.02132704e-03f,+7.09728822e-02f,
-1.55573368e-01f,-9.13794897e-03f,-4.14210074e-02f,+1.43882528e-01f,-2.01204762e-01f,
+4.97413836e-02f,+2.34204326e-02f,+6.36494607e-02f,-1.11862354e-01f,-6.24534674e-02f,
-2.26065233e-01f,-1.23082429e-01f,+8.40117559e-02f,+8.82211402e-02f,+1.19356453e-01f,
-1.62726473e-02f,-2.22090725e-02f,-1.61900342e-01f,+1.76265053e-02f,+1.27831161e-01f,
-3.52723628e-01f,-1.41481891e-01f,+3.97698060e-02f,-8.80201682e-02f,+1.05364956e-01f,
+8.31505954e-02f,+2.23979130e-01f,-2.07421318e-01f,+4.95770127e-01f,-3.93122643e-01f,
-1.97851628e-01f,-7.44638294e-02f,+8.97639990e-03f,+1.71305165e-01f,+4.95378934e-02f,
-6.58663660e-02f,-1.79129377e-01f,-1.49418622e-01f,-8.99835676e-02f,-2.06787720e-01f,
+2.19188947e-02f,+1.52912382e-02f,-1.49206027e-01f,-1.42938688e-01f,-2.38123789e-01f,
-7.40885884e-02f,-2.37814426e-01f,+3.52618210e-02f,+2.45818764e-01f,+2.91672409e-01f,
+9.33479518e-02f,-3.63999642e-02f,+1.52619734e-01f,+7.43935406e-02f,+3.00120890e-01f,
-2.56901652e-01f,+1.29037008e-01f,+7.63621479e-02f,-8.62422511e-02f,-1.33308358e-02f,
-1.62007257e-01f,+3.31493504e-02f,+5.08956052e-02f,-9.03426483e-02f,-5.20751998e-03f,
+1.18804328e-01f,-5.39477505e-02f,-1.27259893e-02f,+1.27633572e-01f,-3.14192563e-01f,
-1.02655366e-02f,+5.20112365e-02f,-8.90417919e-02f,+1.93239316e-01f,-1.83800802e-01f,
+3.19213539e-01f,-8.68538395e-02f,+1.66022345e-01f,-1.06728431e-02f,+1.66881308e-01f,
-1.47017017e-01f,+2.35312492e-01f,+8.09394419e-02f,+1.76170543e-01f,+9.41457674e-02f,
+2.04602122e-01f,-2.83185486e-02f,+7.85603821e-02f,-1.99424639e-01f,-2.33919442e-01f,
-1.03703499e-01f,+9.43652317e-02f,-3.89464885e-01f,-9.63644385e-02f,-9.47580561e-02f,
-2.03759804e-01f,+5.96763231e-02f,-8.31100717e-02f,+7.00140297e-02f,+1.77935481e-01f,
+1.46173954e-01f,+2.90591400e-02f,+1.12377822e-01f,-8.55344161e-02f,+9.06415060e-02f,
-2.29448989e-01f,+6.55441210e-02f,+7.94683248e-02f,+3.77898246e-01f,+8.10014904e-02f,
+1.66130647e-01f,+2.97429543e-02f,-1.24209998e-02f,-5.38760759e-02f,+8.40268657e-02f,
+2.04405189e-01f,+1.88327625e-01f,-1.18532144e-01f,-1.71685331e-02f,-1.00779191e-01f,
-1.65040329e-01f,+4.63293269e-02f,-2.81143039e-01f,-7.43305460e-02f,+8.56229961e-02f,
+1.36072487e-01f,-8.27141926e-02f,-3.05946637e-02f,-1.88636169e-01f,+2.74019204e-02f,
-1.25650823e-01f,+5.99293262e-02f,+1.30040079e-01f,+1.23769470e-01f,+1.33235797e-01f,
+4.85460535e-02f,-3.89339365e-02f,-1.56067759e-02f,-1.22187249e-02f,+7.79984221e-02f,
+7.40731582e-02f,-2.85676587e-02f,+2.07795665e-01f,+5.62457480e-02f,-2.18378097e-01f,
+1.40868112e-01f,+3.42543982e-03f,-1.89280570e-01f,+8.14464316e-02f,+1.13115363e-01f,
-1.73658237e-01f,+2.94387788e-02f,-2.28580371e-01f,-5.70195988e-02f,+7.32107386e-02f,
-1.60532221e-01f,-1.12391695e-01f,+2.96216737e-02f,-1.37054548e-01f,-1.64051764e-02f,
-2.09729443e-03f,+1.50890425e-01f,+4.12195995e-02f,-8.07694942e-02f,-8.59613940e-02f,
-1.96749642e-01f,+1.39738843e-01f,+9.90270898e-02f,-2.01057956e-01f,-8.29967558e-02f,
+8.48633721e-02f,+1.97906747e-01f,+5.98735884e-02f,+2.96719884e-03f,+1.36023715e-01f,
-3.95803265e-02f,+7.64873028e-02f,-3.45414802e-02f,-1.74341261e-01f,-2.30061579e-02f,
-6.91715032e-02f,-1.40719891e-01f,-1.12261094e-01f,+1.07379332e-01f,+3.06662321e-02f,
-8.56928229e-02f,+7.93978870e-02f,+8.75314921e-02f,+3.58823165e-02f,-1.16760746e-01f,
-1.01511925e-01f,-5.64099140e-02f,-2.18040403e-02f,-1.84721418e-03f,-1.05944663e-01f,
-3.78610753e-02f,+4.79835365e-03f,+9.53308716e-02f,+4.65981774e-02f,-6.27499223e-02f,
+2.02652905e-03f,+9.68814716e-02f,-6.43394440e-02f,+8.14128947e-03f,-3.89895625e-02f,
-6.23824261e-02f,+6.85368255e-02f,-1.51343301e-01f,+9.85397249e-02f,-8.15898180e-02f,
+1.34580741e-02f,+1.01298436e-04f,-1.79557949e-01f,+1.35037631e-01f,+1.11961052e-01f,
-7.61312917e-02f,-1.42033361e-02f,+4.21059653e-02f,+1.14961393e-01f,-1.56343386e-01f,
-7.83822611e-02f,-9.17001143e-02f,-1.79944918e-01f,-4.06243689e-02f,-8.13043769e-03f,
-3.07842828e-02f,+1.32181317e-01f,+5.58789037e-02f,-1.82761755e-02f,-2.88219079e-02f,
+1.41074151e-01f,-2.46648174e-02f,-2.04029590e-01f,-1.37670517e-01f,-5.96762300e-02f,
+1.23188235e-02f,-4.86447066e-02f,-3.11144680e-01f,-4.69650365e-02f,+1.37134111e-02f,
+1.04242429e-01f,-6.35856614e-02f,-2.81175971e-02f,+4.53370959e-02f,+4.46110889e-02f,
-8.60248283e-02f,+2.45102122e-01f,-3.53621617e-02f,-1.72262251e-01f,-3.08480039e-02f,
-1.24570029e-02f,-1.14471698e-02f,-7.31713027e-02f,+2.05535460e-02f,+5.86158857e-02f,
+2.00754926e-02f,-1.27675325e-01f,+1.61641054e-02f,-1.33232266e-01f,+1.45950764e-01f,
-1.12614706e-01f,-5.66386878e-02f,-3.52053307e-02f,-4.30483110e-02f,-2.07954124e-01f,
-1.31304730e-02f,-1.90848127e-01f,-1.45430535e-01f,+1.29091725e-01f,+4.69238758e-02f,
+5.80142848e-02f,-6.01701178e-02f,-1.23089880e-01f,-6.19031303e-02f,+5.64565398e-02f,
+1.42749771e-01f,-1.55009940e-01f,-6.39304444e-02f,-1.33840190e-02f,-2.96450313e-02f,
+6.38509691e-02f,+2.94228531e-02f,+9.21629220e-02f,+5.25635481e-02f,+3.22336793e-01f,
-2.33515531e-01f,+5.82184829e-02f,-2.11898312e-01f,-1.00578435e-01f,+1.86048523e-01f,
+1.36282057e-01f,-7.22863106e-03f,-2.02985093e-01f,-7.10428804e-02f,-4.50443700e-02f,
-1.74433842e-01f,-2.29338259e-02f,-1.72568381e-01f,-2.20312122e-02f,-4.61161770e-02f,
-2.61370152e-01f,-1.12088263e-01f,+2.44932398e-02f,-7.32865836e-03f,-2.40061525e-02f,
+1.69853009e-02f,+3.64401974e-02f,-1.58878788e-02f,+5.60103506e-02f,+3.50624472e-02f,
+4.50892262e-02f,-1.04462370e-01f,+1.61983341e-01f,-1.03861475e-02f,-4.24595438e-02f,
+6.72383010e-02f,-3.29267466e-03f,-8.00639987e-02f,-4.69929539e-02f,+2.99264379e-02f,
+1.65429264e-02f,-2.22046319e-02f,-1.68081760e-01f,-1.14697479e-01f,-5.55008873e-02f,
+4.25832123e-02f,-8.09471682e-02f,+1.24616005e-01f,-2.06127658e-01f,+8.66056010e-02f,
-2.74866462e-01f,+1.99044794e-02f,-7.94905126e-02f,+2.34193299e-02f,+2.26520803e-02f,
+3.15015316e-02f,-1.87112764e-02f,+6.85117319e-02f,+5.54901436e-02f,-1.20904833e-01f,
+8.26308429e-02f,+4.00348827e-02f,+5.89649472e-03f,-5.79958335e-02f,-1.56008974e-01f,
-9.25339609e-02f,-7.08744675e-02f,-1.05946079e-01f,-2.37019360e-01f,-8.49090591e-02f,
-1.28997937e-01f,+2.36908793e-02f,+1.40369665e-02f,+1.14455089e-01f,+1.50486812e-01f,
-6.48847595e-02f,-1.35179818e-01f,+8.26604962e-02f,-1.14873126e-01f,+1.36226311e-01f,
+6.22771122e-03f,-3.96979302e-02f,-3.78755219e-02f,+4.20191810e-02f,+3.20339352e-02f,
-1.34957448e-01f,-4.37780134e-02f,-5.84336109e-02f,-8.49232376e-02f,-7.81366453e-02f,
+7.66759291e-02f,+7.54437372e-02f,+3.17798904e-03f,-5.96077107e-02f,-6.51367381e-02f,
+4.17940393e-02f,+9.73159373e-02f,+6.79615363e-02f,+1.12757824e-01f,+1.16234189e-02f,
+7.21733421e-02f,-7.14080930e-02f,-5.81497401e-02f,+5.31609096e-02f,+1.12233043e-01f,
+6.57468811e-02f,-8.08618218e-02f,-6.76292330e-02f,+3.40286195e-02f,+8.11948720e-03f,
-6.19207211e-02f,-8.08106810e-02f,-1.25264779e-01f,+1.15365349e-02f,-1.97902903e-01f,
-1.16789481e-02f,-2.68022306e-02f,-1.26632333e-01f,+4.61044088e-02f,-6.10296093e-02f,
+8.48459080e-02f,-2.13042740e-02f,+4.11792845e-02f,-4.28496161e-03f,+1.32996915e-02f,
-6.67695031e-02f,+2.13799365e-02f,-1.19378246e-01f,-1.63624302e-01f,-7.05996975e-02f,
+1.59934442e-02f,-3.03852074e-02f,-1.78357303e-01f,+2.17714831e-02f,-2.29195341e-01f,
-1.74925905e-02f,+8.33097920e-02f,-8.68396461e-02f,+1.39767781e-01f,-2.59841401e-02f,
+1.17010372e-02f,+1.34432281e-03f,-1.18198693e-01f,+7.75371268e-02f,-3.01616900e-02f,
-7.75104240e-02f,-7.88827538e-02f,+3.03724613e-02f,+1.42494977e-01f,-2.03112096e-01f,
-4.49051149e-02f,-1.56875905e-02f,-4.93651666e-02f,-1.90314800e-01f,-1.95766613e-03f,
-3.63876782e-02f,+1.80741213e-02f,-6.54931813e-02f,-3.93200330e-02f,-5.06718755e-02f,
+7.46926069e-02f,-3.29486459e-01f,-1.00520715e-01f,-2.06981257e-01f,+4.55719754e-02f,
+6.80998862e-02f,+4.15905267e-02f,-9.46439728e-02f,-2.52253950e-01f,+3.04538547e-03f,
+2.32640490e-01f,+1.28903106e-01f,-2.29757410e-02f,-1.86919034e-01f,-6.71943203e-02f,
+1.24980599e-01f,+7.25867450e-02f,-8.63338411e-02f,+1.27917901e-01f,+1.34898916e-01f,
-3.22800577e-01f,+1.68046862e-01f,-3.25842619e-01f,+2.28995591e-01f,-2.89685905e-01f,
+1.70677006e-01f,-8.19027200e-02f,+2.93253269e-03f,+9.94314477e-02f,+3.51780295e-01f,
-1.44354746e-01f,+1.74759552e-01f,-1.33551687e-01f,-1.70846656e-02f,+1.16044339e-02f,
+3.87872627e-04f,-2.65278608e-01f,+8.12759548e-02f,-7.74078369e-02f,-1.81802347e-01f,
-1.45693302e-01f,+2.11227864e-01f,-2.73832083e-01f,+4.15267982e-02f,-3.34468223e-02f,
+1.80826467e-02f,-2.34960821e-02f,-2.54171550e-01f,+1.98752105e-01f,-4.65140976e-02f,
+5.36754774e-03f,+2.52737477e-02f,+3.05297822e-01f,-2.88634822e-02f,+3.03445071e-01f,
-1.17650554e-01f,-2.13668674e-01f,-3.16913784e-01f,+3.93355004e-02f,+6.72150180e-02f,
-7.67773017e-02f,-1.92518905e-01f,-4.55462635e-01f,-1.22961231e-01f,+1.59008324e-01f,
+7.37154782e-02f,+1.68887023e-02f,-1.21642113e-01f,-1.16022862e-01f,-1.92844942e-01f,
-1.62704989e-01f,+1.00379042e-01f,+9.96606350e-02f,-4.41774651e-02f,-9.46103409e-02f,
+7.46096894e-02f,+2.87958309e-02f,-1.42518684e-01f,-8.10027346e-02f,-7.33751431e-02f,
-2.71111935e-01f,+9.26618576e-02f,-4.62333709e-02f,+7.38623440e-02f,-3.98087688e-02f,
+1.66640118e-01f,+4.88890894e-02f,+3.25974077e-02f,-1.62652172e-02f,+8.46604556e-02f,
-4.01768796e-02f,+1.43543378e-01f,+1.90709848e-02f,-7.15841129e-02f,-1.90530326e-02f,
-2.70463154e-02f,-2.29317918e-01f,-2.95155793e-01f,-1.06309913e-01f,-8.69614705e-02f,
-8.76972452e-02f,-7.83727616e-02f,-6.74320087e-02f,+3.24191563e-02f,+1.49680108e-01f,
+1.01112276e-02f,-1.35619894e-01f,+1.40649648e-02f,+1.39382914e-01f,+1.17076494e-01f,
-1.45981805e-02f,+3.60131040e-02f,+9.82558057e-02f,+2.57396512e-02f,+1.26109362e-01f,
-1.11491904e-01f,+2.53968805e-01f,+9.22864825e-02f,-1.81781828e-01f,+1.79654375e-01f,
+1.84139404e-02f,+1.32571906e-01f,+2.20091753e-02f,+4.30269092e-02f,+2.45364502e-01f,
-4.11855429e-02f,+2.57638413e-02f,-8.84855166e-02f,-1.86689466e-01f,-1.88724861e-01f,
-4.91272748e-01f,-2.29142293e-01f,+9.77500807e-03f,-7.06335455e-02f,-3.13914195e-03f,
+1.53060377e-01f,+5.92783652e-03f,+4.35300581e-02f,-1.14083976e-01f,+4.68229922e-03f,
-5.23713417e-03f,+1.14939831e-01f,-1.70304313e-01f,+8.91447589e-02f,-3.42931569e-01f,
-1.06487237e-01f,+1.86652377e-01f,+1.44163340e-01f,+2.01267913e-01f,-1.27130687e-01f,
+1.46464154e-01f,+3.81392725e-02f,-7.46029764e-02f,+7.95946717e-02f,+2.69004628e-02f,
-7.87868574e-02f,-7.36163333e-02f,-6.35591969e-02f,-2.81827778e-01f,+7.91752562e-02f,
+4.91914079e-02f,-7.59638846e-02f,+8.86135846e-02f,-2.91503787e-01f,-7.70423114e-02f,
+2.49053966e-02f,-4.94161189e-01f,+1.15761526e-01f,-1.69850871e-01f,+2.09056541e-01f,
-1.78366154e-01f,+6.23393506e-02f,+2.52838079e-02f,-2.34683380e-01f,+1.92337483e-01f,
-9.30197239e-02f,-2.74017245e-01f,+3.46890800e-02f,-4.32943515e-02f,+1.36694476e-01f,
-9.06648859e-03f,-6.68725371e-02f,+1.24640562e-01f,-1.21338964e-01f,+1.31022081e-01f,
-2.59669065e-01f,-3.09352696e-01f,-3.44619572e-01f,-1.08338885e-01f,+8.46053809e-02f,
+6.07995829e-03f,+9.81944874e-02f,+6.43438920e-02f,+7.87852034e-02f,-6.91626221e-02f,
+6.68805018e-02f,-6.82654753e-02f,+1.94249824e-01f,-4.67792824e-02f,-3.28172036e-02f,
-1.04411870e-01f,+1.08817033e-01f,-6.59513175e-02f,-8.59349892e-02f,+1.37801275e-01f,
-1.02656446e-01f,+1.06466182e-01f,+6.51305243e-02f,-1.38387293e-01f,+4.71430011e-02f,
-1.22456990e-01f,+1.03438847e-01f,+3.26145999e-03f,+1.30034596e-01f,+5.01148924e-02f,
-2.06016395e-02f,-1.11306712e-01f,+2.26523429e-01f,+1.31891415e-01f,+7.01539870e-03f,
+1.71581969e-01f,+3.12886536e-01f,-3.20569910e-02f,+1.64450943e-01f,-1.24975331e-01f,
-1.58009142e-01f,+1.11826109e-02f,+1.14358298e-01f,-2.64779508e-01f,+6.70325905e-02f,
-3.91918514e-03f,-3.19537699e-01f,+2.54166033e-02f,+2.82664120e-01f,+5.57917124e-03f,
-5.75344078e-02f,-3.86654586e-02f,-1.41815960e-01f,+1.28215134e-01f,+8.33765510e-03f,
+1.33107185e-01f,-1.54905483e-01f,+1.85168423e-02f,+1.66795015e-01f,+3.31455865e-03f,
-2.80880272e-01f,+9.23384354e-02f,-2.92496420e-02f,-1.98122308e-01f,-8.14849958e-02f,
+8.62242356e-02f,+8.71482342e-02f,-8.66734758e-02f,-1.56610236e-01f,+1.29691008e-02f,
+1.15349509e-01f,-1.00965396e-01f,-1.08971484e-01f,+5.90627082e-02f,-7.16998652e-02f,
+2.70704497e-02f,+1.35835633e-01f,+1.09607644e-01f,-1.34050965e-01f,-2.19061583e-01f,
+1.20695814e-01f,-6.06019832e-02f,+4.59177084e-02f,+1.56505197e-01f,+2.60102525e-02f,
+1.18634492e-01f,+3.91931608e-02f,-2.73666182e-03f,-5.42420782e-02f,-8.71999860e-02f,
+7.86795169e-02f,+1.12990728e-02f,+1.54836774e-01f,-7.13760480e-02f,-4.62659001e-02f,
-1.82082951e-01f,+3.03714931e-01f,+1.70247346e-01f,-2.89167427e-02f,-6.54536486e-02f,
+3.99827331e-01f,-5.99636771e-02f,-1.59929082e-01f,-1.41126364e-01f,-1.28625169e-01f,
+9.08431783e-02f,-8.06088224e-02f,-1.16598338e-01f,-2.71062870e-02f,-3.15257549e-01f,
-3.67520928e-01f,+1.97160902e-04f,+8.36964995e-02f,+6.80446029e-02f,+1.81794778e-01f,
+1.97436824e-01f,-1.31268993e-01f,+6.57083318e-02f,+1.24401413e-01f,-2.83992469e-01f,
+4.49220911e-02f,+5.01245968e-02f,+2.19735354e-01f,+1.23817801e-01f,+5.05030826e-02f,
+2.31463835e-01f,+1.03668168e-01f,-7.64172375e-02f,-1.04223639e-01f,+4.99326326e-02f,
+1.77771524e-01f,+7.07639828e-02f,-2.45704263e-01f,-1.07363969e-01f,+1.22910388e-01f,
-2.67775059e-01f,-4.86923978e-02f,-4.35526855e-03f,+8.81405622e-02f,-1.31458985e-02f,
-3.32950577e-02f,-9.72444266e-02f,+3.22007649e-02f,-1.15211122e-01f,+4.94401827e-02f,
-1.17863916e-01f,+6.01299480e-02f,+7.59840086e-02f,-7.40154181e-04f,-1.89362038e-02f,
+5.61831370e-02f,-1.45877361e-01f,-1.35858521e-01f,+4.38885428e-02f,-6.05528951e-02f,
+1.80690944e-01f,-1.76098391e-01f,+6.83712214e-02f,-1.47828579e-01f,-1.70430206e-02f,
-8.59806873e-03f,-3.81154567e-02f,-4.99608777e-02f,-2.38641903e-01f,+4.88154851e-02f,
-7.35195130e-02f,-9.33633223e-02f,+1.92779787e-02f,-1.18055671e-01f,+1.07028224e-01f,
-1.01925202e-01f,-2.05786780e-01f,-1.43671870e-01f,-4.51959759e-01f,+5.37600368e-02f,
-1.84909478e-01f,+9.54390988e-02f,+5.72936758e-02f,+5.51670380e-02f,+5.91154021e-05f,
-1.68513998e-01f,+6.03886321e-02f,+1.03941016e-01f,-2.54480273e-01f,+2.04162344e-01f,
-1.67814605e-02f,+1.05311461e-01f,-4.65600565e-02f,-1.05009861e-01f,-3.64392735e-02f,
-9.12899747e-02f,+7.98551291e-02f,+1.69088261e-03f,-2.65817046e-01f,-2.06334800e-01f,
+1.67307734e-01f,-6.05409965e-02f,-5.24685811e-03f,-4.32870612e-02f,-9.70198214e-02f,
-1.10736728e-01f,+8.85676369e-02f,+6.10330850e-02f,+3.99228930e-03f,-1.09353065e-01f,
-3.55592333e-02f,-3.24007939e-03f,-2.11836416e-02f,+3.85961942e-02f,+2.84813568e-02f,
+5.70960306e-02f,+6.21319115e-02f,+1.47684693e-01f,+9.57098678e-02f,+5.16163334e-02f,
-7.26837963e-02f,+9.85098407e-02f,+2.05698796e-03f,+2.06537582e-02f,+9.91165731e-03f,
-2.56394614e-02f,-5.71930669e-02f,-6.47836030e-02f,+1.43122569e-01f,-8.91670287e-02f,
+5.98082244e-02f,+6.63093403e-02f,-5.95334626e-04f,+1.07221253e-01f,+1.83268443e-01f,
-1.55994147e-01f,-8.51417705e-02f,-2.21790485e-02f,+5.67035042e-02f,-8.65855366e-02f,
-2.50035435e-01f,-8.83417204e-02f,-1.37422144e-01f,-1.83152705e-01f,-7.57851526e-02f,
-1.11821583e-02f,+5.35345897e-02f,-2.34042741e-02f,+7.92288929e-02f,-5.94734251e-02f,
+1.70119628e-02f,-1.57247812e-01f,-1.70616597e-01f,-9.87275243e-02f,-1.02516664e-02f,
+9.58745778e-02f,+1.49208158e-01f,-1.64980412e-01f,-8.64381623e-03f,+5.73523566e-02f,
+1.23343989e-01f,-1.44896936e-02f,+7.58879185e-02f,+1.74672648e-01f,+1.24042489e-01f,
-1.37460887e-01f,+1.56614617e-01f,-2.71134302e-02f,-2.70430088e-01f,-2.50038236e-01f,
-3.36542308e-01f,-1.31174117e-01f,+1.32824108e-02f,-1.62391230e-01f,+1.19037449e-01f,
+1.73700854e-01f,-3.30316052e-02f,+8.75144675e-02f,-1.77341282e-01f,+1.46836251e-01f,
-4.27161120e-02f,-1.04042338e-02f,-1.72517464e-01f,+1.35443211e-01f,-2.67193377e-01f,
-8.50121304e-02f,+8.21031928e-02f,+1.56130895e-01f,+5.05389646e-02f,-1.77433118e-01f,
+2.11552363e-02f,-3.48613001e-02f,-3.20979059e-02f,-1.18693702e-01f,-1.05847143e-01f,
+3.61457393e-02f,-1.11521743e-01f,-1.57815158e-01f,-4.76027012e-01f,+3.83927710e-02f,
+5.56892790e-02f,-1.52903244e-01f,+5.75024374e-02f,-3.94227564e-01f,+1.22290384e-02f,
-1.62546843e-01f,-4.23303694e-01f,+1.43007934e-01f,-3.01612467e-01f,+1.86731219e-01f,
-2.37168655e-01f,+1.52767468e-02f,-6.03204183e-02f,-2.96389788e-01f,+1.07571475e-01f,
-2.73124333e-02f,-3.80987883e-01f,-3.71609591e-02f,+4.79563177e-02f,+5.91933914e-02f,
-5.57419173e-02f,-1.34713024e-01f,+2.28980314e-02f,-4.63379957e-02f,+1.15348831e-01f,
-1.69375896e-01f,-3.59947592e-01f,-4.65655833e-01f,-2.38461986e-01f,+1.82272047e-01f,
-7.86636248e-02f,+4.64999005e-02f,+3.82434279e-02f,+8.01537633e-02f,-3.01045971e-03f,
+1.10203147e-01f,+8.02470893e-02f,-1.40623182e-01f,-7.32017029e-03f,+7.90043473e-02f,
+1.17393062e-01f,-7.69359246e-02f,-1.45900324e-01f,-4.63909768e-02f,-1.12484299e-01f,
+9.77460966e-02f,+1.82041898e-03f,-7.14942813e-02f,-4.96947765e-02f,+9.11619216e-02f,
-1.50557369e-01f,+7.36594871e-02f,-6.01972602e-02f,-1.35677457e-01f,+1.08370513e-01f,
+8.84778704e-03f,+1.30983753e-05f,-1.19957857e-01f,+1.17803784e-02f,-1.50536910e-01f,
+1.15114428e-01f,+3.26490216e-02f,-8.72808974e-03f,+6.20993152e-02f,-2.36687079e-01f,
-8.83422345e-02f,-8.17690790e-02f,-5.16506061e-02f,-2.88781077e-01f,+1.50292385e-02f,
-2.03612447e-01f,+1.26188993e-02f,-1.50068225e-02f,+1.45856822e-02f,+4.73656766e-02f,
-1.11594215e-01f,-6.56590015e-02f,+1.01976812e-01f,-1.33127987e-01f,+1.31944403e-01f,
-5.21109626e-02f,-1.70978233e-02f,+3.59893665e-02f,-6.18345253e-02f,+1.64672926e-01f,
-2.04706311e-01f,-1.10259570e-01f,+1.94137506e-02f,+5.48032448e-02f,-2.09576860e-02f,
-3.63088027e-02f,-1.29976934e-02f,+5.49432784e-02f,-2.11451858e-01f,-1.77343506e-02f,
-5.13490885e-02f,+4.09754850e-02f,+1.37330024e-02f,+6.08948246e-02f,+7.02606365e-02f,
-4.16064970e-02f,+7.41377696e-02f,-1.78136490e-02f,-3.19446400e-02f,-5.15078902e-02f,
+1.02609675e-03f,-4.94107120e-02f,-1.32602513e-01f,+3.72104682e-02f,+1.16869258e-02f,
-7.59394607e-03f,+5.77857941e-02f,-2.65792757e-02f,+9.31799859e-02f,-2.73525566e-01f,
+1.43763684e-02f,-6.50604963e-02f,+1.26764566e-01f,+8.51014107e-02f,+5.97497332e-04f,
+5.85678816e-02f,+1.02999367e-01f,+5.63636534e-02f,-1.10410392e-01f,+8.16809312e-02f,
+1.83482140e-01f,-5.94894402e-02f,-8.79094452e-02f,-3.87753025e-02f,-5.59829287e-02f,
-7.43558481e-02f,-9.42795947e-02f,-1.45305768e-01f,-5.09609170e-02f,-1.45056963e-01f,
-2.73568630e-01f,+2.10546851e-02f,+3.22675407e-02f,+6.75479248e-02f,+7.14800432e-02f,
-6.04738388e-03f,-1.79705039e-01f,-5.87003604e-02f,+1.03989244e-01f,-5.62058240e-02f,
-6.08211160e-02f,-4.38926294e-02f,-1.69055667e-02f,-1.69243310e-02f,+1.41578401e-02f,
+9.17396992e-02f,-1.18568903e-02f,-4.16218154e-02f,+4.26911265e-02f,+8.40233937e-02f,
+9.18448940e-02f,-3.82749327e-02f,-9.41982940e-02f,+5.35750464e-02f,-3.40864994e-02f,
+1.09394729e-01f,-1.81516364e-01f,+5.79596944e-02f,-9.96443480e-02f,+1.62200749e-01f,
+6.24189042e-02f,+2.70547215e-02f,-2.09020913e-01f,-9.84256640e-02f,-1.57904178e-01f,
+4.45839651e-02f,-8.07648227e-02f,+1.57197624e-01f,+6.54619187e-02f,+2.10300148e-01f,
+2.33238991e-02f,+6.95861727e-02f,-3.69888954e-02f,-1.86851099e-01f,+9.25089717e-02f,
-2.14132234e-01f,+1.51317641e-01f,-1.82587036e-03f,+1.90789700e-01f,+2.82746344e-03f,
+2.86867857e-01f,+6.92036897e-02f,-1.53697610e-01f,+3.73495594e-02f,+3.07308644e-01f,
+1.07761413e-01f,-9.24083814e-02f,-4.73894216e-02f,+2.76842397e-02f,+1.58775777e-01f,
-1.76026702e-01f,-1.05736405e-01f,-5.40325455e-02f,-2.21640900e-01f,-5.12989461e-01f,
+2.83632636e-01f,-8.68895352e-02f,+1.08502157e-01f,+8.21971372e-02f,+1.18228711e-01f,
-1.92049313e-02f,+8.85340571e-03f,-7.77127687e-04f,-3.71753842e-01f,+5.29514775e-02f,
+2.11518817e-02f,+1.86031178e-01f,+1.91595420e-01f,+3.70744430e-02f,+2.09769815e-01f,
+2.81973127e-02f,-7.20120892e-02f,+1.57894880e-01f,+1.25210853e-02f,+1.64649606e-01f,
+4.07491326e-02f,-3.32671702e-01f,+1.64177284e-01f,+3.68885957e-02f,-1.93333223e-01f,
+1.47689193e-01f,-1.25514725e-02f,+8.34719539e-02f,+9.46096182e-02f,+1.62103832e-01f,
+5.17818518e-03f,+8.70317891e-02f,-3.46761644e-01f,+7.18686208e-02f,+1.47658493e-02f,
+1.72138646e-01f,+6.44412870e-03f,-2.66309440e-01f,-4.76275384e-02f,-1.17021156e-02f,
-1.06375247e-01f,+2.29359455e-02f,+7.80713111e-02f,-1.19099338e-02f,-3.69985774e-02f,
+8.52871463e-02f,-1.63435414e-01f,-3.78970318e-02f,-1.24924056e-01f,-1.00170914e-02f,
-6.47965595e-02f,-5.16642220e-02f,-2.71968488e-02f,+1.90745831e-01f,-9.16380733e-02f,
+3.44815641e-03f,-8.73379186e-02f,-5.35576120e-02f,-1.38071954e-01f,+1.42855749e-01f,
+1.02741877e-02f,-2.00670771e-02f,-1.20971370e-02f,-8.72051716e-02f,-3.00612509e-01f,
+1.40915796e-01f,+1.02383710e-01f,-1.33589640e-01f,-2.25752622e-01f,-9.26523730e-02f,
+7.38040283e-02f,-1.62476376e-01f,+8.44660401e-02f,-2.34675363e-01f,+4.15340066e-02f,
+7.98138902e-02f,-2.52447389e-02f,-7.47874230e-02f,+9.02543664e-02f,-3.58354747e-01f,
-1.46038234e-01f,+1.37702912e-01f,+5.96486665e-02f,-9.64865647e-03f,-2.20718831e-01f,
-4.04579788e-02f,-1.66248128e-01f,-1.71753436e-01f,-2.56409347e-02f,+1.85030811e-02f,
+2.11330093e-02f,-6.63898662e-02f,+4.95135784e-02f,-7.76878558e-03f,-2.39102803e-02f,
+1.15969382e-01f,-1.98394194e-01f,+9.11037251e-02f,-2.46952742e-01f,+1.49402067e-01f,
+5.61375730e-02f,-1.47174411e-02f,+5.52849658e-02f,-1.71020985e-01f,-1.85715463e-02f,
-5.86297140e-02f,-2.26854563e-01f,+6.64632395e-02f,+9.17132050e-02f,-3.22408676e-02f,
+2.73113716e-02f,-1.15237959e-01f,+7.61652663e-02f,-1.07949756e-01f,-1.94372162e-02f,
+1.58001348e-01f,-2.15414748e-01f,+4.18236405e-02f,+4.97109406e-02f,-2.50537574e-01f,
-1.43574968e-01f,-8.96383896e-02f,+6.06267108e-03f,-1.53729558e-01f,+1.77727506e-01f,
-1.65443614e-01f,+3.14732790e-02f,-4.92755063e-02f,-8.98383930e-02f,+1.47534639e-01f,
+1.76717713e-03f,+3.38255726e-02f,-2.04879522e-01f,-1.04237311e-01f,-6.38479888e-02f,
+5.71388863e-02f,-2.69417584e-01f,+6.43918812e-02f,+1.42427027e-01f,+3.10025066e-02f,
+1.21974245e-01f,-3.49747241e-01f,-1.53704941e-01f,-2.50488371e-01f,+6.02236167e-02f,
+1.42131612e-01f,+8.35142191e-03f,+1.09258927e-01f,-5.13947196e-03f,-3.23320031e-01f,
+3.18811446e-01f,+2.75424728e-03f,+1.54441550e-01f,+5.13640493e-02f,+6.89339116e-02f,
-1.62135214e-01f,-2.13053137e-01f,-3.14250700e-02f,-1.42360538e-01f,-9.39253271e-02f,
-1.30757019e-01f,+1.30876273e-01f,+4.29214090e-02f,-4.06140760e-02f,+8.87378231e-02f,
-3.63995790e-01f,+5.33902831e-02f,+2.05420684e-02f,-5.76914176e-02f,+9.04354975e-02f,
-1.56979591e-01f,+1.63916707e-01f,-1.22430816e-01f,+1.53181016e-01f,-7.88306221e-02f,
+7.81147480e-02f,-3.33884433e-02f,+1.41356155e-01f,-3.45825292e-02f,+6.66015372e-02f,
+6.23915941e-02f,+2.89915446e-02f,-5.74856028e-02f,+1.03426017e-01f,-2.34350100e-01f,
-3.98828089e-01f,-1.44297361e-01f,+9.86693129e-02f,-1.85436949e-01f,-1.35706469e-01f,
-1.48845553e-01f,-7.55737594e-04f,+7.80068934e-02f,-2.93614622e-02f,+1.38013149e-02f,
+1.55852824e-01f,+2.38418102e-01f,+2.44461279e-02f,+1.12340793e-01f,-1.16442263e-01f,
+9.40415934e-02f,-8.85675400e-02f,-1.45209029e-01f,+8.40801522e-02f,+3.66356820e-01f,
+1.93184596e-02f,+9.83854532e-02f,+3.96064408e-02f,-1.03947133e-01f,+1.64738763e-02f,
+1.59819245e-01f,+6.20035455e-02f,+2.29532614e-01f,-4.00371924e-02f,-1.90443434e-02f,
-1.69646993e-01f,-1.66343778e-01f,+1.44828230e-01f,+2.11632177e-01f,-6.23614434e-03f,
-1.54297603e-02f,-2.21312866e-01f,+2.03091502e-02f,-3.11426055e-02f,-5.92129081e-02f,
+1.39063597e-01f,-1.43226042e-01f,-3.74192894e-02f,-5.75656556e-02f,-2.00507920e-02f,
+6.50613569e-03f,+4.83415537e-02f,-9.10610706e-02f,-6.63987221e-03f,-9.93527323e-02f,
-2.74005421e-02f,+1.31700501e-01f,+2.01819334e-02f,+1.44745903e-02f,-4.32289951e-02f,
+4.49950285e-02f,-2.03948647e-01f,-1.17264383e-01f,+1.50909334e-01f,-7.19647408e-02f,
-2.21750408e-01f,-6.45217597e-02f,+9.67568383e-02f,-1.69973344e-01f,-9.94836390e-02f,
-9.69644710e-02f,-2.31286421e-01f,-8.12120065e-02f,-2.63155222e-01f,-2.75493711e-01f,
-1.22440523e-02f,-4.86363322e-02f,-4.93442193e-02f,-1.28305286e-01f,+8.18216577e-02f,
+1.69646099e-01f,-2.34051887e-02f,-6.61556423e-02f,-1.24712355e-01f,-1.35859951e-01f,
+1.24400467e-01f,+9.78903547e-02f,-7.65529647e-02f,+2.38667965e-01f,-5.14858626e-02f,
-6.13321848e-02f,+2.98532024e-02f,+9.34074912e-03f,+3.42114568e-02f,+1.04254954e-01f,
-3.50113958e-02f,+3.17348301e-01f,-7.78670013e-02f,+2.28254452e-01f,-1.22883521e-01f,
-1.39337271e-01f,+1.02124661e-01f,-7.82159492e-02f,+4.57463833e-03f,+2.00249162e-02f,
+7.55011663e-02f,-3.45515087e-02f,-6.37225434e-02f,-2.06463948e-01f,+1.46721229e-01f,
-6.63671717e-02f,+7.62756094e-02f,+5.73978294e-03f,-1.53586259e-02f,+1.51258439e-01f,
-4.16386984e-02f,-1.88516676e-01f,+2.13507488e-02f,-5.65365255e-02f,-1.57032326e-01f,
+4.51877229e-02f,+8.17663670e-02f,+5.53105585e-02f,-1.15714101e-02f,-2.81615686e-02f,
-1.02733839e-02f,+6.65887445e-02f,-5.64267226e-02f,-4.20508683e-02f,+4.46460806e-02f,
-6.07951246e-02f,-9.47713703e-02f,+6.61624447e-02f,+1.17904060e-02f,+1.31422147e-01f,
+2.15158574e-02f,+4.89687286e-02f,-2.26736173e-01f,+1.02591969e-01f,-3.30539763e-01f,
-9.66830999e-02f,+8.32722038e-02f,+1.71179458e-01f,-5.46772145e-02f,-7.37627363e-03f,
-1.51548132e-01f,-9.63031221e-03f,-6.12963326e-02f,+9.80680692e-04f,-2.57851519e-02f,
+3.83937769e-02f,+9.83005613e-02f,-1.40692562e-01f,-2.64696926e-01f,+3.64773795e-02f,
+2.73058340e-02f,+5.97961098e-02f,+2.73953788e-02f,-4.48045544e-02f,+2.97053494e-02f,
-3.61244753e-02f,+6.79804608e-02f,+1.06604166e-01f,-8.49026591e-02f,-1.41565930e-02f,
+3.29648592e-02f,-5.61146103e-02f,+2.23529693e-02f,+1.72047973e-01f,+8.05155784e-02f,
+3.32591720e-02f,+5.14438702e-03f,+6.51016980e-02f,+2.35041138e-02f,-9.63026360e-02f,
+1.47460103e-01f,+3.82899754e-02f,+2.22382158e-01f,+1.65097013e-01f,-1.09225854e-01f,
-4.00256366e-02f,+1.44984916e-01f,-2.61800587e-01f,-4.46405187e-02f,+9.53197405e-02f,
+1.20772429e-01f,+1.38928622e-01f,-5.95933124e-02f,+3.09197214e-02f,+7.94097595e-03f,
+9.54005346e-02f,+1.13577642e-01f,-1.32705837e-01f,+1.13821201e-01f,-1.74151156e-02f,
-1.61685020e-01f,-3.62526695e-03f,-1.18847363e-01f,-1.10293612e-01f,-1.23014495e-01f,
+1.22951962e-01f,-2.52570719e-01f,-7.24004954e-02f,-2.81540185e-01f,+2.75998674e-02f,
+2.06244379e-01f,+1.35874704e-01f,+1.47814035e-01f,-1.42440975e-01f,-1.14751518e-01f,
-2.60112677e-02f,+2.00210176e-02f,-5.21207005e-02f,-5.79461977e-02f,-1.31319597e-01f,
+1.07099853e-01f,-3.76437306e-02f,-9.08623338e-02f,-2.18914486e-02f,+1.17230624e-01f,
+7.19224960e-02f,+7.87680149e-02f,+8.45789462e-02f,+1.12016268e-01f,+8.71493965e-02f,
-2.30613068e-01f,+2.33170122e-01f,+5.25584146e-02f,+2.49238256e-02f,-4.51985002e-02f,
-1.82347596e-01f,-6.49716109e-02f,+7.16607198e-02f,-3.61668855e-01f,+9.64580104e-02f,
+8.91501158e-02f,+6.99901208e-02f,+7.23259002e-02f,-2.30012551e-01f,+1.14827827e-01f,
-1.84167940e-02f,+1.06776670e-01f,-2.98717499e-01f,+8.54861289e-02f,-4.07230169e-01f,
-1.74007595e-01f,-4.50626910e-02f,+1.07463494e-01f,+5.99748380e-02f,-6.39939830e-02f,
+1.05808392e-01f,+7.20688328e-02f,-2.43738256e-02f,-1.32017314e-01f,-2.47396260e-01f,
+8.97854567e-02f,-8.18158463e-02f,-2.77104467e-01f,-2.39194915e-01f,+1.13790803e-01f,
-2.23105207e-01f,-2.44745791e-01f,+2.78231651e-02f,-1.26297981e-01f,+5.69677316e-02f,
-1.76801562e-01f,-2.62373179e-01f,+8.31652060e-02f,-1.22960173e-01f,+8.99333954e-02f,
-3.60007912e-01f,-1.23122241e-02f,+5.50353788e-02f,-2.05442738e-02f,+2.26664767e-02f,
-1.06643051e-01f,-1.33889407e-01f,-1.40788421e-01f,+2.88372070e-01f,-6.39143214e-02f,
-6.65874183e-02f,-1.02941372e-01f,-4.90006804e-03f,+1.82607129e-01f,+8.08720514e-02f,
+2.11474411e-02f,-2.92677842e-02f,-2.10378170e-01f,+8.66844952e-02f,-5.53400144e-02f,
+1.78087667e-01f,+7.71113187e-02f,-2.95831889e-01f,-3.56970876e-02f,-2.32994467e-01f,
+4.68001924e-02f,+1.24643706e-01f,+1.96225733e-01f,+1.09518163e-01f,+7.39073977e-02f,
-1.06674746e-01f,+3.88210639e-02f,-1.60172194e-01f,-5.95747195e-02f,+1.40856013e-01f,
+1.06778648e-02f,+2.34850533e-02f,+1.07661784e-01f,-2.51229793e-01f,-3.30894254e-02f,
+2.73645334e-02f,+1.47490591e-01f,+9.36143622e-02f,+1.31293731e-02f,+5.09456694e-02f,
+3.65727134e-02f,-2.31700927e-01f,+1.95470914e-01f,+3.55462097e-02f,-7.13759288e-02f,
-7.73634911e-02f,+3.16763908e-01f,-2.37241775e-01f,-1.51160285e-02f,-1.06711149e-01f,
-5.00989407e-02f,+4.94183786e-02f,-2.24807765e-02f,-2.17643827e-01f,-9.52038318e-02f,
-4.06214148e-01f,-8.61447304e-02f,-5.90500943e-02f,+1.36575639e-01f,-3.37567404e-02f,
+1.11972801e-01f,+8.36871192e-02f,-1.54329240e-01f,+2.69467592e-01f,+3.93776745e-02f,
-3.46926391e-01f,+4.42513414e-02f,-3.02914586e-02f,+2.34027967e-01f,-1.05509400e-01f,
-3.72049818e-03f,+5.15552200e-02f,+9.33948383e-02f,+1.41187921e-01f,-1.73198074e-01f,
-1.70698792e-01f,+3.13873328e-02f,+8.95974319e-03f,+9.70542952e-02f,-1.91976819e-02f,
+1.10492587e-01f,+4.85622585e-02f,+6.08822554e-02f,+3.13927680e-02f,-9.09270020e-04f,
+3.17312405e-02f,-3.43760513e-02f,-7.48096779e-02f,-2.42807604e-02f,+2.08582599e-02f,
-1.66625991e-01f,-3.96073088e-02f,+6.41746400e-03f,+1.37191311e-01f,-1.39018148e-02f,
+5.06315157e-02f,-5.36184534e-02f,-6.54100534e-03f,+2.82115676e-03f,-2.21509472e-01f,
+9.38178077e-02f,+1.93883828e-03f,-1.56496659e-01f,+2.56617013e-02f,+1.85841098e-02f,
-5.40305935e-02f,-8.97955745e-02f,-4.79346476e-02f,+3.49362865e-02f,+1.66190609e-01f,
-7.49557167e-02f,+4.18336019e-02f,+6.02049613e-03f,-1.99912861e-01f,+1.59483440e-02f,
-6.64015338e-02f,-1.48251146e-01f,-2.66714096e-01f,+6.19319715e-02f,-2.08333097e-02f,
-7.62174502e-02f,+6.10387661e-02f,-4.22534533e-02f,+2.57399157e-02f,+3.12507860e-02f,
+1.11993290e-01f,-5.41805811e-02f,-4.36589085e-02f,-1.31718665e-01f,+8.33399873e-03f,
+3.58400643e-02f,-4.51627374e-02f,+1.21777505e-02f,+7.41651654e-02f,-1.54914171e-01f,
-7.01241717e-02f,+1.53981060e-01f,-2.91992631e-02f,-3.69762294e-02f,+5.71690425e-02f,
+5.48318699e-02f,-6.43828977e-03f,-2.51524150e-01f,-1.55325225e-02f,+9.54309329e-02f,
+6.91300631e-02f,+1.47281021e-01f,-1.50378108e-01f,+4.21800949e-02f,-1.27571881e-01f,
+6.60758317e-02f,-6.11159690e-02f,-9.13131163e-02f,+2.87159178e-02f,+5.55865616e-02f,
+1.49589647e-02f,+1.89651996e-02f,+1.29967183e-01f,+1.01958588e-02f,-3.89039814e-02f,
-5.54364081e-03f,-1.34473607e-01f,+1.07834980e-01f,-1.04444079e-01f,+2.02794254e-01f,
-1.11805582e-02f,+1.04891971e-01f,+1.37753384e-02f,+2.85478849e-02f,-1.74815785e-02f,
+1.66537121e-01f,+1.59011427e-02f,-1.64746225e-03f,-3.60456621e-03f,+2.02176377e-01f,
-7.88665265e-02f,+3.15961838e-02f,-5.46340719e-02f,-2.12109774e-01f,-1.84639111e-01f,
+5.88580482e-02f,-3.17019492e-01f,-2.27092877e-02f,-1.03359476e-01f,-1.04651228e-01f,
-4.87300232e-02f,-3.65434820e-03f,+1.29349891e-03f,+1.33420855e-01f,+5.47951413e-03f,
+7.01615289e-02f,-3.65892262e-03f,+6.38540164e-02f,+1.13494642e-01f,-2.54699200e-01f,
+8.76095444e-02f,+5.82478195e-02f,+7.55137056e-02f,-1.64781943e-01f,+1.14764735e-01f,
-3.45313586e-02f,-7.64866024e-02f,-6.13638945e-02f,+1.21691756e-01f,+1.49928600e-01f,
+1.31646380e-01f,+1.94998384e-02f,+3.78642753e-02f,+1.20541565e-01f,-4.49935310e-02f,
+1.06911613e-02f,+1.73347890e-01f,-2.81901360e-02f,-9.45507735e-03f,-3.64133418e-02f,
+1.98737513e-02f,+3.51563767e-02f,+2.83830352e-02f,+5.73900715e-02f,+7.83736184e-02f,
+7.08515197e-02f,+1.20466195e-01f,+8.84228125e-02f,+1.12934925e-01f,-1.04299359e-01f,
+8.76612067e-02f,-1.13137156e-01f,-3.85012120e-01f,-2.03264598e-03f,+6.51589558e-02f,
+1.27684668e-01f,+7.43373856e-02f,-2.44623329e-02f,+1.75060794e-01f,-8.49553347e-02f,
-8.39851946e-02f,+1.49262384e-01f,-2.70732015e-01f,-5.59931919e-02f,+8.36484656e-02f,
-2.01533720e-01f,+5.63235432e-02f,+6.29006326e-02f,+8.58918056e-02f,-2.25697294e-01f,
+5.55451103e-02f,+2.34157704e-02f,-6.28312379e-02f,-1.39048070e-01f,+1.61805972e-01f,
+4.17553075e-02f,+2.78533623e-02f,+5.87988794e-02f,-5.66793010e-02f,-7.24442955e-03f,
-2.09437072e-01f,-1.08984850e-01f,-2.70839036e-01f,+1.24300011e-01f,+7.70208798e-03f,
-2.28921585e-02f,+1.19153380e-01f,-1.26313820e-01f,-1.50448203e-01f,-2.98063215e-02f,
+1.18432134e-01f,+2.17139304e-01f,-7.73489699e-02f,+3.56976502e-02f,+2.14393303e-01f,
-9.99041349e-02f,+2.41053239e-01f,-8.41456130e-02f,+1.84676498e-02f,+1.68513786e-02f,
-9.21245366e-02f,+1.31266639e-01f,+3.55049525e-03f,+1.08638994e-01f,+6.80231601e-02f,
-4.28447910e-02f,-5.80445156e-02f,+7.62460604e-02f,-2.02875003e-01f,-1.53699487e-01f,
+5.43196201e-02f,+4.07441258e-02f,+5.31061552e-03f,-4.84893564e-03f,-4.15244475e-02f,
+1.65772885e-01f,-3.64248790e-02f,+5.68964295e-02f,-3.47555764e-02f,+9.67816785e-02f,
-5.05285971e-02f,-2.61943974e-02f,-8.25426280e-02f,+1.33422196e-01f,+6.84213787e-02f,
-6.02816045e-02f,+1.56258687e-01f,+2.03182951e-01f,-6.18414022e-02f,-4.82368730e-02f,
-4.67518196e-02f,-1.08403802e-01f,-1.79978222e-01f,-1.37529776e-01f,-2.57805765e-01f,
-9.40420926e-02f,-1.90913498e-01f,-5.53889796e-02f,+3.58230770e-02f,+3.01958025e-02f,
+7.82727301e-02f,+3.11586261e-02f,-4.36956761e-03f,-6.20246865e-02f,-2.94979475e-02f,
-2.82455608e-02f,-5.77974208e-02f,-1.33314962e-02f,-1.54376114e-02f,+7.12468252e-02f,
-4.35527926e-03f,-9.89083275e-02f,+4.48112637e-02f,-2.93101314e-02f,-1.37918198e-03f,
-1.46283016e-01f,-6.48623183e-02f,+1.58446491e-01f,+8.66594315e-02f,-1.70933813e-01f,
-6.89018145e-03f,+1.44353241e-01f,-1.45910725e-01f,-7.53931254e-02f,+4.73077036e-02f,
+1.08538710e-01f,+1.10486425e-01f,-9.36810225e-02f,+1.33181319e-01f,+1.71113849e-01f,
-5.44960089e-02f,+6.80235848e-02f,+6.33918270e-02f,+2.80906726e-02f,-3.75377461e-02f,
+8.66342038e-02f,+1.87362298e-01f,+1.25876097e-02f,+3.94532420e-02f,-3.24552469e-02f,
-9.63151380e-02f,+3.23077105e-02f,+5.46326265e-02f,+3.71684693e-02f,+2.12261647e-01f,
+9.33622345e-02f,+1.14415087e-01f,-1.78931892e-01f,-5.62161766e-02f,-1.61334366e-01f,
-3.16186756e-01f,-1.15355417e-01f,+1.56329945e-02f,-1.82332397e-02f,-3.48273868e-04f,
+2.33692601e-02f,+1.19659878e-01f,-2.52149016e-01f,+4.21041921e-02f,-1.55116290e-01f,
-1.54124349e-01f,-3.51668447e-01f,+1.72399923e-01f,-1.77558661e-02f,+1.20646514e-01f,
-7.58372918e-02f,+1.01342518e-02f,-4.97894548e-02f,-1.67461470e-01f,-1.86291710e-01f,
-8.94338265e-02f,+9.61193666e-02f,+4.58623394e-02f,-5.68251014e-02f,-6.99965134e-02f,
-7.56661221e-02f,-1.65561680e-02f,+4.54934873e-02f,+1.28595516e-01f,+2.47517988e-01f,
+2.53865998e-02f,-9.94640142e-02f,+1.29825696e-01f,-1.45531120e-02f,+2.81535327e-01f,
-1.60964593e-01f,+8.72754678e-02f,+1.61649346e-01f,-2.35474795e-01f,+9.59798247e-02f,
+1.62594784e-02f,-1.35919675e-01f,-9.04121175e-02f,+1.05420753e-01f,+1.39731318e-01f,
-3.03409924e-03f,-1.77084818e-01f,-7.95963779e-02f,+7.43024843e-03f,-8.26769993e-02f,
+2.59335153e-02f,+1.11987866e-01f,-1.07569419e-01f,+2.49270070e-02f,-2.51191765e-01f,
+2.76186783e-02f,-3.47041711e-02f,-1.08155031e-02f,-3.99043178e-03f,+5.21338806e-02f,
+6.11507297e-02f,-1.72887761e-02f,+2.24653464e-02f,-2.21856823e-03f,-2.26821750e-02f,
-1.38116293e-02f,+7.25316629e-02f,-4.94474135e-02f,-2.23073289e-01f,-1.80862874e-01f,
-1.57428324e-01f,+1.50736771e-03f,-8.32000673e-02f,-4.23859991e-02f,-1.13257326e-01f,
+4.48058657e-02f,+4.50303145e-02f,-3.24749239e-02f,+6.84398413e-02f,-1.12606369e-01f,
+9.88642648e-02f,+1.98511481e-02f,-6.73392601e-03f,-3.97191457e-02f,+9.47925970e-02f,
-1.92209437e-01f,+1.94841027e-02f,+6.78481162e-02f,+6.74480870e-02f,+7.20289946e-02f,
-2.10867882e-01f,-1.75069138e-01f,+2.26208754e-02f,-2.44861439e-01f,+1.74729273e-01f,
-4.97547798e-02f,-3.45317200e-02f,-2.41431519e-01f,+5.04588848e-03f,+1.03922784e-01f,
-1.61670476e-01f,+5.30405790e-02f,+6.07204204e-03f,+1.84870839e-01f,-3.58475260e-02f,
-1.61534891e-01f,+1.99247807e-01f,-5.31156063e-02f,-2.62267768e-01f,+3.62059958e-02f,
-6.96733892e-02f,-3.00906152e-02f,-6.91362545e-02f,+2.26408303e-01f,-3.61121632e-02f,
+4.78467718e-02f,-8.41994286e-02f,-2.53956765e-01f,+7.96562135e-02f,-3.01290721e-01f,
+8.06297641e-03f,-8.03359300e-02f,-8.87992829e-02f,+4.20432873e-02f,-2.24525128e-02f,
-4.09164503e-02f,-8.81662965e-02f,-3.47738564e-01f,-4.73825306e-01f,-2.88619697e-01f,
-1.00817196e-01f,-1.96400657e-01f,+3.76301147e-02f,+1.38612181e-01f,+1.31049410e-01f,
-2.65476163e-02f,-1.29424021e-01f,-2.47109577e-01f,-7.30852708e-02f,-3.68587613e-01f,
-6.75050244e-02f,-2.59933561e-01f,+4.00041156e-02f,-1.65532008e-01f,+7.33617395e-02f,
-1.67983979e-01f,+9.72295851e-02f,-1.27700463e-01f,-2.32096598e-01f,-1.21467128e-01f,
+7.02587143e-02f,-1.32558256e-01f,-2.13685289e-01f,-3.25514227e-02f,-4.06270862e-01f,
+9.27751698e-03f,+8.33825301e-03f,+2.87341267e-01f,-1.12737209e-01f,-2.59419054e-01f,
+4.58851121e-02f,+4.42650467e-02f,+2.98547626e-01f,-1.31822810e-01f,+1.99804053e-01f,
-7.55421072e-02f,-1.33588001e-01f,-1.77370191e-01f,+5.49999960e-02f,+1.37501910e-01f,
-5.56340814e-02f,+4.36660424e-02f,+3.15164542e-03f,-1.35271028e-01f,+7.58789778e-02f,
+8.64811838e-02f,+6.34985184e-03f,-3.61086637e-01f,+2.34723389e-02f,-1.03799552e-01f,
+2.65202254e-01f,-2.89089065e-02f,-1.96401075e-01f,-1.87852308e-02f,-2.78597057e-01f,
+2.00153589e-01f,-1.25632426e-02f,+1.40111923e-01f,-5.75695597e-02f,+1.49137095e-01f,
+6.21751919e-02f,+9.81341768e-03f,+1.27440393e-01f,+7.38126934e-02f,-2.52369624e-02f,
+1.60028592e-01f,-1.45088183e-03f,-3.35969925e-01f,+3.27273197e-02f,+9.17512849e-02f,
+2.82367080e-01f,+1.37946084e-01f,+3.49483900e-02f,+1.35984104e-02f,+1.75253376e-01f,
+7.11955596e-03f,+8.81323740e-02f,-1.66282922e-01f,-9.48023722e-02f,+2.94873863e-02f,
-2.17397869e-01f,-2.88674086e-01f,+5.21923266e-02f,+1.66776255e-01f,+3.37554254e-02f,
-6.12620153e-02f,+3.87845308e-01f,+1.51064605e-01f,+4.84043732e-02f,-4.41191941e-02f,
-8.63622576e-02f,-1.42109752e-01f,+2.67929910e-03f,+1.37402460e-01f,-1.30125433e-01f,
-2.77596593e-01f,-1.66589290e-01f,-3.94640565e-02f,+2.96417009e-02f,+1.25429541e-01f,
-2.12335154e-01f,+1.81201082e-02f,+9.37820822e-02f,+8.16841796e-02f,+9.71284807e-02f,
+8.12903121e-02f,+2.19243485e-02f,-1.91241235e-03f,-1.73696443e-01f,-1.58685930e-02f,
-6.42606393e-02f,-1.61807053e-02f,+2.40473285e-01f,+1.58598363e-01f,-7.26899877e-02f,
+4.51315716e-02f,-7.47736590e-03f,+1.83458582e-01f,-2.85343044e-02f,+6.35093078e-02f,
-2.38994151e-01f,+7.39339590e-02f,+2.04772115e-01f,+4.04078551e-02f,+1.15020894e-01f,
-1.11407153e-02f,+8.05878490e-02f,+1.12152927e-01f,-2.17236161e-01f,-2.86494717e-02f,
-6.42830133e-02f,-1.33454233e-01f,-1.17293976e-01f,+1.34900048e-01f,+1.45234153e-01f,
-1.71900272e-01f,-9.02143493e-02f,+1.09757587e-01f,+1.89308748e-01f,-2.82579005e-01f,
+5.74273430e-02f,-1.09620765e-02f,-2.36691441e-02f,-6.47280067e-02f,-1.24966219e-01f,
+1.93367302e-02f,+4.54444215e-02f,-1.04819141e-01f,-1.48781523e-01f,+7.83148184e-02f,
-7.97128398e-03f,-8.38922560e-02f,-2.97544245e-02f,+4.66665402e-02f,+1.55025899e-01f,
-7.57804560e-03f,-1.16761727e-02f,+1.63934350e-01f,-9.09368545e-02f,+1.58893298e-02f,
-2.23621219e-01f,+9.29918885e-02f,+9.02054310e-02f,+1.19189493e-01f,-1.83174402e-01f,
+1.39201712e-02f,+4.29816917e-02f,+5.86643256e-02f,-5.67952991e-02f,-5.76851591e-02f,
-1.41533893e-02f,+5.99939339e-02f,-2.35084310e-01f,-1.27034290e-02f,+5.68465777e-02f,
+1.24132596e-01f,+4.41633798e-02f,-1.78746194e-01f,-3.47945392e-02f,+3.37779410e-02f,
-1.48739725e-01f,-1.97920904e-01f,+6.22746209e-03f,-4.18728851e-02f,-1.32615808e-02f,
+3.98847423e-02f,-5.35029359e-02f,-4.42929380e-02f,-1.83069464e-02f,-4.93975580e-02f,
+2.00731568e-02f,-7.36792013e-02f,+1.25328943e-01f,+3.25692222e-02f,-1.88511461e-01f,
+1.30522344e-02f,-7.81394467e-02f,-3.33083943e-02f,+7.95677826e-02f,-4.04022969e-02f,
-7.11901709e-02f,+1.24967024e-02f,-1.48296013e-01f,-1.26397774e-01f,-1.11174077e-01f,
+4.77588619e-04f,-2.51599364e-02f,-9.85355154e-02f,+7.07827434e-02f,+7.76684657e-02f,
-1.24665700e-01f,+3.72167528e-02f,+5.60052842e-02f,-8.61383276e-04f,-1.44049287e-01f,
+4.28668782e-02f,-6.60961941e-02f,-1.10818878e-01f,-8.42568576e-02f,-7.72678480e-03f,
-2.01766174e-02f,+7.95340389e-02f,-1.73678115e-01f,-3.21230650e-01f,+1.31953940e-01f,
-8.10863357e-03f,-1.52638748e-01f,+5.08190729e-02f,-4.32737395e-02f,+8.34551007e-02f,
+1.77441970e-01f,+6.26684874e-02f,+2.82607526e-01f,-4.35496904e-02f,-3.34849387e-01f,
+7.13438839e-02f,-1.29621923e-01f,+2.45036051e-01f,-6.09021857e-02f,+6.83332607e-02f,
+2.91226860e-02f,+1.25104431e-02f,+1.46766692e-01f,+9.74808075e-03f,+1.94248289e-01f,
-2.64901757e-01f,-8.59891176e-02f,+9.98025313e-02f,-2.83816844e-01f,-4.64090556e-02f,
+1.38690218e-01f,+3.12254373e-02f,+5.01288287e-03f,-3.95210713e-01f,-2.23230377e-01f,
+9.35314572e-04f,+1.11503430e-01f,-9.65552405e-02f,-2.38768756e-02f,+2.45551169e-02f,
+1.31704852e-01f,+7.56165609e-02f,-3.88489291e-02f,-6.05691150e-02f,+9.90525112e-02f,
-2.62274891e-01f,-1.02724746e-01f,-1.36442497e-01f,+3.59876454e-03f,-1.53706089e-01f,
+4.00415435e-02f,-1.60625830e-01f,+1.17054515e-01f,-1.72356993e-01f,-1.28529385e-01f,
+5.70970699e-02f,+1.28632560e-01f,-3.35451692e-01f,-3.19593400e-01f,+1.06884748e-01f,
-1.36900637e-02f,-4.19769026e-02f,-8.18663836e-02f,+3.02198321e-01f,-1.15678534e-01f,
-9.79440138e-02f,-1.35563195e-01f,-2.00736657e-01f,+1.48258090e-01f,-1.08481348e-01f,
+7.94291720e-02f,+3.49319354e-02f,-1.73367605e-01f,+1.31189972e-01f,+3.79952192e-02f,
+3.61086987e-02f,-3.18771899e-02f,+6.53779060e-02f,+1.41478404e-01f,-5.46106733e-02f,
-3.58683020e-02f,+4.48637456e-02f,-4.78068106e-02f,-4.62276116e-02f,-8.71672481e-02f,
+3.09384018e-02f,-1.42573779e-02f,+2.02448934e-01f,-8.63529742e-02f,-1.04827404e-01f,
-1.11441173e-01f,+1.43673271e-01f,+7.53639713e-02f,+6.83436990e-02f,+5.78090921e-02f,
-9.41619724e-02f,-3.21085379e-02f,-6.24096766e-02f,+1.00072354e-01f,-5.75725697e-02f,
+3.66679467e-02f,+3.81664895e-02f,-2.32743397e-01f,-2.03899115e-01f,-1.03336394e-01f,
-1.78338948e-03f,-1.60513625e-01f,+6.11479133e-02f,+6.92004487e-02f,+1.32733583e-01f,
-7.95210227e-02f,-4.07575816e-02f,+1.21119125e-02f,-6.81176782e-02f,-2.64993589e-02f,
+4.57361387e-03f,-1.19443022e-01f,+5.02254721e-03f,+8.69147480e-02f,+2.79400442e-02f,
-1.42410966e-02f,-8.38402193e-03f,+1.59557164e-02f,+5.33431433e-02f,-1.70827851e-01f,
+4.31640111e-02f,+4.46754955e-02f,-2.03802243e-01f,+1.23770297e-01f,+7.78987855e-02f,
-1.58785045e-01f,-2.28878498e-01f,-9.16396827e-02f,+5.04973205e-03f,+8.88529792e-02f,
+1.17526472e-01f,-2.49978185e-01f,+1.03676245e-01f,-7.98654258e-02f,-1.66617796e-01f,
+6.34208098e-02f,+1.11349821e-01f,+6.27814140e-03f,-1.58843249e-02f,-1.58935323e-01f,
+3.76732796e-02f,-3.70265869e-03f,-5.28263450e-02f,-1.63391054e-01f,+3.69351357e-02f,
-7.92339593e-02f,+1.15247481e-01f,-1.00680441e-01f,-1.04016103e-01f,+7.82124139e-03f,
+3.63666452e-02f,+1.35284647e-01f,-3.76263796e-03f,-9.23258290e-02f,-1.36612087e-01f,
-5.17916493e-02f,+4.60686395e-03f,-2.37825345e-02f,-8.95163193e-02f,-4.50902581e-02f,
+1.00378968e-01f,-2.78150916e-01f,-1.86137572e-01f,-1.45445123e-01f,-5.84462024e-02f,
-2.50189483e-01f,-5.64450435e-02f,-7.40826875e-02f,-7.71212503e-02f,-1.48882747e-01f,
+5.20110577e-02f,+3.17861959e-02f,-1.45410135e-01f,-7.32691726e-03f,-7.50418520e-03f,
-1.44976243e-01f,-4.48707715e-02f,-3.77739519e-02f,-1.07272647e-01f,+1.10692285e-01f,
+6.59277514e-02f,-2.22002771e-02f,+3.83055862e-03f,-2.50527114e-01f,-3.63125242e-02f,
+1.31776920e-02f,-2.31089771e-01f,+1.32945955e-01f,-1.00696616e-01f,-1.18306659e-01f,
-2.35134646e-01f,-1.22733496e-01f,+9.19809267e-02f,-2.08447073e-02f,-3.35762203e-01f,
+1.03995092e-01f,-2.35153720e-01f,+1.67925626e-01f,+3.73919792e-02f,+4.21869643e-02f,
-1.95488095e-01f,-3.32520679e-02f,-5.95521815e-02f,-4.74327691e-02f,-1.85239036e-02f,
-7.48447478e-02f,-2.53413439e-01f,-3.12781893e-03f,-1.09670078e-02f,+6.28964454e-02f,
-2.08792668e-02f,+1.09038584e-01f,+3.64190102e-01f,-3.71017694e-01f,+3.25506218e-02f,
-4.51733291e-01f,-1.01717174e-01f,-2.88519681e-01f,+2.63973176e-01f,-4.75070700e-02f,
-2.27149487e-01f,+6.52490482e-02f,+1.28048658e-01f,-9.42709148e-02f,+2.50442736e-02f,
-5.88871688e-02f,-3.82908247e-02f,-1.15752414e-01f,-1.10175900e-01f,+4.51985281e-04f,
-5.56612350e-02f,-1.52515918e-01f,-5.56266867e-02f,+1.11955449e-01f,-2.14304715e-01f,
-4.86279093e-03f,+1.41229779e-01f,-5.57091013e-02f,-3.67737859e-02f,-1.70280173e-01f,
+1.30897611e-01f,+9.86397490e-02f,+9.92694199e-02f,-1.64695550e-02f,-1.63842410e-01f,
+2.41720349e-01f,+9.65637937e-02f,+4.48311836e-01f,+1.04243457e-02f,-8.21808949e-02f,
-2.29241490e-01f,+7.23563805e-02f,-6.63522780e-02f,+3.36047858e-01f,+1.20479025e-01f,
-2.24613011e-01f,-8.44688267e-02f,+4.74344864e-02f,+2.22670399e-02f,+8.39237571e-02f,
-1.34739101e-01f,-9.60757285e-02f,-1.70308843e-01f,-2.23426893e-01f,+2.19569094e-02f,
+8.59609395e-02f,-8.04584473e-02f,+5.60893640e-02f,+1.79435182e-02f,+1.19888641e-01f,
-2.78071582e-01f,-1.93665177e-01f,+5.88598587e-02f,+2.09940359e-01f,-2.39307269e-01f,
-1.66291147e-01f,-3.80472839e-01f,-6.39364943e-02f,-3.00161485e-02f,+1.39073730e-01f,
+4.18298878e-02f,-2.15476483e-01f,-4.60696891e-02f,-9.32614282e-02f,+4.29121517e-02f,
+4.95852716e-02f,-9.40248487e-04f,-6.05907701e-02f,+1.41541973e-01f,-1.15651619e-02f,
-3.73165071e-01f,+8.50097314e-02f,-1.54983297e-01f,+2.55905747e-01f,-6.91499114e-02f,
+1.33278407e-02f,+7.94382542e-02f,-4.72976305e-02f,+1.30120069e-01f,+8.26515853e-02f,
-9.28697661e-02f,+7.39180446e-02f,-9.46017951e-02f,-2.41357405e-02f,-7.48889614e-03f,
-1.49784645e-03f,+2.54889578e-01f,+1.60877164e-02f,+1.86369881e-01f,-3.04647721e-02f,
+6.65667653e-02f,-9.96670499e-02f,-5.95910400e-02f,+3.14432755e-02f,-2.61813283e-01f,
-1.50777206e-01f,+9.13836285e-02f,-7.05877393e-02f,-2.21514240e-01f,+6.16793334e-02f,
+1.09900504e-01f,-4.56626117e-01f,-7.48251155e-02f,-1.83409289e-01f,-1.63953915e-01f,
+7.13718459e-02f,+2.43123338e-01f,+2.51711681e-02f,+1.13975435e-01f,-2.17739150e-01f,
+2.42547244e-02f,-2.41072893e-01f,+1.14276968e-01f,-4.14287969e-02f,-4.74534482e-02f,
+2.01758802e-01f,+2.36269876e-01f,-3.01950604e-01f,+5.55613525e-02f,+9.81965065e-02f,
+1.08803704e-01f,+7.55951032e-02f,-7.66681582e-02f,-1.94559753e-01f,-6.35080338e-02f,
-2.04022646e-01f,-1.77003592e-01f,-1.45548746e-01f,-1.68254487e-02f,-2.65739471e-01f,
+1.73903987e-01f,-4.20569450e-01f,-1.09075628e-01f,+1.59882717e-02f,-3.01021576e-01f,
-1.43454596e-01f,-1.28292561e-01f,+3.20169814e-02f,-2.30180264e-01f,-6.75553083e-01f,
+7.78513551e-02f,+9.03116167e-02f,-5.90434782e-02f,+6.78438693e-02f,+1.38903307e-02f,
-2.89132774e-01f,-3.15952241e-01f,+9.62046459e-02f,+1.13175735e-01f,-4.22050506e-01f,
+2.98906695e-02f,-3.48655730e-01f,+2.62771875e-01f,-1.34947240e-01f,-2.07398459e-01f,
-1.29782990e-01f,-1.19793050e-01f,+1.56349972e-01f,-1.82456570e-03f,+8.73752236e-02f,
+2.57908534e-02f,-1.03318520e-01f,+2.60269523e-01f,-1.30119979e-01f,-7.03276098e-02f,
+1.01742916e-01f,+1.93100367e-02f,-3.63200128e-01f,-3.19717899e-02f,+9.79817882e-02f,
+1.38594016e-01f,+1.96477175e-01f,-7.59664108e-04f,+1.05690733e-01f,+4.42083217e-02f,
-8.25006217e-02f,+2.12044626e-01f,-3.16781066e-02f,-3.71971428e-02f,+1.23834707e-01f,
-1.01784348e-01f,+4.45614196e-02f,+1.53956324e-01f,+3.28982323e-02f,+4.58114631e-02f,
-1.66542009e-01f,+7.84417093e-02f,-1.00411989e-01f,+1.15079455e-01f,+1.77420080e-01f,
+1.79262698e-01f,+1.60811871e-01f,-3.65322852e-03f,+1.75583556e-01f,+1.98750943e-01f,
+5.60168214e-02f,+1.50328085e-01f,-4.41489853e-02f,-1.48374632e-01f,+8.09372589e-02f,
+3.14456820e-02f,-1.94820520e-02f,+1.32140905e-01f,+1.25136837e-01f,-1.39913678e-01f,
+9.82794389e-02f,+1.04629114e-01f,+8.24661031e-02f,-2.58997768e-01f,+7.69327283e-02f,
-6.62390664e-02f,-5.11339232e-02f,-2.89628446e-01f,+5.39579801e-02f,+1.47452489e-01f,
+1.13721699e-01f,-1.34440333e-01f,-6.79197982e-02f,+1.06605120e-01f,+2.53872901e-01f,
+6.93624243e-02f,-5.15187867e-02f,-4.97390255e-02f,-2.80957427e-02f,+1.52836099e-01f,
-3.57162416e-01f,-2.87490785e-01f,-1.79349199e-01f,+9.34952274e-02f,+3.40540968e-02f,
+4.83648069e-02f,+6.20812252e-02f,-5.02200350e-02f,+1.96318626e-01f,+1.69481337e-01f,
+2.82897763e-02f,+6.87424317e-02f,+1.60599485e-01f,+2.66018733e-02f,-4.52510715e-02f,
-3.48533988e-02f,-4.47469465e-02f,-5.31501547e-02f,+1.00810580e-01f,-1.63202430e-03f,
-1.86408505e-01f,+1.88459456e-02f,-9.07698944e-02f,+2.98113972e-01f,-6.19950593e-02f,
+6.45243526e-02f,-1.44360438e-01f,-2.92476956e-02f,+1.77445903e-01f,+1.24715708e-01f,
+1.66352138e-01f,+2.30865534e-02f,+1.39725849e-01f,+2.16420799e-01f,-9.88026485e-02f,
-7.89218768e-02f,-1.51036367e-01f,-2.28117034e-01f,-1.63044743e-02f,+7.71067590e-02f,
-1.46387056e-01f,-1.39581099e-01f,+6.39490038e-02f,-1.26153324e-02f,+1.81309804e-01f,
-2.46429488e-01f,+2.85340160e-01f,+9.34215263e-02f,-1.21647216e-01f,+3.67536955e-02f,
-1.07141003e-01f,+8.32714736e-02f,+1.05680171e-02f,-6.72418252e-02f,+4.68725003e-02f,
+3.58613580e-02f,+1.18422292e-01f,-3.45532149e-01f,+6.39324933e-02f,+3.76486555e-02f,
+3.84337530e-02f,-1.57034621e-02f,+4.36417088e-02f,+3.23319227e-01f,+8.93671885e-02f,
-1.93511918e-01f,-4.55027185e-02f,+1.00694656e-01f,-2.11459756e-01f,+8.61586481e-02f,
-1.43077493e-01f,-8.68140757e-02f,-6.02081679e-02f,+2.40442201e-01f,-1.36654666e-02f,
+1.06352314e-01f,-4.85142097e-02f,-2.93199923e-02f,-2.10308924e-01f,+9.22818854e-03f,
-1.61377653e-01f,-4.57608066e-02f,+9.47811529e-02f,+4.03265059e-02f,-5.68339117e-02f,
-3.33391838e-02f,-1.75021783e-01f,+3.66440415e-02f,-8.64940733e-02f,-9.87614617e-02f,
-1.55406952e-01f,+5.57482094e-02f,-1.15493260e-01f,-9.00007263e-02f,-1.48988485e-01f,
+2.20511835e-02f,+4.88171913e-02f,-1.21076135e-02f,-1.00836448e-01f,+2.48616398e-03f,
-9.30577889e-02f,-2.01253489e-01f,-1.70584202e-01f,+3.30703892e-02f,-6.94552585e-02f,
-3.86817008e-01f,-2.67820060e-01f,-3.03899776e-03f,+1.65022835e-01f,-3.54265198e-02f,
-5.28055429e-02f,-1.14222495e-02f,-3.39968979e-01f,-9.64549705e-02f,-1.27865970e-01f,
+1.22395299e-01f,-4.26871777e-02f,-1.30686149e-01f,-2.01215893e-01f,-1.54064698e-02f,
-1.18840232e-01f,-2.41419703e-01f,-2.50478923e-01f,-8.29155445e-02f,-1.51762748e-02f,
+8.80986527e-02f,+3.42708954e-04f,-9.15988982e-02f,-6.56845570e-02f,+9.15071145e-02f,
-1.64753333e-01f,-8.55330601e-02f,-1.74975488e-03f,+1.08929679e-01f,-1.54462129e-01f,
+6.24157302e-02f,+4.84234132e-02f,-9.75287799e-03f,+7.69326389e-02f,-2.91007608e-02f,
-1.65738672e-01f,+4.00155932e-02f,-1.84570789e-01f,+2.37847511e-02f,+3.88935842e-02f,
+3.40227224e-02f,-5.41450344e-02f,-1.64636031e-01f,-2.41330620e-02f,-3.69463377e-02f,
-1.11143313e-01f,-5.96797913e-02f,+3.05846632e-02f,-1.49086351e-02f,+9.30093378e-02f,
-2.49629598e-02f,+1.19151682e-01f,+5.36655709e-02f,-4.71963324e-02f,-2.19189376e-01f,
-7.90001526e-02f,-5.50998598e-02f,+2.13811118e-02f,+3.62765156e-02f,-1.72180071e-01f,
-6.81842417e-02f,+2.08639093e-02f,-4.61949818e-02f,+2.89057195e-02f,-2.71557290e-02f,
-1.92227717e-02f,-5.50358221e-02f,-4.23375666e-02f,-4.15840484e-02f,-8.52787495e-02f,
-2.21355986e-02f,-2.88308226e-02f,-1.62290096e-01f,+1.07752450e-01f,+1.41161859e-01f,
-1.46297544e-01f,+8.44193399e-02f,+6.95487261e-02f,-1.13510162e-01f,+3.39416903e-03f,
+1.47000238e-01f,-2.94777732e-02f,+4.17191312e-02f,-7.35275671e-02f,-2.25602230e-03f,
-8.89500082e-02f,-4.01335768e-02f,-8.30010176e-02f,-3.45028400e-01f,+1.08617162e-02f,
-2.48260293e-02f,-5.25394440e-01f,-5.99365160e-02f,-9.62107480e-02f,-1.30828112e-01f,
+2.12527309e-02f,+1.40081033e-01f,+2.96276994e-02f,+1.43092826e-01f,-3.26829821e-01f,
+5.84300160e-02f,-8.54403526e-02f,+1.73036635e-01f,-1.81590065e-01f,-1.49408266e-01f,
+1.34084940e-01f,+3.00973833e-01f,-2.95815974e-01f,+2.06914935e-02f,+1.83469817e-01f,
-3.38881020e-03f,+1.38023514e-02f,+1.38081843e-02f,-3.25596422e-01f,+1.29070878e-02f,
-1.80170998e-01f,-5.57084717e-02f,-1.36487693e-01f,+3.48466523e-02f,-3.64277273e-01f,
+1.01211816e-02f,-4.09759521e-01f,-9.77344662e-02f,+3.76671441e-02f,-2.48559445e-01f,
-1.32285923e-01f,-2.19045162e-01f,+6.31938577e-02f,-3.58908266e-01f,-5.61481297e-01f,
+1.37198135e-01f,+8.67604986e-02f,-3.74146067e-02f,+2.31081583e-02f,+8.55911709e-03f,
-3.46492171e-01f,-4.51158792e-01f,-1.84908020e-03f,+1.32802397e-01f,-4.47516084e-01f,
-1.27639934e-01f,-3.28727961e-01f,+1.26953840e-01f,-7.56839896e-03f,-2.67893881e-01f,
-1.30070180e-01f,-5.97572736e-02f,+1.49830222e-01f,+1.58683524e-01f,-1.84206441e-02f,
-7.58589432e-02f,-1.01514697e-01f,+1.93672344e-01f,-2.23917767e-01f,-1.20582670e-01f,
+4.73381504e-02f,+1.28984964e-02f,-1.27565205e-01f,+6.49642497e-02f,-1.24607973e-01f,
-3.84443663e-02f,-5.95055595e-02f,+1.39033094e-01f,+6.03617227e-04f,-1.43786296e-02f,
-1.95780665e-01f,-4.53090817e-02f,-1.67074073e-02f,-1.79675687e-02f,-3.56951058e-02f,
-2.49579083e-02f,-9.42938551e-02f,+1.31093442e-01f,-1.42086416e-01f,-1.63782448e-01f,
+4.69515286e-02f,+7.20474496e-02f,+6.43535480e-02f,-3.69868637e-03f,-4.52487208e-02f,
-1.21714607e-01f,-4.11890782e-02f,-7.20750839e-02f,+7.72351101e-02f,-4.33445163e-02f,
+5.39489165e-02f,-1.29643606e-03f,-1.25119612e-01f,-3.40193391e-01f,-2.26264343e-01f,
+4.08857502e-02f,-1.99535087e-01f,+1.90087594e-02f,-3.55904587e-02f,-1.60713606e-02f,
-7.71811381e-02f,+1.15205400e-01f,-6.64635673e-02f,+8.17984063e-03f,-5.23182284e-03f,
+2.17756443e-02f,-1.20187350e-01f,+9.35060382e-02f,-5.69304544e-03f,+2.37833858e-02f,
-2.96317823e-02f,-7.77022839e-02f,-4.16705245e-03f,-3.94287519e-02f,-1.59111619e-01f,
-7.76906759e-02f,-8.50680284e-03f,-1.34561121e-01f,+5.61295040e-02f,-6.93210140e-02f,
-1.22927353e-01f,-1.75502554e-01f,-1.37886107e-01f,+9.76438224e-02f,+2.93211043e-02f,
+1.57731902e-02f,-3.25031914e-02f,+1.93068072e-01f,-7.17117544e-03f,+5.68248006e-03f,
-7.17163011e-02f,-2.26994064e-02f,-6.31128671e-03f,-1.01025067e-01f,-1.46121562e-01f,
+1.68354064e-02f,+5.98612614e-02f,+1.76529419e-02f,+9.32387561e-02f,+2.57792529e-02f,
+2.85289586e-02f,+3.97701375e-02f,-6.36058748e-02f,+2.41582282e-02f,-1.64000586e-01f,
+3.49061191e-02f,+1.67059954e-02f,+9.35019702e-02f,+1.71297342e-01f,-8.78001675e-02f,
+1.43391252e-01f,+3.75632383e-02f,+6.57409653e-02f,-4.98561747e-02f,+1.43875061e-02f,
+2.82367095e-02f,-1.35920748e-01f,-1.70897618e-01f,-4.07447247e-03f,+1.62802562e-02f,
-2.14065880e-01f,-4.11926359e-02f,+1.11955628e-01f,+3.65657993e-02f,+1.29249588e-01f,
-1.65993616e-01f,+1.10828556e-01f,-1.08973645e-01f,+7.44470656e-02f,-2.69935392e-02f,
-4.18709069e-02f,-4.74715158e-02f,+1.19755372e-01f,-3.87415104e-02f,+3.56622934e-02f,
-1.27249911e-01f,-6.17143214e-02f,-6.74802661e-02f,-1.65465161e-01f,+3.96253616e-02f,
+4.53484021e-02f,-1.05416171e-01f,+1.93473883e-02f,+7.44136423e-02f,+7.19301030e-02f,
-8.88819844e-02f,-3.24289128e-02f,+7.81454369e-02f,+1.54381871e-01f,-4.00588140e-02f,
-5.60974367e-02f,+8.49889219e-02f,-2.27353647e-02f,+2.17750520e-02f,-6.12730719e-02f,
-1.65014580e-01f,+2.96212673e-01f,-7.81881735e-02f,+3.37105207e-02f,-3.07701945e-01f,
+4.43458632e-02f,+2.36567724e-02f,+1.72502369e-01f,-4.96365782e-03f,-1.48764318e-02f,
-2.60825157e-01f,-1.99984878e-01f,+2.74716496e-01f,-1.40294239e-01f,+1.54992873e-02f,
+1.85191423e-01f,+9.37340781e-03f,+1.40229091e-01f,+6.41544610e-02f,+1.63443610e-01f,
-1.95585206e-01f,+1.77968517e-01f,+1.48149893e-01f,-1.44330025e-01f,-8.85565504e-02f,
-9.58812907e-02f,-4.43382747e-02f,+1.54946968e-01f,+1.24539912e-01f,-2.02810884e-01f,
-2.25524023e-01f,-6.82943268e-03f,-2.36695409e-01f,+2.11530373e-01f,-4.04733598e-01f,
+1.33628070e-01f,-5.45194075e-02f,-6.74431911e-03f,+1.82056636e-01f,-9.85679999e-02f,
+1.15546286e-01f,+1.21821195e-01f,-9.39425752e-02f,+4.46282811e-02f,-1.95024833e-01f,
+2.04204410e-01f,-1.52024448e-01f,+5.01356423e-02f,+2.93975370e-03f,-1.96693297e-02f,
-3.70308931e-04f,-7.95141701e-03f,+1.86244622e-01f,+1.88454300e-01f,-1.56512216e-01f,
+8.45353156e-02f,+1.31646365e-01f,+8.25348943e-02f,+3.91903445e-02f,-1.73069239e-01f,
+2.87632812e-02f,+2.14448601e-01f,+1.36859760e-01f,+3.36073667e-01f,+1.30659431e-01f,
-2.67323196e-01f,+1.59717336e-01f,-2.88302660e-01f,+2.97258645e-01f,-1.94486409e-01f,
-1.12768505e-02f,-1.32230297e-02f,-7.38027021e-02f,+1.73489898e-01f,+2.31911331e-01f,
+2.45354071e-01f,-9.71170738e-02f,-5.73828630e-02f,+2.07981035e-01f,-2.33877957e-01f,
+9.17604491e-02f,+1.89576894e-01f,+5.30120507e-02f,+1.15733236e-01f,-3.37161124e-01f,
-1.13498094e-02f,+9.02619883e-02f,+1.72669843e-01f,+1.24868721e-01f,+5.92885911e-02f,
-7.42286816e-02f,-1.18484199e-01f,+2.34235689e-01f,+1.34364832e-02f,+2.13152975e-01f,
+3.01323056e-01f,-2.37767175e-01f,-2.45545328e-01f,-1.73585594e-01f,-5.75821586e-02f,
-1.74866244e-01f,+1.25082090e-01f,+4.05800268e-02f,-4.21853773e-02f,-2.59980559e-01f,
-1.67888869e-02f,+2.16773786e-02f,+1.80044830e-01f,-3.58633310e-01f,-2.66088903e-01f,
+1.17304862e-01f,+2.95483172e-01f,+9.42210406e-02f,-8.51475894e-02f,+9.68356580e-02f,
-6.88352957e-02f,+1.42959282e-02f,-2.27547601e-01f,-2.35707000e-01f,-1.33335620e-01f,
-2.16122761e-01f,+3.35093103e-02f,+4.92283963e-02f,-2.08280861e-01f,+1.21566630e-03f,
-7.76158720e-02f,+1.36064947e-01f,-6.16208687e-02f,+1.32661304e-02f,-1.44874290e-01f,
+1.38177678e-01f,-2.21192092e-01f,+1.00556388e-01f,+1.16878211e-01f,+1.83137029e-01f,
+1.34886980e-01f,-1.66878954e-01f,+8.42573643e-02f,-3.21728401e-02f,-3.81067723e-01f,
-3.45667332e-01f,-5.82480691e-02f,-8.81603360e-02f,+7.15477318e-02f,-1.30530044e-01f,
+9.23605785e-02f,-2.09027693e-01f,-2.68072337e-02f,-6.88241720e-02f,-1.58359692e-01f,
-1.99463278e-01f,+1.04289956e-01f,-3.44677538e-01f,-1.14086624e-02f,+5.58810607e-02f,
-8.53584483e-02f,-8.32885727e-02f,+2.39304990e-01f,-1.72471151e-01f,-1.07000187e-01f,
-3.91239785e-02f,-8.70004222e-02f,-2.53772080e-01f,-5.71478531e-02f,+6.00732025e-03f,
